{"version": "cogwear-samsung-1.0", "modelType": "xgboost", "task": "binary_logistic", "features": ["meanRR", "sdnn", "rmssd", "pnn50", "pnn20", "hrMean", "hrStd", "hrRange", "cvRR", "sd1", "sd2", "sd1sd2Ratio", "sampleEntropy", "dfaAlpha1"], "numFeatures": 14, "numTrees": 400, "baseScore": 0.0, "applySigmoid": true, "learningRate": 0.05, "normalization": {"mean": {"meanRR": 830.0609304029343, "sdnn": 78.04283251985157, "rmssd": 98.45613108226287, "pnn50": 45.970901727750416, "pnn20": 75.12149865407739, "hrMean": 75.5189967874401, "hrStd": 7.49898359652447, "hrRange": 40.58117912633016, "cvRR": 0.09457447451636271, "sd1": 69.93980031799131, "sd2": 83.73338525583684, "sd1sd2Ratio": 0.8444202476615269, "sampleEntropy": 1.9313529698285485, "dfaAlpha1": 0.7637288539684236}, "std": {"meanRR": 151.77829040661337, "sdnn": 27.742127150334433, "rmssd": 43.55879027315559, "pnn50": 19.53792128650928, "pnn20": 12.348094479472465, "hrMean": 14.176795792461144, "hrStd": 2.866886512858351, "hrRange": 11.479954109042133, "cvRR": 0.030227073871630712, "sd1": 31.016290142393572, "sd2": 28.664389570631286, "sd1sd2Ratio": 0.24697529021981673, "sampleEntropy": 0.436766568397955, "dfaAlpha1": 0.20785998384157187}}, "perUserNorm": true, "decisionThreshold": 0.5, "trees": [{"nodeid": 0, "depth": 0, "split": "dfaAlpha1", "split_condition": 0.613500237, "yes": 1, "no": 2, "missing": 2, "children": [{"nodeid": 1, "depth": 1, "split": "meanRR", "split_condition": 0.897430837, "yes": 3, "no": 4, "missing": 4, "children": [{"nodeid": 3, "leaf": 0.0533920228}, {"nodeid": 4, "leaf": -0.026509488}]}, {"nodeid": 2, "depth": 1, "split": "hrMean", "split_condition": 1.03194118, "yes": 5, "no": 6, "missing": 6, "children": [{"nodeid": 5, "leaf": -0.0596608929}, {"nodeid": 6, "leaf": 0.011290323}]}]}, {"nodeid": 0, "depth": 0, "split": "pnn20", "split_condition": -0.543319345, "yes": 1, "no": 2, "missing": 2, "children": [{"nodeid": 1, "depth": 1, "split": "hrStd", "split_condition": -0.184176445, "yes": 3, "no": 4, "missing": 4, "children": [{"nodeid": 3, "leaf": -0.0576212481}, {"nodeid": 4, "leaf": -0.00773377344}]}, {"nodeid": 2, "depth": 1, "split": "dfaAlpha1", "split_condition": 0.232872501, "yes": 5, "no": 6, "missing": 6, "children": [{"nodeid": 5, "leaf": 0.0507778116}, {"nodeid": 6, "leaf": -0.0136485845}]}]}, {"nodeid": 0, "depth": 0, "split": "pnn50", "split_condition": -0.647503138, "yes": 1, "no": 2, "missing": 2, "children": [{"nodeid": 1, "depth": 1, "split": "sd1sd2Ratio", "split_condition": -0.0971213579, "yes": 3, "no": 4, "missing": 4, "children": [{"nodeid": 3, "leaf": -0.0591457151}, {"nodeid": 4, "leaf": 0.00100362336}]}, {"nodeid": 2, "depth": 1, "split": "sampleEntropy", "split_condition": -0.276899904, "yes": 5, "no": 6, "missing": 6, "children": [{"nodeid": 5, "leaf": -0.0138653759}, {"nodeid": 6, "leaf": 0.0538825467}]}]}, {"nodeid": 0, "depth": 0, "split": "dfaAlpha1", "split_condition": 0.0316163115, "yes": 1, "no": 2, "missing": 2, "children": [{"nodeid": 1, "depth": 1, "split": "hrMean", "split_condition": -0.960827589, "yes": 3, "no": 4, "missing": 4, "children": [{"nodeid": 3, "leaf": -0.00577828661}, {"nodeid": 4, "leaf": 0.0532256961}]}, {"nodeid": 2, "depth": 1, "split": "hrRange", "split_condition": -0.137409359, "yes": 5, "no": 6, "missing": 6, "children": [{"nodeid": 5, "leaf": -0.0588299446}, {"nodeid": 6, "leaf": -0.00493905088}]}]}, {"nodeid": 0, "depth": 0, "split": "dfaAlpha1", "split_condition": 0.613500237, "yes": 1, "no": 2, "missing": 2, "children": [{"nodeid": 1, "depth": 1, "split": "hrStd", "split_condition": 1.12951207, "yes": 3, "no": 4, "missing": 4, "children": [{"nodeid": 3, "leaf": 0.0423632674}, {"nodeid": 4, "leaf": -0.025947297}]}, {"nodeid": 2, "depth": 1, "split": "hrMean", "split_condition": 1.03194118, "yes": 5, "no": 6, "missing": 6, "children": [{"nodeid": 5, "leaf": -0.0522627793}, {"nodeid": 6, "leaf": 0.0111773144}]}]}, {"nodeid": 0, "depth": 0, "split": "pnn50", "split_condition": -0.321468323, "yes": 1, "no": 2, "missing": 2, "children": [{"nodeid": 1, "depth": 1, "split": "meanRR", "split_condition": 0.665531516, "yes": 3, "no": 4, "missing": 4, "children": [{"nodeid": 3, "leaf": -0.00967528205}, {"nodeid": 4, "leaf": -0.0639795065}]}, {"nodeid": 2, "depth": 1, "split": "sd2", "split_condition": 0.944473505, "yes": 5, "no": 6, "missing": 6, "children": [{"nodeid": 5, "leaf": 0.0566921942}, {"nodeid": 6, "leaf": -0.0224741232}]}]}, {"nodeid": 0, "depth": 0, "split": "dfaAlpha1", "split_condition": 0.0316163115, "yes": 1, "no": 2, "missing": 2, "children": [{"nodeid": 1, "depth": 1, "split": "hrMean", "split_condition": -1.00260735, "yes": 3, "no": 4, "missing": 4, "children": [{"nodeid": 3, "leaf": -0.0222103819}, {"nodeid": 4, "leaf": 0.0443540774}]}, {"nodeid": 2, "depth": 1, "split": "meanRR", "split_condition": 0.665531516, "yes": 5, "no": 6, "missing": 6, "children": [{"nodeid": 5, "leaf": -0.00934581552}, {"nodeid": 6, "leaf": -0.0634305626}]}]}, {"nodeid": 0, "depth": 0, "split": "pnn20", "split_condition": -0.543319345, "yes": 1, "no": 2, "missing": 2, "children": [{"nodeid": 1, "depth": 1, "split": "meanRR", "split_condition": 0.825199783, "yes": 3, "no": 4, "missing": 4, "children": [{"nodeid": 3, "leaf": -0.0109214121}, {"nodeid": 4, "leaf": -0.0611440055}]}, {"nodeid": 2, "depth": 1, "split": "rmssd", "split_condition": 1.51048672, "yes": 5, "no": 6, "missing": 6, "children": [{"nodeid": 5, "leaf": 0.0367738716}, {"nodeid": 6, "leaf": -0.0352957472}]}]}, {"nodeid": 0, "depth": 0, "split": "sampleEntropy", "split_condition": -0.189551145, "yes": 1, "no": 2, "missing": 2, "children": [{"nodeid": 1, "depth": 1, "split": "hrMean", "split_condition": -1.00260735, "yes": 3, "no": 4, "missing": 4, "children": [{"nodeid": 3, "leaf": -0.0564016961}, {"nodeid": 4, "leaf": -0.0126902182}]}, {"nodeid": 2, "depth": 1, "split": "hrMean", "split_condition": -1.2478497, "yes": 5, "no": 6, "missing": 6, "children": [{"nodeid": 5, "leaf": -0.0328000672}, {"nodeid": 6, "leaf": 0.0441626199}]}]}, {"nodeid": 0, "depth": 0, "split": "hrMean", "split_condition": -0.977684021, "yes": 1, "no": 2, "missing": 2, "children": [{"nodeid": 1, "depth": 1, "split": "dfaAlpha1", "split_condition": -0.320809871, "yes": 3, "no": 4, "missing": 4, "children": [{"nodeid": 3, "leaf": -0.0138683962}, {"nodeid": 4, "leaf": -0.0631667078}]}, {"nodeid": 2, "depth": 1, "split": "pnn50", "split_condition": -0.681842506, "yes": 5, "no": 6, "missing": 6, "children": [{"nodeid": 5, "leaf": -0.0262054782}, {"nodeid": 6, "leaf": 0.0356075652}]}]}, {"nodeid": 0, "depth": 0, "split": "dfaAlpha1", "split_condition": 0.758663893, "yes": 1, "no": 2, "missing": 2, "children": [{"nodeid": 1, "depth": 1, "split": "meanRR", "split_condition": 0.876735568, "yes": 3, "no": 4, "missing": 4, "children": [{"nodeid": 3, "leaf": 0.0393108279}, {"nodeid": 4, "leaf": -0.0202218313}]}, {"nodeid": 2, "depth": 1, "split": "pnn50", "split_condition": -0.0207252167, "yes": 5, "no": 6, "missing": 6, "children": [{"nodeid": 5, "leaf": -0.050400842}, {"nodeid": 6, "leaf": -0.00170740136}]}]}, {"nodeid": 0, "depth": 0, "split": "sampleEntropy", "split_condition": -0.466059208, "yes": 1, "no": 2, "missing": 2, "children": [{"nodeid": 1, "depth": 1, "split": "dfaAlpha1", "split_condition": -0.176265121, "yes": 3, "no": 4, "missing": 4, "children": [{"nodeid": 3, "leaf": -8.79906365e-05}, {"nodeid": 4, "leaf": -0.05150811}]}, {"nodeid": 2, "depth": 1, "split": "hrMean", "split_condition": -0.781401515, "yes": 5, "no": 6, "missing": 6, "children": [{"nodeid": 5, "leaf": -0.0170528404}, {"nodeid": 6, "leaf": 0.039173618}]}]}, {"nodeid": 0, "depth": 0, "split": "pnn50", "split_condition": -0.647503138, "yes": 1, "no": 2, "missing": 2, "children": [{"nodeid": 1, "depth": 1, "split": "sd1sd2Ratio", "split_condition": -0.0971213579, "yes": 3, "no": 4, "missing": 4, "children": [{"nodeid": 3, "leaf": -0.0468380414}, {"nodeid": 4, "leaf": 0.000178441158}]}, {"nodeid": 2, "depth": 1, "split": "sd2", "split_condition": 0.933942854, "yes": 5, "no": 6, "missing": 6, "children": [{"nodeid": 5, "leaf": 0.0408266187}, {"nodeid": 6, "leaf": -0.0256914794}]}]}, {"nodeid": 0, "depth": 0, "split": "dfaAlpha1", "split_condition": 0.0316163115, "yes": 1, "no": 2, "missing": 2, "children": [{"nodeid": 1, "depth": 1, "split": "rmssd", "split_condition": -0.92590481, "yes": 3, "no": 4, "missing": 4, "children": [{"nodeid": 3, "leaf": -0.019811647}, {"nodeid": 4, "leaf": 0.0437964164}]}, {"nodeid": 2, "depth": 1, "split": "hrRange", "split_condition": -0.233734772, "yes": 5, "no": 6, "missing": 6, "children": [{"nodeid": 5, "leaf": -0.0493184216}, {"nodeid": 6, "leaf": -0.0026224195}]}]}, {"nodeid": 0, "depth": 0, "split": "rmssd", "split_condition": -0.92590481, "yes": 1, "no": 2, "missing": 2, "children": [{"nodeid": 1, "depth": 1, "split": "dfaAlpha1", "split_condition": -0.538185537, "yes": 3, "no": 4, "missing": 4, "children": [{"nodeid": 3, "leaf": 0.00062123331}, {"nodeid": 4, "leaf": -0.0468315668}]}, {"nodeid": 2, "depth": 1, "split": "meanRR", "split_condition": 1.25040209, "yes": 5, "no": 6, "missing": 6, "children": [{"nodeid": 5, "leaf": 0.0344036035}, {"nodeid": 6, "leaf": -0.0323446915}]}]}, {"nodeid": 0, "depth": 0, "split": "pnn20", "split_condition": -0.348587424, "yes": 1, "no": 2, "missing": 2, "children": [{"nodeid": 1, "depth": 1, "split": "meanRR", "split_condition": 0.665531516, "yes": 3, "no": 4, "missing": 4, "children": [{"nodeid": 3, "leaf": -0.0109924199}, {"nodeid": 4, "leaf": -0.0511376373}]}, {"nodeid": 2, "depth": 1, "split": "sd2", "split_condition": 0.944473505, "yes": 5, "no": 6, "missing": 6, "children": [{"nodeid": 5, "leaf": 0.0401943214}, {"nodeid": 6, "leaf": -0.0191152506}]}]}, {"nodeid": 0, "depth": 0, "split": "sampleEntropy", "split_condition": -0.466059208, "yes": 1, "no": 2, "missing": 2, "children": [{"nodeid": 1, "depth": 1, "split": "dfaAlpha1", "split_condition": -0.144342005, "yes": 3, "no": 4, "missing": 4, "children": [{"nodeid": 3, "leaf": 0.00894720107}, {"nodeid": 4, "leaf": -0.0456772223}]}, {"nodeid": 2, "depth": 1, "split": "pnn20", "split_condition": -0.582261026, "yes": 5, "no": 6, "missing": 6, "children": [{"nodeid": 5, "leaf": -0.0164818969}, {"nodeid": 6, "leaf": 0.0382021628}]}]}, {"nodeid": 0, "depth": 0, "split": "sampleEntropy", "split_condition": -0.189551145, "yes": 1, "no": 2, "missing": 2, "children": [{"nodeid": 1, "depth": 1, "split": "dfaAlpha1", "split_condition": -0.053679999, "yes": 3, "no": 4, "missing": 4, "children": [{"nodeid": 3, "leaf": 0}, {"nodeid": 4, "leaf": -0.0414779894}]}, {"nodeid": 2, "depth": 1, "split": "pnn50", "split_condition": -0.841872633, "yes": 5, "no": 6, "missing": 6, "children": [{"nodeid": 5, "leaf": -0.0160748716}, {"nodeid": 6, "leaf": 0.038187772}]}]}, {"nodeid": 0, "depth": 0, "split": "rmssd", "split_condition": -0.987467885, "yes": 1, "no": 2, "missing": 2, "children": [{"nodeid": 1, "depth": 1, "split": "hrStd", "split_condition": -0.638816595, "yes": 3, "no": 4, "missing": 4, "children": [{"nodeid": 3, "leaf": -0.0482215509}, {"nodeid": 4, "leaf": 0}]}, {"nodeid": 2, "depth": 1, "split": "sd2", "split_condition": 0.563880622, "yes": 5, "no": 6, "missing": 6, "children": [{"nodeid": 5, "leaf": 0.0304440558}, {"nodeid": 6, "leaf": -0.0178338587}]}]}, {"nodeid": 0, "depth": 0, "split": "hrMean", "split_condition": -0.977684021, "yes": 1, "no": 2, "missing": 2, "children": [{"nodeid": 1, "depth": 1, "split": "dfaAlpha1", "split_condition": -0.320809871, "yes": 3, "no": 4, "missing": 4, "children": [{"nodeid": 3, "leaf": -0.00948980171}, {"nodeid": 4, "leaf": -0.0522172637}]}, {"nodeid": 2, "depth": 1, "split": "pnn50", "split_condition": -0.681842506, "yes": 5, "no": 6, "missing": 6, "children": [{"nodeid": 5, "leaf": -0.021813821}, {"nodeid": 6, "leaf": 0.0324378461}]}]}, {"nodeid": 0, "depth": 0, "split": "hrMean", "split_condition": -0.934074879, "yes": 1, "no": 2, "missing": 2, "children": [{"nodeid": 1, "depth": 1, "split": "sampleEntropy", "split_condition": 0.758617878, "yes": 3, "no": 4, "missing": 4, "children": [{"nodeid": 3, "leaf": -0.0466011651}, {"nodeid": 4, "leaf": 0}]}, {"nodeid": 2, "depth": 1, "split": "sampleEntropy", "split_condition": -0.590229392, "yes": 5, "no": 6, "missing": 6, "children": [{"nodeid": 5, "leaf": -0.0255824719}, {"nodeid": 6, "leaf": 0.0294080712}]}]}, {"nodeid": 0, "depth": 0, "split": "dfaAlpha1", "split_condition": 1.0726763, "yes": 1, "no": 2, "missing": 2, "children": [{"nodeid": 1, "depth": 1, "split": "hrMean", "split_condition": -0.781401515, "yes": 3, "no": 4, "missing": 4, "children": [{"nodeid": 3, "leaf": -0.021992337}, {"nodeid": 4, "leaf": 0.0273043364}]}, {"nodeid": 2, "depth": 1, "split": "pnn20", "split_condition": 0.0137978541, "yes": 5, "no": 6, "missing": 6, "children": [{"nodeid": 5, "leaf": -0.0450732522}, {"nodeid": 6, "leaf": 0}]}]}, {"nodeid": 0, "depth": 0, "split": "dfaAlpha1", "split_condition": 0.758663893, "yes": 1, "no": 2, "missing": 2, "children": [{"nodeid": 1, "depth": 1, "split": "meanRR", "split_condition": 0.868353069, "yes": 3, "no": 4, "missing": 4, "children": [{"nodeid": 3, "leaf": 0.0319571458}, {"nodeid": 4, "leaf": -0.0172714349}]}, {"nodeid": 2, "depth": 1, "split": "sampleEntropy", "split_condition": -0.323288679, "yes": 5, "no": 6, "missing": 6, "children": [{"nodeid": 5, "leaf": -0.0468734317}, {"nodeid": 6, "leaf": -0.00651289755}]}]}, {"nodeid": 0, "depth": 0, "split": "pnn50", "split_condition": -0.23002699, "yes": 1, "no": 2, "missing": 2, "children": [{"nodeid": 1, "depth": 1, "split": "sampleEntropy", "split_condition": -0.379835606, "yes": 3, "no": 4, "missing": 4, "children": [{"nodeid": 3, "leaf": -0.0401501618}, {"nodeid": 4, "leaf": -0.00181272253}]}, {"nodeid": 2, "depth": 1, "split": "pnn50", "split_condition": 1.06962538, "yes": 5, "no": 6, "missing": 6, "children": [{"nodeid": 5, "leaf": 0.0423610732}, {"nodeid": 6, "leaf": -0.0341137499}]}]}, {"nodeid": 0, "depth": 0, "split": "sampleEntropy", "split_condition": -0.466059208, "yes": 1, "no": 2, "missing": 2, "children": [{"nodeid": 1, "depth": 1, "split": "dfaAlpha1", "split_condition": -0.158896372, "yes": 3, "no": 4, "missing": 4, "children": [{"nodeid": 3, "leaf": -0.00364023517}, {"nodeid": 4, "leaf": -0.0370260105}]}, {"nodeid": 2, "depth": 1, "split": "pnn20", "split_condition": -0.378463686, "yes": 5, "no": 6, "missing": 6, "children": [{"nodeid": 5, "leaf": -0.0173782539}, {"nodeid": 6, "leaf": 0.0325136259}]}]}, {"nodeid": 0, "depth": 0, "split": "hrMean", "split_condition": -1.24134517, "yes": 1, "no": 2, "missing": 2, "children": [{"nodeid": 1, "leaf": -0.0445889048}, {"nodeid": 2, "depth": 1, "split": "pnn50", "split_condition": -0.647503138, "yes": 3, "no": 4, "missing": 4, "children": [{"nodeid": 3, "leaf": -0.0195428412}, {"nodeid": 4, "leaf": 0.025246514}]}]}, {"nodeid": 0, "depth": 0, "split": "rmssd", "split_condition": -0.92590481, "yes": 1, "no": 2, "missing": 2, "children": [{"nodeid": 1, "depth": 1, "split": "sampleEntropy", "split_condition": 1.24823606, "yes": 3, "no": 4, "missing": 4, "children": [{"nodeid": 3, "leaf": -0.0446234569}, {"nodeid": 4, "leaf": 0}]}, {"nodeid": 2, "depth": 1, "split": "sd2", "split_condition": 0.194850191, "yes": 5, "no": 6, "missing": 6, "children": [{"nodeid": 5, "leaf": 0.0344705619}, {"nodeid": 6, "leaf": -0.00781695452}]}]}, {"nodeid": 0, "depth": 0, "split": "sampleEntropy", "split_condition": -0.466059208, "yes": 1, "no": 2, "missing": 2, "children": [{"nodeid": 1, "depth": 1, "split": "dfaAlpha1", "split_condition": -0.158896372, "yes": 3, "no": 4, "missing": 4, "children": [{"nodeid": 3, "leaf": -0.00320040667}, {"nodeid": 4, "leaf": -0.0359647125}]}, {"nodeid": 2, "depth": 1, "split": "hrStd", "split_condition": -0.996296525, "yes": 5, "no": 6, "missing": 6, "children": [{"nodeid": 5, "leaf": -0.0211893413}, {"nodeid": 6, "leaf": 0.0249789245}]}]}, {"nodeid": 0, "depth": 0, "split": "rmssd", "split_condition": -0.987467885, "yes": 1, "no": 2, "missing": 2, "children": [{"nodeid": 1, "depth": 1, "split": "meanRR", "split_condition": -1.04047263, "yes": 3, "no": 4, "missing": 4, "children": [{"nodeid": 3, "leaf": 0}, {"nodeid": 4, "leaf": -0.0398848578}]}, {"nodeid": 2, "depth": 1, "split": "sd2", "split_condition": 0.194850191, "yes": 5, "no": 6, "missing": 6, "children": [{"nodeid": 5, "leaf": 0.0306149758}, {"nodeid": 6, "leaf": -0.011115496}]}]}, {"nodeid": 0, "depth": 0, "split": "hrMean", "split_condition": -1.04206896, "yes": 1, "no": 2, "missing": 2, "children": [{"nodeid": 1, "depth": 1, "split": "sampleEntropy", "split_condition": 0.758617878, "yes": 3, "no": 4, "missing": 4, "children": [{"nodeid": 3, "leaf": -0.044433061}, {"nodeid": 4, "leaf": 0}]}, {"nodeid": 2, "depth": 1, "split": "pnn50", "split_condition": -0.23002699, "yes": 5, "no": 6, "missing": 6, "children": [{"nodeid": 5, "leaf": -0.0151687879}, {"nodeid": 6, "leaf": 0.0319773331}]}]}, {"nodeid": 0, "depth": 0, "split": "dfaAlpha1", "split_condition": 0.0316163115, "yes": 1, "no": 2, "missing": 2, "children": [{"nodeid": 1, "depth": 1, "split": "pnn20", "split_condition": -0.378463686, "yes": 3, "no": 4, "missing": 4, "children": [{"nodeid": 3, "leaf": -0.0151221249}, {"nodeid": 4, "leaf": 0.0316688232}]}, {"nodeid": 2, "depth": 1, "split": "meanRR", "split_condition": -0.95782733, "yes": 5, "no": 6, "missing": 6, "children": [{"nodeid": 5, "leaf": 0.0246272534}, {"nodeid": 6, "leaf": -0.0339271165}]}]}, {"nodeid": 0, "depth": 0, "split": "hrMean", "split_condition": -0.99311173, "yes": 1, "no": 2, "missing": 2, "children": [{"nodeid": 1, "depth": 1, "split": "dfaAlpha1", "split_condition": -0.320809871, "yes": 3, "no": 4, "missing": 4, "children": [{"nodeid": 3, "leaf": -0.0030883695}, {"nodeid": 4, "leaf": -0.0447107553}]}, {"nodeid": 2, "depth": 1, "split": "hrStd", "split_condition": 1.11619115, "yes": 5, "no": 6, "missing": 6, "children": [{"nodeid": 5, "leaf": 0.0197196826}, {"nodeid": 6, "leaf": -0.0325639099}]}]}, {"nodeid": 0, "depth": 0, "split": "pnn20", "split_condition": -0.543319345, "yes": 1, "no": 2, "missing": 2, "children": [{"nodeid": 1, "depth": 1, "split": "sd1sd2Ratio", "split_condition": -0.214944243, "yes": 3, "no": 4, "missing": 4, "children": [{"nodeid": 3, "leaf": -0.0381149575}, {"nodeid": 4, "leaf": -0.00165289454}]}, {"nodeid": 2, "depth": 1, "split": "rmssd", "split_condition": 1.51048672, "yes": 5, "no": 6, "missing": 6, "children": [{"nodeid": 5, "leaf": 0.0176940467}, {"nodeid": 6, "leaf": -0.0351982564}]}]}, {"nodeid": 0, "depth": 0, "split": "dfaAlpha1", "split_condition": 0.232872501, "yes": 1, "no": 2, "missing": 2, "children": [{"nodeid": 1, "depth": 1, "split": "pnn20", "split_condition": -0.348587424, "yes": 3, "no": 4, "missing": 4, "children": [{"nodeid": 3, "leaf": -0.0199703109}, {"nodeid": 4, "leaf": 0.0310839545}]}, {"nodeid": 2, "depth": 1, "split": "sampleEntropy", "split_condition": 0.0932226628, "yes": 5, "no": 6, "missing": 6, "children": [{"nodeid": 5, "leaf": -0.0357307829}, {"nodeid": 6, "leaf": 0}]}]}, {"nodeid": 0, "depth": 0, "split": "sampleEntropy", "split_condition": -0.081603013, "yes": 1, "no": 2, "missing": 2, "children": [{"nodeid": 1, "depth": 1, "split": "meanRR", "split_condition": 0.897430837, "yes": 3, "no": 4, "missing": 4, "children": [{"nodeid": 3, "leaf": -0.00208177953}, {"nodeid": 4, "leaf": -0.0372311324}]}, {"nodeid": 2, "depth": 1, "split": "sd1sd2Ratio", "split_condition": -0.575444102, "yes": 5, "no": 6, "missing": 6, "children": [{"nodeid": 5, "leaf": -0.00565009937}, {"nodeid": 6, "leaf": 0.0271428023}]}]}, {"nodeid": 0, "depth": 0, "split": "sampleEntropy", "split_condition": -0.323288679, "yes": 1, "no": 2, "missing": 2, "children": [{"nodeid": 1, "depth": 1, "split": "dfaAlpha1", "split_condition": -0.053679999, "yes": 3, "no": 4, "missing": 4, "children": [{"nodeid": 3, "leaf": 0}, {"nodeid": 4, "leaf": -0.037435066}]}, {"nodeid": 2, "depth": 1, "split": "hrMean", "split_condition": -1.24134517, "yes": 5, "no": 6, "missing": 6, "children": [{"nodeid": 5, "leaf": -0.014744441}, {"nodeid": 6, "leaf": 0.0353700444}]}]}, {"nodeid": 0, "depth": 0, "split": "sampleEntropy", "split_condition": 0.0932226628, "yes": 1, "no": 2, "missing": 2, "children": [{"nodeid": 1, "depth": 1, "split": "rmssd", "split_condition": -0.883279681, "yes": 3, "no": 4, "missing": 4, "children": [{"nodeid": 3, "leaf": -0.0390522443}, {"nodeid": 4, "leaf": -0.00270933472}]}, {"nodeid": 2, "depth": 1, "split": "dfaAlpha1", "split_condition": -0.376099974, "yes": 5, "no": 6, "missing": 6, "children": [{"nodeid": 5, "leaf": 0.0408638678}, {"nodeid": 6, "leaf": -0.000169538413}]}]}, {"nodeid": 0, "depth": 0, "split": "hrMean", "split_condition": -1.04206896, "yes": 1, "no": 2, "missing": 2, "children": [{"nodeid": 1, "depth": 1, "split": "dfaAlpha1", "split_condition": -0.320809871, "yes": 3, "no": 4, "missing": 4, "children": [{"nodeid": 3, "leaf": -0.000691241119}, {"nodeid": 4, "leaf": -0.0430955738}]}, {"nodeid": 2, "depth": 1, "split": "hrMean", "split_condition": 1.53447914, "yes": 5, "no": 6, "missing": 6, "children": [{"nodeid": 5, "leaf": 0.0169528034}, {"nodeid": 6, "leaf": -0.0399131514}]}]}, {"nodeid": 0, "depth": 0, "split": "dfaAlpha1", "split_condition": 0.758663893, "yes": 1, "no": 2, "missing": 2, "children": [{"nodeid": 1, "depth": 1, "split": "sd1", "split_condition": 1.50865221, "yes": 3, "no": 4, "missing": 4, "children": [{"nodeid": 3, "leaf": 0.019392835}, {"nodeid": 4, "leaf": -0.0411170386}]}, {"nodeid": 2, "depth": 1, "split": "pnn50", "split_condition": 0.200828552, "yes": 5, "no": 6, "missing": 6, "children": [{"nodeid": 5, "leaf": -0.0404502265}, {"nodeid": 6, "leaf": 0}]}]}, {"nodeid": 0, "depth": 0, "split": "dfaAlpha1", "split_condition": 0.0316163115, "yes": 1, "no": 2, "missing": 2, "children": [{"nodeid": 1, "depth": 1, "split": "pnn50", "split_condition": 1.06962538, "yes": 3, "no": 4, "missing": 4, "children": [{"nodeid": 3, "leaf": 0.0300381035}, {"nodeid": 4, "leaf": -0.0193082523}]}, {"nodeid": 2, "depth": 1, "split": "meanRR", "split_condition": -0.95782733, "yes": 5, "no": 6, "missing": 6, "children": [{"nodeid": 5, "leaf": 0.0110153286}, {"nodeid": 6, "leaf": -0.0261344817}]}]}, {"nodeid": 0, "depth": 0, "split": "pnn20", "split_condition": -0.638461649, "yes": 1, "no": 2, "missing": 2, "children": [{"nodeid": 1, "depth": 1, "split": "meanRR", "split_condition": 0.851207376, "yes": 3, "no": 4, "missing": 4, "children": [{"nodeid": 3, "leaf": -0.0100589618}, {"nodeid": 4, "leaf": -0.0414794236}]}, {"nodeid": 2, "depth": 1, "split": "dfaAlpha1", "split_condition": 0.232872501, "yes": 5, "no": 6, "missing": 6, "children": [{"nodeid": 5, "leaf": 0.0317265242}, {"nodeid": 6, "leaf": -0.0126218842}]}]}, {"nodeid": 0, "depth": 0, "split": "hrMean", "split_condition": -1.24134517, "yes": 1, "no": 2, "missing": 2, "children": [{"nodeid": 1, "leaf": -0.0403137356}, {"nodeid": 2, "depth": 1, "split": "pnn50", "split_condition": -0.695756257, "yes": 3, "no": 4, "missing": 4, "children": [{"nodeid": 3, "leaf": -0.01751839}, {"nodeid": 4, "leaf": 0.0186359696}]}]}, {"nodeid": 0, "depth": 0, "split": "hrMean", "split_condition": -0.99311173, "yes": 1, "no": 2, "missing": 2, "children": [{"nodeid": 1, "depth": 1, "split": "sd2", "split_condition": 1.37820911, "yes": 3, "no": 4, "missing": 4, "children": [{"nodeid": 3, "leaf": -0.0390312709}, {"nodeid": 4, "leaf": 0.00249662553}]}, {"nodeid": 2, "depth": 1, "split": "hrStd", "split_condition": 1.12951207, "yes": 5, "no": 6, "missing": 6, "children": [{"nodeid": 5, "leaf": 0.0185488276}, {"nodeid": 6, "leaf": -0.0272504147}]}]}, {"nodeid": 0, "depth": 0, "split": "pnn20", "split_condition": -0.397360802, "yes": 1, "no": 2, "missing": 2, "children": [{"nodeid": 1, "depth": 1, "split": "hrMean", "split_condition": 0.438937515, "yes": 3, "no": 4, "missing": 4, "children": [{"nodeid": 3, "leaf": -0.0312962756}, {"nodeid": 4, "leaf": 2.23747593e-05}]}, {"nodeid": 2, "depth": 1, "split": "sd2", "split_condition": 1.07716787, "yes": 5, "no": 6, "missing": 6, "children": [{"nodeid": 5, "leaf": 0.0285930671}, {"nodeid": 6, "leaf": -0.0208326858}]}]}, {"nodeid": 0, "depth": 0, "split": "pnn20", "split_condition": -0.348587424, "yes": 1, "no": 2, "missing": 2, "children": [{"nodeid": 1, "depth": 1, "split": "sdnn", "split_condition": -1.09144354, "yes": 3, "no": 4, "missing": 4, "children": [{"nodeid": 3, "leaf": -0.0424032062}, {"nodeid": 4, "leaf": -0.012527707}]}, {"nodeid": 2, "depth": 1, "split": "dfaAlpha1", "split_condition": 0.143759415, "yes": 5, "no": 6, "missing": 6, "children": [{"nodeid": 5, "leaf": 0.0257806908}, {"nodeid": 6, "leaf": -0.0133927865}]}]}, {"nodeid": 0, "depth": 0, "split": "pnn20", "split_condition": -0.0814087167, "yes": 1, "no": 2, "missing": 2, "children": [{"nodeid": 1, "depth": 1, "split": "meanRR", "split_condition": -0.934155941, "yes": 3, "no": 4, "missing": 4, "children": [{"nodeid": 3, "leaf": 0}, {"nodeid": 4, "leaf": -0.0240858365}]}, {"nodeid": 2, "depth": 1, "split": "cvRR", "split_condition": 0.85178715, "yes": 5, "no": 6, "missing": 6, "children": [{"nodeid": 5, "leaf": 0.0344202071}, {"nodeid": 6, "leaf": -0.0149325226}]}]}, {"nodeid": 0, "depth": 0, "split": "dfaAlpha1", "split_condition": 0.758663893, "yes": 1, "no": 2, "missing": 2, "children": [{"nodeid": 1, "depth": 1, "split": "hrMean", "split_condition": -0.781401515, "yes": 3, "no": 4, "missing": 4, "children": [{"nodeid": 3, "leaf": -0.0125219664}, {"nodeid": 4, "leaf": 0.025231069}]}, {"nodeid": 2, "depth": 1, "split": "meanRR", "split_condition": -0.991953254, "yes": 5, "no": 6, "missing": 6, "children": [{"nodeid": 5, "leaf": 0.00231429446}, {"nodeid": 6, "leaf": -0.0373915881}]}]}, {"nodeid": 0, "depth": 0, "split": "dfaAlpha1", "split_condition": 0.758663893, "yes": 1, "no": 2, "missing": 2, "children": [{"nodeid": 1, "depth": 1, "split": "pnn50", "split_condition": 1.06962538, "yes": 3, "no": 4, "missing": 4, "children": [{"nodeid": 3, "leaf": 0.0197248664}, {"nodeid": 4, "leaf": -0.0335973352}]}, {"nodeid": 2, "depth": 1, "split": "pnn50", "split_condition": 0.200828552, "yes": 5, "no": 6, "missing": 6, "children": [{"nodeid": 5, "leaf": -0.0308255758}, {"nodeid": 6, "leaf": 0.00221032859}]}]}, {"nodeid": 0, "depth": 0, "split": "hrMean", "split_condition": -0.977684021, "yes": 1, "no": 2, "missing": 2, "children": [{"nodeid": 1, "depth": 1, "split": "sampleEntropy", "split_condition": -0.141396761, "yes": 3, "no": 4, "missing": 4, "children": [{"nodeid": 3, "leaf": -0.0415059105}, {"nodeid": 4, "leaf": 0}]}, {"nodeid": 2, "depth": 1, "split": "meanRR", "split_condition": -1.63331771, "yes": 5, "no": 6, "missing": 6, "children": [{"nodeid": 5, "leaf": -0.0403720066}, {"nodeid": 6, "leaf": 0.0135418773}]}]}, {"nodeid": 0, "depth": 0, "split": "hrMean", "split_condition": -1.24134517, "yes": 1, "no": 2, "missing": 2, "children": [{"nodeid": 1, "depth": 1, "split": "sampleEntropy", "split_condition": 0.758617878, "yes": 3, "no": 4, "missing": 4, "children": [{"nodeid": 3, "leaf": -0.0406692624}, {"nodeid": 4, "leaf": 0}]}, {"nodeid": 2, "depth": 1, "split": "hrStd", "split_condition": 1.19899654, "yes": 5, "no": 6, "missing": 6, "children": [{"nodeid": 5, "leaf": 0.0176766422}, {"nodeid": 6, "leaf": -0.0320588909}]}]}, {"nodeid": 0, "depth": 0, "split": "sampleEntropy", "split_condition": -0.189551145, "yes": 1, "no": 2, "missing": 2, "children": [{"nodeid": 1, "depth": 1, "split": "cvRR", "split_condition": -0.325579673, "yes": 3, "no": 4, "missing": 4, "children": [{"nodeid": 3, "leaf": 0}, {"nodeid": 4, "leaf": -0.0267660301}]}, {"nodeid": 2, "depth": 1, "split": "pnn20", "split_condition": 0.933883011, "yes": 5, "no": 6, "missing": 6, "children": [{"nodeid": 5, "leaf": 0.0245757699}, {"nodeid": 6, "leaf": -0.0113731502}]}]}, {"nodeid": 0, "depth": 0, "split": "dfaAlpha1", "split_condition": 1.0726763, "yes": 1, "no": 2, "missing": 2, "children": [{"nodeid": 1, "depth": 1, "split": "pnn20", "split_condition": 1.29037273, "yes": 3, "no": 4, "missing": 4, "children": [{"nodeid": 3, "leaf": 0.0167694241}, {"nodeid": 4, "leaf": -0.0336112902}]}, {"nodeid": 2, "depth": 1, "split": "sampleEntropy", "split_condition": 0.330043733, "yes": 5, "no": 6, "missing": 6, "children": [{"nodeid": 5, "leaf": -0.0357470289}, {"nodeid": 6, "leaf": 0}]}]}, {"nodeid": 0, "depth": 0, "split": "sampleEntropy", "split_condition": -0.081603013, "yes": 1, "no": 2, "missing": 2, "children": [{"nodeid": 1, "depth": 1, "split": "pnn50", "split_condition": -0.321468323, "yes": 3, "no": 4, "missing": 4, "children": [{"nodeid": 3, "leaf": -0.0303744413}, {"nodeid": 4, "leaf": -0.00468151178}]}, {"nodeid": 2, "depth": 1, "split": "hrRange", "split_condition": 1.03283525, "yes": 5, "no": 6, "missing": 6, "children": [{"nodeid": 5, "leaf": 0.0247709695}, {"nodeid": 6, "leaf": -0.0106890528}]}]}, {"nodeid": 0, "depth": 0, "split": "meanRR", "split_condition": 0.868353069, "yes": 1, "no": 2, "missing": 2, "children": [{"nodeid": 1, "depth": 1, "split": "cvRR", "split_condition": 1.07522726, "yes": 3, "no": 4, "missing": 4, "children": [{"nodeid": 3, "leaf": 0.0174634233}, {"nodeid": 4, "leaf": -0.0285186749}]}, {"nodeid": 2, "depth": 1, "split": "dfaAlpha1", "split_condition": -0.527865946, "yes": 5, "no": 6, "missing": 6, "children": [{"nodeid": 5, "leaf": 0}, {"nodeid": 6, "leaf": -0.0341837518}]}]}, {"nodeid": 0, "depth": 0, "split": "hrMean", "split_condition": -1.14319539, "yes": 1, "no": 2, "missing": 2, "children": [{"nodeid": 1, "leaf": -0.0347370245}, {"nodeid": 2, "depth": 1, "split": "dfaAlpha1", "split_condition": 0.782999992, "yes": 3, "no": 4, "missing": 4, "children": [{"nodeid": 3, "leaf": 0.0139532937}, {"nodeid": 4, "leaf": -0.0180804972}]}]}, {"nodeid": 0, "depth": 0, "split": "pnn20", "split_condition": -0.0814087167, "yes": 1, "no": 2, "missing": 2, "children": [{"nodeid": 1, "depth": 1, "split": "sd2", "split_condition": -0.261455297, "yes": 3, "no": 4, "missing": 4, "children": [{"nodeid": 3, "leaf": -0.00552472519}, {"nodeid": 4, "leaf": -0.0367249884}]}, {"nodeid": 2, "depth": 1, "split": "hrRange", "split_condition": 1.30900335, "yes": 5, "no": 6, "missing": 6, "children": [{"nodeid": 5, "leaf": 0.0186549053}, {"nodeid": 6, "leaf": -0.038444452}]}]}, {"nodeid": 0, "depth": 0, "split": "pnn20", "split_condition": -0.543319345, "yes": 1, "no": 2, "missing": 2, "children": [{"nodeid": 1, "depth": 1, "split": "sd1sd2Ratio", "split_condition": -0.168477282, "yes": 3, "no": 4, "missing": 4, "children": [{"nodeid": 3, "leaf": -0.0317012779}, {"nodeid": 4, "leaf": 0}]}, {"nodeid": 2, "depth": 1, "split": "sd2", "split_condition": 0.563880622, "yes": 5, "no": 6, "missing": 6, "children": [{"nodeid": 5, "leaf": 0.0264306013}, {"nodeid": 6, "leaf": -0.0106106391}]}]}, {"nodeid": 0, "depth": 0, "split": "hrMean", "split_condition": -0.977684021, "yes": 1, "no": 2, "missing": 2, "children": [{"nodeid": 1, "depth": 1, "split": "sd1sd2Ratio", "split_condition": 0.962763131, "yes": 3, "no": 4, "missing": 4, "children": [{"nodeid": 3, "leaf": -0.0321975164}, {"nodeid": 4, "leaf": 0}]}, {"nodeid": 2, "depth": 1, "split": "cvRR", "split_condition": 1.07522726, "yes": 5, "no": 6, "missing": 6, "children": [{"nodeid": 5, "leaf": 0.0139815453}, {"nodeid": 6, "leaf": -0.0294834822}]}]}, {"nodeid": 0, "depth": 0, "split": "sampleEntropy", "split_condition": -0.081603013, "yes": 1, "no": 2, "missing": 2, "children": [{"nodeid": 1, "depth": 1, "split": "dfaAlpha1", "split_condition": 0.232872501, "yes": 3, "no": 4, "missing": 4, "children": [{"nodeid": 3, "leaf": -0.00267695705}, {"nodeid": 4, "leaf": -0.0300473962}]}, {"nodeid": 2, "depth": 1, "split": "hrStd", "split_condition": -0.803731501, "yes": 5, "no": 6, "missing": 6, "children": [{"nodeid": 5, "leaf": -0.0129442513}, {"nodeid": 6, "leaf": 0.0271846987}]}]}, {"nodeid": 0, "depth": 0, "split": "sampleEntropy", "split_condition": -0.551689327, "yes": 1, "no": 2, "missing": 2, "children": [{"nodeid": 1, "depth": 1, "split": "cvRR", "split_condition": -0.34039706, "yes": 3, "no": 4, "missing": 4, "children": [{"nodeid": 3, "leaf": -0.00217980379}, {"nodeid": 4, "leaf": -0.033653304}]}, {"nodeid": 2, "depth": 1, "split": "hrMean", "split_condition": 0.465112805, "yes": 5, "no": 6, "missing": 6, "children": [{"nodeid": 5, "leaf": -0.0051044249}, {"nodeid": 6, "leaf": 0.0296695139}]}]}, {"nodeid": 0, "depth": 0, "split": "dfaAlpha1", "split_condition": 0.0316163115, "yes": 1, "no": 2, "missing": 2, "children": [{"nodeid": 1, "depth": 1, "split": "pnn50", "split_condition": 1.06962538, "yes": 3, "no": 4, "missing": 4, "children": [{"nodeid": 3, "leaf": 0.0220309142}, {"nodeid": 4, "leaf": -0.030800119}]}, {"nodeid": 2, "depth": 1, "split": "hrMean", "split_condition": 1.03194118, "yes": 5, "no": 6, "missing": 6, "children": [{"nodeid": 5, "leaf": -0.027809469}, {"nodeid": 6, "leaf": 0.0177057628}]}]}, {"nodeid": 0, "depth": 0, "split": "hrRange", "split_condition": -0.841523647, "yes": 1, "no": 2, "missing": 2, "children": [{"nodeid": 1, "depth": 1, "split": "dfaAlpha1", "split_condition": -0.530354917, "yes": 3, "no": 4, "missing": 4, "children": [{"nodeid": 3, "leaf": 0.000901611988}, {"nodeid": 4, "leaf": -0.0338880494}]}, {"nodeid": 2, "depth": 1, "split": "hrStd", "split_condition": 1.12951207, "yes": 5, "no": 6, "missing": 6, "children": [{"nodeid": 5, "leaf": 0.0169270672}, {"nodeid": 6, "leaf": -0.0309725311}]}]}, {"nodeid": 0, "depth": 0, "split": "dfaAlpha1", "split_condition": 0.758663893, "yes": 1, "no": 2, "missing": 2, "children": [{"nodeid": 1, "depth": 1, "split": "rmssd", "split_condition": 1.51048672, "yes": 3, "no": 4, "missing": 4, "children": [{"nodeid": 3, "leaf": 0.0165721308}, {"nodeid": 4, "leaf": -0.0301687475}]}, {"nodeid": 2, "leaf": -0.0252678394}]}, {"nodeid": 0, "depth": 0, "split": "sampleEntropy", "split_condition": -0.081603013, "yes": 1, "no": 2, "missing": 2, "children": [{"nodeid": 1, "depth": 1, "split": "hrMean", "split_condition": 0.369235426, "yes": 3, "no": 4, "missing": 4, "children": [{"nodeid": 3, "leaf": -0.0235271379}, {"nodeid": 4, "leaf": 0.00658586482}]}, {"nodeid": 2, "depth": 1, "split": "hrRange", "split_condition": 1.26876295, "yes": 5, "no": 6, "missing": 6, "children": [{"nodeid": 5, "leaf": 0.0213931482}, {"nodeid": 6, "leaf": -0.019295441}]}]}, {"nodeid": 0, "depth": 0, "split": "sampleEntropy", "split_condition": 0.0926427171, "yes": 1, "no": 2, "missing": 2, "children": [{"nodeid": 1, "depth": 1, "split": "sd1", "split_condition": -0.882272243, "yes": 3, "no": 4, "missing": 4, "children": [{"nodeid": 3, "leaf": -0.0309095327}, {"nodeid": 4, "leaf": -0.00295392261}]}, {"nodeid": 2, "depth": 1, "split": "pnn20", "split_condition": 1.34587252, "yes": 5, "no": 6, "missing": 6, "children": [{"nodeid": 5, "leaf": 0.0220180396}, {"nodeid": 6, "leaf": -0.00861088838}]}]}, {"nodeid": 0, "depth": 0, "split": "rmssd", "split_condition": -0.987467885, "yes": 1, "no": 2, "missing": 2, "children": [{"nodeid": 1, "depth": 1, "split": "sampleEntropy", "split_condition": 1.24823606, "yes": 3, "no": 4, "missing": 4, "children": [{"nodeid": 3, "leaf": -0.0354209878}, {"nodeid": 4, "leaf": 0.00285755727}]}, {"nodeid": 2, "depth": 1, "split": "pnn20", "split_condition": 1.25405788, "yes": 5, "no": 6, "missing": 6, "children": [{"nodeid": 5, "leaf": 0.0196753498}, {"nodeid": 6, "leaf": -0.0249895621}]}]}, {"nodeid": 0, "depth": 0, "split": "hrStd", "split_condition": 1.0663954, "yes": 1, "no": 2, "missing": 2, "children": [{"nodeid": 1, "depth": 1, "split": "hrRange", "split_condition": -0.841523647, "yes": 3, "no": 4, "missing": 4, "children": [{"nodeid": 3, "leaf": -0.0199485365}, {"nodeid": 4, "leaf": 0.017513223}]}, {"nodeid": 2, "depth": 1, "split": "hrRange", "split_condition": 0.610567808, "yes": 5, "no": 6, "missing": 6, "children": [{"nodeid": 5, "leaf": 0.0011422059}, {"nodeid": 6, "leaf": -0.036469914}]}]}, {"nodeid": 0, "depth": 0, "split": "sampleEntropy", "split_condition": -0.593757689, "yes": 1, "no": 2, "missing": 2, "children": [{"nodeid": 1, "depth": 1, "split": "dfaAlpha1", "split_condition": 0.613500237, "yes": 3, "no": 4, "missing": 4, "children": [{"nodeid": 3, "leaf": -0.00284561026}, {"nodeid": 4, "leaf": -0.0374247991}]}, {"nodeid": 2, "depth": 1, "split": "meanRR", "split_condition": 0.15595153, "yes": 5, "no": 6, "missing": 6, "children": [{"nodeid": 5, "leaf": 0.0257541817}, {"nodeid": 6, "leaf": -0.00517285941}]}]}, {"nodeid": 0, "depth": 0, "split": "meanRR", "split_condition": 0.868353069, "yes": 1, "no": 2, "missing": 2, "children": [{"nodeid": 1, "depth": 1, "split": "meanRR", "split_condition": -1.56480849, "yes": 3, "no": 4, "missing": 4, "children": [{"nodeid": 3, "leaf": -0.0371355303}, {"nodeid": 4, "leaf": 0.0122155212}]}, {"nodeid": 2, "depth": 1, "split": "dfaAlpha1", "split_condition": -0.513170779, "yes": 5, "no": 6, "missing": 6, "children": [{"nodeid": 5, "leaf": 0}, {"nodeid": 6, "leaf": -0.0315809809}]}]}, {"nodeid": 0, "depth": 0, "split": "hrStd", "split_condition": 1.0663954, "yes": 1, "no": 2, "missing": 2, "children": [{"nodeid": 1, "depth": 1, "split": "hrMean", "split_condition": -1.2618649, "yes": 3, "no": 4, "missing": 4, "children": [{"nodeid": 3, "leaf": -0.024548877}, {"nodeid": 4, "leaf": 0.013668539}]}, {"nodeid": 2, "depth": 1, "split": "hrRange", "split_condition": 0.610567808, "yes": 5, "no": 6, "missing": 6, "children": [{"nodeid": 5, "leaf": 0.00228546071}, {"nodeid": 6, "leaf": -0.0407406725}]}]}, {"nodeid": 0, "depth": 0, "split": "hrMean", "split_condition": 0.465112805, "yes": 1, "no": 2, "missing": 2, "children": [{"nodeid": 1, "depth": 1, "split": "dfaAlpha1", "split_condition": -0.376099974, "yes": 3, "no": 4, "missing": 4, "children": [{"nodeid": 3, "leaf": 0.00630863383}, {"nodeid": 4, "leaf": -0.0238631424}]}, {"nodeid": 2, "depth": 1, "split": "hrMean", "split_condition": 1.53447914, "yes": 5, "no": 6, "missing": 6, "children": [{"nodeid": 5, "leaf": 0.037662264}, {"nodeid": 6, "leaf": -0.0264818873}]}]}, {"nodeid": 0, "depth": 0, "split": "pnn50", "split_condition": -0.288845867, "yes": 1, "no": 2, "missing": 2, "children": [{"nodeid": 1, "depth": 1, "split": "dfaAlpha1", "split_condition": -0.505383253, "yes": 3, "no": 4, "missing": 4, "children": [{"nodeid": 3, "leaf": 0.0183238853}, {"nodeid": 4, "leaf": -0.0275107231}]}, {"nodeid": 2, "depth": 1, "split": "pnn50", "split_condition": 1.06962538, "yes": 5, "no": 6, "missing": 6, "children": [{"nodeid": 5, "leaf": 0.0320380107}, {"nodeid": 6, "leaf": -0.0269451682}]}]}, {"nodeid": 0, "depth": 0, "split": "pnn50", "split_condition": -0.23002699, "yes": 1, "no": 2, "missing": 2, "children": [{"nodeid": 1, "depth": 1, "split": "dfaAlpha1", "split_condition": -0.474634409, "yes": 3, "no": 4, "missing": 4, "children": [{"nodeid": 3, "leaf": 0.0167105962}, {"nodeid": 4, "leaf": -0.024545094}]}, {"nodeid": 2, "depth": 1, "split": "pnn50", "split_condition": 1.22431111, "yes": 5, "no": 6, "missing": 6, "children": [{"nodeid": 5, "leaf": 0.0238603577}, {"nodeid": 6, "leaf": -0.0174799468}]}]}, {"nodeid": 0, "depth": 0, "split": "pnn50", "split_condition": -0.23002699, "yes": 1, "no": 2, "missing": 2, "children": [{"nodeid": 1, "depth": 1, "split": "hrMean", "split_condition": -0.89049542, "yes": 3, "no": 4, "missing": 4, "children": [{"nodeid": 3, "leaf": -0.0358947627}, {"nodeid": 4, "leaf": -0.00282797753}]}, {"nodeid": 2, "depth": 1, "split": "hrRange", "split_condition": 1.33561134, "yes": 5, "no": 6, "missing": 6, "children": [{"nodeid": 5, "leaf": 0.0189719573}, {"nodeid": 6, "leaf": -0.0269955583}]}]}, {"nodeid": 0, "depth": 0, "split": "dfaAlpha1", "split_condition": 0.758663893, "yes": 1, "no": 2, "missing": 2, "children": [{"nodeid": 1, "depth": 1, "split": "hrStd", "split_condition": 1.12951207, "yes": 3, "no": 4, "missing": 4, "children": [{"nodeid": 3, "leaf": 0.0187759791}, {"nodeid": 4, "leaf": -0.0225062352}]}, {"nodeid": 2, "depth": 1, "split": "pnn20", "split_condition": 0.433328539, "yes": 5, "no": 6, "missing": 6, "children": [{"nodeid": 5, "leaf": -0.0243540891}, {"nodeid": 6, "leaf": 0}]}]}, {"nodeid": 0, "depth": 0, "split": "hrMean", "split_condition": -0.99311173, "yes": 1, "no": 2, "missing": 2, "children": [{"nodeid": 1, "depth": 1, "split": "rmssd", "split_condition": 0.824851334, "yes": 3, "no": 4, "missing": 4, "children": [{"nodeid": 3, "leaf": -0.0323485881}, {"nodeid": 4, "leaf": 0}]}, {"nodeid": 2, "depth": 1, "split": "meanRR", "split_condition": -1.56480849, "yes": 5, "no": 6, "missing": 6, "children": [{"nodeid": 5, "leaf": -0.0326650962}, {"nodeid": 6, "leaf": 0.0107041961}]}]}, {"nodeid": 0, "depth": 0, "split": "hrMean", "split_condition": -1.24134517, "yes": 1, "no": 2, "missing": 2, "children": [{"nodeid": 1, "depth": 1, "split": "sampleEntropy", "split_condition": 0.691004992, "yes": 3, "no": 4, "missing": 4, "children": [{"nodeid": 3, "leaf": -0.0350348093}, {"nodeid": 4, "leaf": 0}]}, {"nodeid": 2, "depth": 1, "split": "pnn20", "split_condition": -0.065147303, "yes": 5, "no": 6, "missing": 6, "children": [{"nodeid": 5, "leaf": -0.00911936257}, {"nodeid": 6, "leaf": 0.0169777144}]}]}, {"nodeid": 0, "depth": 0, "split": "dfaAlpha1", "split_condition": 0.0316163115, "yes": 1, "no": 2, "missing": 2, "children": [{"nodeid": 1, "depth": 1, "split": "pnn20", "split_condition": 1.26145601, "yes": 3, "no": 4, "missing": 4, "children": [{"nodeid": 3, "leaf": 0.0141393561}, {"nodeid": 4, "leaf": -0.0246126093}]}, {"nodeid": 2, "depth": 1, "split": "hrMean", "split_condition": 0.854760766, "yes": 5, "no": 6, "missing": 6, "children": [{"nodeid": 5, "leaf": -0.027556533}, {"nodeid": 6, "leaf": 0.0152519466}]}]}, {"nodeid": 0, "depth": 0, "split": "pnn20", "split_condition": -0.0814087167, "yes": 1, "no": 2, "missing": 2, "children": [{"nodeid": 1, "depth": 1, "split": "sdnn", "split_condition": -1.09144354, "yes": 3, "no": 4, "missing": 4, "children": [{"nodeid": 3, "leaf": -0.0315485857}, {"nodeid": 4, "leaf": -0.00223182724}]}, {"nodeid": 2, "depth": 1, "split": "pnn20", "split_condition": 1.25405788, "yes": 5, "no": 6, "missing": 6, "children": [{"nodeid": 5, "leaf": 0.0219265353}, {"nodeid": 6, "leaf": -0.0244798567}]}]}, {"nodeid": 0, "depth": 0, "split": "sampleEntropy", "split_condition": 0.0932226628, "yes": 1, "no": 2, "missing": 2, "children": [{"nodeid": 1, "depth": 1, "split": "dfaAlpha1", "split_condition": -0.837383866, "yes": 3, "no": 4, "missing": 4, "children": [{"nodeid": 3, "leaf": -0.0353321135}, {"nodeid": 4, "leaf": -0.00470221788}]}, {"nodeid": 2, "depth": 1, "split": "hrRange", "split_condition": -0.723226845, "yes": 5, "no": 6, "missing": 6, "children": [{"nodeid": 5, "leaf": -0.00585004454}, {"nodeid": 6, "leaf": 0.026790509}]}]}, {"nodeid": 0, "depth": 0, "split": "sd2", "split_condition": -0.568205953, "yes": 1, "no": 2, "missing": 2, "children": [{"nodeid": 1, "depth": 1, "split": "sdnn", "split_condition": -1.10031927, "yes": 3, "no": 4, "missing": 4, "children": [{"nodeid": 3, "leaf": -0.0118292551}, {"nodeid": 4, "leaf": 0.0359339528}]}, {"nodeid": 2, "depth": 1, "split": "pnn20", "split_condition": -0.0814087167, "yes": 5, "no": 6, "missing": 6, "children": [{"nodeid": 5, "leaf": -0.0325671844}, {"nodeid": 6, "leaf": 0}]}]}, {"nodeid": 0, "depth": 0, "split": "pnn20", "split_condition": -0.543319345, "yes": 1, "no": 2, "missing": 2, "children": [{"nodeid": 1, "depth": 1, "split": "pnn20", "split_condition": -1.85029292, "yes": 3, "no": 4, "missing": 4, "children": [{"nodeid": 3, "leaf": 0}, {"nodeid": 4, "leaf": -0.0303705521}]}, {"nodeid": 2, "depth": 1, "split": "rmssd", "split_condition": 1.51048672, "yes": 5, "no": 6, "missing": 6, "children": [{"nodeid": 5, "leaf": 0.0135489022}, {"nodeid": 6, "leaf": -0.0257830527}]}]}, {"nodeid": 0, "depth": 0, "split": "dfaAlpha1", "split_condition": 0.0316163115, "yes": 1, "no": 2, "missing": 2, "children": [{"nodeid": 1, "depth": 1, "split": "pnn20", "split_condition": -0.378463686, "yes": 3, "no": 4, "missing": 4, "children": [{"nodeid": 3, "leaf": -0.0105511444}, {"nodeid": 4, "leaf": 0.0193863381}]}, {"nodeid": 2, "depth": 1, "split": "sd2", "split_condition": -0.0556747764, "yes": 5, "no": 6, "missing": 6, "children": [{"nodeid": 5, "leaf": 0.002780376}, {"nodeid": 6, "leaf": -0.0286226179}]}]}, {"nodeid": 0, "depth": 0, "split": "dfaAlpha1", "split_condition": 0.758663893, "yes": 1, "no": 2, "missing": 2, "children": [{"nodeid": 1, "depth": 1, "split": "pnn50", "split_condition": 1.06962538, "yes": 3, "no": 4, "missing": 4, "children": [{"nodeid": 3, "leaf": 0.0105101336}, {"nodeid": 4, "leaf": -0.025381837}]}, {"nodeid": 2, "depth": 1, "split": "pnn50", "split_condition": 0.200828552, "yes": 5, "no": 6, "missing": 6, "children": [{"nodeid": 5, "leaf": -0.0287818741}, {"nodeid": 6, "leaf": 0}]}]}, {"nodeid": 0, "depth": 0, "split": "hrMean", "split_condition": -1.01166701, "yes": 1, "no": 2, "missing": 2, "children": [{"nodeid": 1, "depth": 1, "split": "rmssd", "split_condition": 0.354552209, "yes": 3, "no": 4, "missing": 4, "children": [{"nodeid": 3, "leaf": -0.0344318859}, {"nodeid": 4, "leaf": 0}]}, {"nodeid": 2, "depth": 1, "split": "hrRange", "split_condition": 1.28773928, "yes": 5, "no": 6, "missing": 6, "children": [{"nodeid": 5, "leaf": 0.0115333004}, {"nodeid": 6, "leaf": -0.020507751}]}]}, {"nodeid": 0, "depth": 0, "split": "pnn20", "split_condition": 0.884051621, "yes": 1, "no": 2, "missing": 2, "children": [{"nodeid": 1, "depth": 1, "split": "meanRR", "split_condition": 0.660923719, "yes": 3, "no": 4, "missing": 4, "children": [{"nodeid": 3, "leaf": 0.0098578129}, {"nodeid": 4, "leaf": -0.0155680925}]}, {"nodeid": 2, "depth": 1, "split": "pnn20", "split_condition": 1.58178687, "yes": 5, "no": 6, "missing": 6, "children": [{"nodeid": 5, "leaf": -0.0313406102}, {"nodeid": 6, "leaf": 0}]}]}, {"nodeid": 0, "depth": 0, "split": "dfaAlpha1", "split_condition": 0.232872501, "yes": 1, "no": 2, "missing": 2, "children": [{"nodeid": 1, "depth": 1, "split": "pnn50", "split_condition": 1.06962538, "yes": 3, "no": 4, "missing": 4, "children": [{"nodeid": 3, "leaf": 0.0155742588}, {"nodeid": 4, "leaf": -0.0224749055}]}, {"nodeid": 2, "depth": 1, "split": "sd2", "split_condition": -0.0800439492, "yes": 5, "no": 6, "missing": 6, "children": [{"nodeid": 5, "leaf": 0.00037403396}, {"nodeid": 6, "leaf": -0.0319621675}]}]}, {"nodeid": 0, "depth": 0, "split": "dfaAlpha1", "split_condition": 0.758663893, "yes": 1, "no": 2, "missing": 2, "children": [{"nodeid": 1, "depth": 1, "split": "meanRR", "split_condition": -1.63331771, "yes": 3, "no": 4, "missing": 4, "children": [{"nodeid": 3, "leaf": -0.0278020985}, {"nodeid": 4, "leaf": 0.0167323072}]}, {"nodeid": 2, "depth": 1, "split": "meanRR", "split_condition": -0.977688551, "yes": 5, "no": 6, "missing": 6, "children": [{"nodeid": 5, "leaf": 0.0110474406}, {"nodeid": 6, "leaf": -0.0234775227}]}]}, {"nodeid": 0, "depth": 0, "split": "hrMean", "split_condition": 1.53447914, "yes": 1, "no": 2, "missing": 2, "children": [{"nodeid": 1, "depth": 1, "split": "hrMean", "split_condition": 0.864917755, "yes": 3, "no": 4, "missing": 4, "children": [{"nodeid": 3, "leaf": -0.00144812756}, {"nodeid": 4, "leaf": 0.0360939279}]}, {"nodeid": 2, "leaf": -0.0333028622}]}, {"nodeid": 0, "depth": 0, "split": "hrRange", "split_condition": -1.13447046, "yes": 1, "no": 2, "missing": 2, "children": [{"nodeid": 1, "depth": 1, "split": "sampleEntropy", "split_condition": 0.691004992, "yes": 3, "no": 4, "missing": 4, "children": [{"nodeid": 3, "leaf": -0.0328656584}, {"nodeid": 4, "leaf": 0}]}, {"nodeid": 2, "depth": 1, "split": "pnn50", "split_condition": 1.06178522, "yes": 5, "no": 6, "missing": 6, "children": [{"nodeid": 5, "leaf": 0.00758862589}, {"nodeid": 6, "leaf": -0.0199080128}]}]}, {"nodeid": 0, "depth": 0, "split": "cvRR", "split_condition": 1.06466007, "yes": 1, "no": 2, "missing": 2, "children": [{"nodeid": 1, "depth": 1, "split": "meanRR", "split_condition": 0.868353069, "yes": 3, "no": 4, "missing": 4, "children": [{"nodeid": 3, "leaf": 0.0143596223}, {"nodeid": 4, "leaf": -0.0145530021}]}, {"nodeid": 2, "depth": 1, "split": "hrRange", "split_condition": 0.479029596, "yes": 5, "no": 6, "missing": 6, "children": [{"nodeid": 5, "leaf": 0.00296170427}, {"nodeid": 6, "leaf": -0.0366036259}]}]}, {"nodeid": 0, "depth": 0, "split": "sdnn", "split_condition": -1.09144354, "yes": 1, "no": 2, "missing": 2, "children": [{"nodeid": 1, "depth": 1, "split": "sampleEntropy", "split_condition": 1.30737281, "yes": 3, "no": 4, "missing": 4, "children": [{"nodeid": 3, "leaf": -0.0312008113}, {"nodeid": 4, "leaf": 0.00510758301}]}, {"nodeid": 2, "depth": 1, "split": "pnn20", "split_condition": 1.26145601, "yes": 5, "no": 6, "missing": 6, "children": [{"nodeid": 5, "leaf": 0.0112059703}, {"nodeid": 6, "leaf": -0.0222047269}]}]}, {"nodeid": 0, "depth": 0, "split": "hrRange", "split_condition": -0.859568834, "yes": 1, "no": 2, "missing": 2, "children": [{"nodeid": 1, "depth": 1, "split": "dfaAlpha1", "split_condition": -0.530354917, "yes": 3, "no": 4, "missing": 4, "children": [{"nodeid": 3, "leaf": 0.00271813152}, {"nodeid": 4, "leaf": -0.0337389112}]}, {"nodeid": 2, "depth": 1, "split": "sampleEntropy", "split_condition": -0.189551145, "yes": 5, "no": 6, "missing": 6, "children": [{"nodeid": 5, "leaf": -0.00654528523}, {"nodeid": 6, "leaf": 0.0217418782}]}]}, {"nodeid": 0, "depth": 0, "split": "meanRR", "split_condition": -1.56480849, "yes": 1, "no": 2, "missing": 2, "children": [{"nodeid": 1, "leaf": -0.0336506851}, {"nodeid": 2, "depth": 1, "split": "meanRR", "split_condition": -0.759709001, "yes": 3, "no": 4, "missing": 4, "children": [{"nodeid": 3, "leaf": 0.0262909476}, {"nodeid": 4, "leaf": -0.00549519761}]}]}, {"nodeid": 0, "depth": 0, "split": "hrMean", "split_condition": -1.24134517, "yes": 1, "no": 2, "missing": 2, "children": [{"nodeid": 1, "leaf": -0.0242797341}, {"nodeid": 2, "depth": 1, "split": "hrMean", "split_condition": 1.53447914, "yes": 3, "no": 4, "missing": 4, "children": [{"nodeid": 3, "leaf": 0.0142725408}, {"nodeid": 4, "leaf": -0.02305503}]}]}, {"nodeid": 0, "depth": 0, "split": "sampleEntropy", "split_condition": -0.466059208, "yes": 1, "no": 2, "missing": 2, "children": [{"nodeid": 1, "depth": 1, "split": "sd1sd2Ratio", "split_condition": -0.168477282, "yes": 3, "no": 4, "missing": 4, "children": [{"nodeid": 3, "leaf": -0.0252172798}, {"nodeid": 4, "leaf": -0.000940585625}]}, {"nodeid": 2, "depth": 1, "split": "hrMean", "split_condition": 0.84662199, "yes": 5, "no": 6, "missing": 6, "children": [{"nodeid": 5, "leaf": -0.0022049048}, {"nodeid": 6, "leaf": 0.0342273824}]}]}, {"nodeid": 0, "depth": 0, "split": "hrMean", "split_condition": -0.781401515, "yes": 1, "no": 2, "missing": 2, "children": [{"nodeid": 1, "depth": 1, "split": "dfaAlpha1", "split_condition": -0.385342926, "yes": 3, "no": 4, "missing": 4, "children": [{"nodeid": 3, "leaf": 0.000608399801}, {"nodeid": 4, "leaf": -0.0341681652}]}, {"nodeid": 2, "depth": 1, "split": "sd2", "split_condition": 0.113316312, "yes": 5, "no": 6, "missing": 6, "children": [{"nodeid": 5, "leaf": 0.0255455263}, {"nodeid": 6, "leaf": -0.00732098985}]}]}, {"nodeid": 0, "depth": 0, "split": "sampleEntropy", "split_condition": -0.590229392, "yes": 1, "no": 2, "missing": 2, "children": [{"nodeid": 1, "depth": 1, "split": "sd2", "split_condition": -0.272860557, "yes": 3, "no": 4, "missing": 4, "children": [{"nodeid": 3, "leaf": 0}, {"nodeid": 4, "leaf": -0.0262457468}]}, {"nodeid": 2, "depth": 1, "split": "hrMean", "split_condition": 0.84662199, "yes": 5, "no": 6, "missing": 6, "children": [{"nodeid": 5, "leaf": -0.00262682675}, {"nodeid": 6, "leaf": 0.0276508722}]}]}, {"nodeid": 0, "depth": 0, "split": "hrMean", "split_condition": -0.781401515, "yes": 1, "no": 2, "missing": 2, "children": [{"nodeid": 1, "depth": 1, "split": "dfaAlpha1", "split_condition": -0.320809871, "yes": 3, "no": 4, "missing": 4, "children": [{"nodeid": 3, "leaf": 0}, {"nodeid": 4, "leaf": -0.0291688479}]}, {"nodeid": 2, "depth": 1, "split": "sampleEntropy", "split_condition": -0.590229392, "yes": 5, "no": 6, "missing": 6, "children": [{"nodeid": 5, "leaf": -0.0143688042}, {"nodeid": 6, "leaf": 0.0195294004}]}]}, {"nodeid": 0, "depth": 0, "split": "sampleEntropy", "split_condition": -0.466059208, "yes": 1, "no": 2, "missing": 2, "children": [{"nodeid": 1, "depth": 1, "split": "sdnn", "split_condition": 1.59285176, "yes": 3, "no": 4, "missing": 4, "children": [{"nodeid": 3, "leaf": -0.0201357435}, {"nodeid": 4, "leaf": 0.00738444878}]}, {"nodeid": 2, "depth": 1, "split": "pnn20", "split_condition": 1.30885053, "yes": 5, "no": 6, "missing": 6, "children": [{"nodeid": 5, "leaf": 0.0146978498}, {"nodeid": 6, "leaf": -0.02463861}]}]}, {"nodeid": 0, "depth": 0, "split": "pnn50", "split_condition": -0.23002699, "yes": 1, "no": 2, "missing": 2, "children": [{"nodeid": 1, "depth": 1, "split": "dfaAlpha1", "split_condition": -0.498304635, "yes": 3, "no": 4, "missing": 4, "children": [{"nodeid": 3, "leaf": 0.0121059567}, {"nodeid": 4, "leaf": -0.0238849409}]}, {"nodeid": 2, "depth": 1, "split": "rmssd", "split_condition": 1.51048672, "yes": 5, "no": 6, "missing": 6, "children": [{"nodeid": 5, "leaf": 0.0247378107}, {"nodeid": 6, "leaf": -0.0196044855}]}]}, {"nodeid": 0, "depth": 0, "split": "meanRR", "split_condition": 0.868353069, "yes": 1, "no": 2, "missing": 2, "children": [{"nodeid": 1, "depth": 1, "split": "hrStd", "split_condition": 1.0663954, "yes": 3, "no": 4, "missing": 4, "children": [{"nodeid": 3, "leaf": 0.0181672648}, {"nodeid": 4, "leaf": -0.018801583}]}, {"nodeid": 2, "depth": 1, "split": "pnn20", "split_condition": 0.371750325, "yes": 5, "no": 6, "missing": 6, "children": [{"nodeid": 5, "leaf": -0.0286240261}, {"nodeid": 6, "leaf": 0.000790838327}]}]}, {"nodeid": 0, "depth": 0, "split": "sampleEntropy", "split_condition": -0.323288679, "yes": 1, "no": 2, "missing": 2, "children": [{"nodeid": 1, "depth": 1, "split": "hrMean", "split_condition": -0.977684021, "yes": 3, "no": 4, "missing": 4, "children": [{"nodeid": 3, "leaf": -0.0277426727}, {"nodeid": 4, "leaf": -0.000718736497}]}, {"nodeid": 2, "depth": 1, "split": "hrStd", "split_condition": -0.996296525, "yes": 5, "no": 6, "missing": 6, "children": [{"nodeid": 5, "leaf": -0.00855011865}, {"nodeid": 6, "leaf": 0.0205718037}]}]}, {"nodeid": 0, "depth": 0, "split": "dfaAlpha1", "split_condition": 0.0316163115, "yes": 1, "no": 2, "missing": 2, "children": [{"nodeid": 1, "depth": 1, "split": "pnn20", "split_condition": -0.280092299, "yes": 3, "no": 4, "missing": 4, "children": [{"nodeid": 3, "leaf": -0.0109063899}, {"nodeid": 4, "leaf": 0.0177259836}]}, {"nodeid": 2, "depth": 1, "split": "hrMean", "split_condition": 1.0821991, "yes": 5, "no": 6, "missing": 6, "children": [{"nodeid": 5, "leaf": -0.0226797778}, {"nodeid": 6, "leaf": 0.0103511931}]}]}, {"nodeid": 0, "depth": 0, "split": "hrMean", "split_condition": -1.24134517, "yes": 1, "no": 2, "missing": 2, "children": [{"nodeid": 1, "depth": 1, "split": "hrStd", "split_condition": -0.283255041, "yes": 3, "no": 4, "missing": 4, "children": [{"nodeid": 3, "leaf": -0.0344800949}, {"nodeid": 4, "leaf": 0}]}, {"nodeid": 2, "depth": 1, "split": "hrMean", "split_condition": 1.53447914, "yes": 5, "no": 6, "missing": 6, "children": [{"nodeid": 5, "leaf": 0.00514598191}, {"nodeid": 6, "leaf": -0.0312686563}]}]}, {"nodeid": 0, "depth": 0, "split": "hrMean", "split_condition": -1.24134517, "yes": 1, "no": 2, "missing": 2, "children": [{"nodeid": 1, "leaf": -0.024631409}, {"nodeid": 2, "depth": 1, "split": "meanRR", "split_condition": -1.56480849, "yes": 3, "no": 4, "missing": 4, "children": [{"nodeid": 3, "leaf": -0.0282038096}, {"nodeid": 4, "leaf": 0.00697453646}]}]}, {"nodeid": 0, "depth": 0, "split": "hrMean", "split_condition": -1.24134517, "yes": 1, "no": 2, "missing": 2, "children": [{"nodeid": 1, "leaf": -0.0248073023}, {"nodeid": 2, "depth": 1, "split": "sd2", "split_condition": 0.0692960247, "yes": 3, "no": 4, "missing": 4, "children": [{"nodeid": 3, "leaf": 0.015704846}, {"nodeid": 4, "leaf": -0.011374319}]}]}, {"nodeid": 0, "depth": 0, "split": "dfaAlpha1", "split_condition": 1.15639091, "yes": 1, "no": 2, "missing": 2, "children": [{"nodeid": 1, "depth": 1, "split": "pnn50", "split_condition": 1.22431111, "yes": 3, "no": 4, "missing": 4, "children": [{"nodeid": 3, "leaf": 0.013557883}, {"nodeid": 4, "leaf": -0.0199896991}]}, {"nodeid": 2, "depth": 1, "split": "pnn50", "split_condition": -0.0207252167, "yes": 5, "no": 6, "missing": 6, "children": [{"nodeid": 5, "leaf": -0.0276655462}, {"nodeid": 6, "leaf": 0}]}]}, {"nodeid": 0, "depth": 0, "split": "dfaAlpha1", "split_condition": 1.15639091, "yes": 1, "no": 2, "missing": 2, "children": [{"nodeid": 1, "depth": 1, "split": "meanRR", "split_condition": -1.63331771, "yes": 3, "no": 4, "missing": 4, "children": [{"nodeid": 3, "leaf": -0.0260378513}, {"nodeid": 4, "leaf": 0.00786449388}]}, {"nodeid": 2, "depth": 1, "split": "sampleEntropy", "split_condition": 0.330043733, "yes": 5, "no": 6, "missing": 6, "children": [{"nodeid": 5, "leaf": -0.0370227136}, {"nodeid": 6, "leaf": 0.00872159749}]}]}, {"nodeid": 0, "depth": 0, "split": "hrRange", "split_condition": 1.3133049, "yes": 1, "no": 2, "missing": 2, "children": [{"nodeid": 1, "depth": 1, "split": "pnn50", "split_condition": -0.288845867, "yes": 3, "no": 4, "missing": 4, "children": [{"nodeid": 3, "leaf": -0.00770538906}, {"nodeid": 4, "leaf": 0.0181071684}]}, {"nodeid": 2, "depth": 1, "split": "pnn20", "split_condition": 0.214695215, "yes": 5, "no": 6, "missing": 6, "children": [{"nodeid": 5, "leaf": 0}, {"nodeid": 6, "leaf": -0.0326281898}]}]}, {"nodeid": 0, "depth": 0, "split": "hrMean", "split_condition": -0.99311173, "yes": 1, "no": 2, "missing": 2, "children": [{"nodeid": 1, "leaf": -0.0242365338}, {"nodeid": 2, "depth": 1, "split": "sdnn", "split_condition": -1.09144354, "yes": 3, "no": 4, "missing": 4, "children": [{"nodeid": 3, "leaf": -0.017578071}, {"nodeid": 4, "leaf": 0.0164811239}]}]}, {"nodeid": 0, "depth": 0, "split": "sampleEntropy", "split_condition": -0.189551145, "yes": 1, "no": 2, "missing": 2, "children": [{"nodeid": 1, "depth": 1, "split": "dfaAlpha1", "split_condition": -0.891221821, "yes": 3, "no": 4, "missing": 4, "children": [{"nodeid": 3, "leaf": -0.0296845194}, {"nodeid": 4, "leaf": -0.00580368517}]}, {"nodeid": 2, "depth": 1, "split": "hrStd", "split_condition": -0.508817613, "yes": 5, "no": 6, "missing": 6, "children": [{"nodeid": 5, "leaf": -0.0126506807}, {"nodeid": 6, "leaf": 0.0176011678}]}]}, {"nodeid": 0, "depth": 0, "split": "meanRR", "split_condition": -1.56480849, "yes": 1, "no": 2, "missing": 2, "children": [{"nodeid": 1, "leaf": -0.0295535382}, {"nodeid": 2, "depth": 1, "split": "meanRR", "split_condition": -0.759709001, "yes": 3, "no": 4, "missing": 4, "children": [{"nodeid": 3, "leaf": 0.0237059072}, {"nodeid": 4, "leaf": -0.00605637534}]}]}, {"nodeid": 0, "depth": 0, "split": "dfaAlpha1", "split_condition": 0.758663893, "yes": 1, "no": 2, "missing": 2, "children": [{"nodeid": 1, "depth": 1, "split": "pnn50", "split_condition": 1.06962538, "yes": 3, "no": 4, "missing": 4, "children": [{"nodeid": 3, "leaf": 0.0132767679}, {"nodeid": 4, "leaf": -0.0190161094}]}, {"nodeid": 2, "depth": 1, "split": "hrMean", "split_condition": -0.31007269, "yes": 5, "no": 6, "missing": 6, "children": [{"nodeid": 5, "leaf": 0}, {"nodeid": 6, "leaf": -0.0256861784}]}]}, {"nodeid": 0, "depth": 0, "split": "pnn20", "split_condition": 1.25405788, "yes": 1, "no": 2, "missing": 2, "children": [{"nodeid": 1, "depth": 1, "split": "dfaAlpha1", "split_condition": -0.473200589, "yes": 3, "no": 4, "missing": 4, "children": [{"nodeid": 3, "leaf": 0.0244377367}, {"nodeid": 4, "leaf": -0.00402751192}]}, {"nodeid": 2, "depth": 1, "split": "dfaAlpha1", "split_condition": -0.708993673, "yes": 5, "no": 6, "missing": 6, "children": [{"nodeid": 5, "leaf": -0.0350667313}, {"nodeid": 6, "leaf": 0}]}]}, {"nodeid": 0, "depth": 0, "split": "hrMean", "split_condition": -0.781401515, "yes": 1, "no": 2, "missing": 2, "children": [{"nodeid": 1, "depth": 1, "split": "pnn50", "split_condition": 0.428866804, "yes": 3, "no": 4, "missing": 4, "children": [{"nodeid": 3, "leaf": -0.0262344219}, {"nodeid": 4, "leaf": 0.000550524797}]}, {"nodeid": 2, "depth": 1, "split": "dfaAlpha1", "split_condition": 1.15639091, "yes": 5, "no": 6, "missing": 6, "children": [{"nodeid": 5, "leaf": 0.0147593645}, {"nodeid": 6, "leaf": -0.0159915406}]}]}, {"nodeid": 0, "depth": 0, "split": "sd2", "split_condition": -0.0231812634, "yes": 1, "no": 2, "missing": 2, "children": [{"nodeid": 1, "depth": 1, "split": "sd2", "split_condition": -1.11917996, "yes": 3, "no": 4, "missing": 4, "children": [{"nodeid": 3, "leaf": -0.0145329041}, {"nodeid": 4, "leaf": 0.0272213798}]}, {"nodeid": 2, "depth": 1, "split": "dfaAlpha1", "split_condition": 0.0316163115, "yes": 5, "no": 6, "missing": 6, "children": [{"nodeid": 5, "leaf": 0.00659264019}, {"nodeid": 6, "leaf": -0.0222085696}]}]}, {"nodeid": 0, "depth": 0, "split": "sd2", "split_condition": 1.05697429, "yes": 1, "no": 2, "missing": 2, "children": [{"nodeid": 1, "depth": 1, "split": "pnn50", "split_condition": -0.23002699, "yes": 3, "no": 4, "missing": 4, "children": [{"nodeid": 3, "leaf": -0.00989695359}, {"nodeid": 4, "leaf": 0.0232818108}]}, {"nodeid": 2, "depth": 1, "split": "cvRR", "split_condition": 1.7337743, "yes": 5, "no": 6, "missing": 6, "children": [{"nodeid": 5, "leaf": -0.0316564552}, {"nodeid": 6, "leaf": 0.0066127046}]}]}, {"nodeid": 0, "depth": 0, "split": "pnn50", "split_condition": 0.200828552, "yes": 1, "no": 2, "missing": 2, "children": [{"nodeid": 1, "depth": 1, "split": "cvRR", "split_condition": -0.311804771, "yes": 3, "no": 4, "missing": 4, "children": [{"nodeid": 3, "leaf": 0.000609158422}, {"nodeid": 4, "leaf": -0.0244423468}]}, {"nodeid": 2, "depth": 1, "split": "dfaAlpha1", "split_condition": -0.837383866, "yes": 5, "no": 6, "missing": 6, "children": [{"nodeid": 5, "leaf": -0.0114122462}, {"nodeid": 6, "leaf": 0.0238056201}]}]}, {"nodeid": 0, "depth": 0, "split": "sd2", "split_condition": -0.0231812634, "yes": 1, "no": 2, "missing": 2, "children": [{"nodeid": 1, "depth": 1, "split": "rmssd", "split_condition": -0.92590481, "yes": 3, "no": 4, "missing": 4, "children": [{"nodeid": 3, "leaf": -0.0127503043}, {"nodeid": 4, "leaf": 0.0234925579}]}, {"nodeid": 2, "depth": 1, "split": "dfaAlpha1", "split_condition": 0.0316163115, "yes": 5, "no": 6, "missing": 6, "children": [{"nodeid": 5, "leaf": 0}, {"nodeid": 6, "leaf": -0.0273172613}]}]}, {"nodeid": 0, "depth": 0, "split": "meanRR", "split_condition": 0.868353069, "yes": 1, "no": 2, "missing": 2, "children": [{"nodeid": 1, "depth": 1, "split": "hrStd", "split_condition": 1.04110765, "yes": 3, "no": 4, "missing": 4, "children": [{"nodeid": 3, "leaf": 0.0151067572}, {"nodeid": 4, "leaf": -0.0167293176}]}, {"nodeid": 2, "depth": 1, "split": "pnn50", "split_condition": 0.428866804, "yes": 5, "no": 6, "missing": 6, "children": [{"nodeid": 5, "leaf": -0.0262871627}, {"nodeid": 6, "leaf": 0}]}]}, {"nodeid": 0, "depth": 0, "split": "dfaAlpha1", "split_condition": 0.758663893, "yes": 1, "no": 2, "missing": 2, "children": [{"nodeid": 1, "depth": 1, "split": "hrMean", "split_condition": 0.455866992, "yes": 3, "no": 4, "missing": 4, "children": [{"nodeid": 3, "leaf": -0.00523957703}, {"nodeid": 4, "leaf": 0.0265100189}]}, {"nodeid": 2, "depth": 1, "split": "pnn50", "split_condition": 0.200828552, "yes": 5, "no": 6, "missing": 6, "children": [{"nodeid": 5, "leaf": -0.0320469998}, {"nodeid": 6, "leaf": 0}]}]}, {"nodeid": 0, "depth": 0, "split": "hrRange", "split_condition": 1.3133049, "yes": 1, "no": 2, "missing": 2, "children": [{"nodeid": 1, "depth": 1, "split": "hrMean", "split_condition": 0.496200144, "yes": 3, "no": 4, "missing": 4, "children": [{"nodeid": 3, "leaf": -0.00203585788}, {"nodeid": 4, "leaf": 0.0297991484}]}, {"nodeid": 2, "leaf": -0.0255882535}]}, {"nodeid": 0, "depth": 0, "split": "dfaAlpha1", "split_condition": 0.0316163115, "yes": 1, "no": 2, "missing": 2, "children": [{"nodeid": 1, "depth": 1, "split": "meanRR", "split_condition": -1.56480849, "yes": 3, "no": 4, "missing": 4, "children": [{"nodeid": 3, "leaf": -0.0202535894}, {"nodeid": 4, "leaf": 0.0194587372}]}, {"nodeid": 2, "depth": 1, "split": "sd2", "split_condition": -0.0556747764, "yes": 5, "no": 6, "missing": 6, "children": [{"nodeid": 5, "leaf": 0.00548341637}, {"nodeid": 6, "leaf": -0.0274973158}]}]}, {"nodeid": 0, "depth": 0, "split": "sampleEntropy", "split_condition": -0.189551145, "yes": 1, "no": 2, "missing": 2, "children": [{"nodeid": 1, "depth": 1, "split": "pnn20", "split_condition": 0.247852147, "yes": 3, "no": 4, "missing": 4, "children": [{"nodeid": 3, "leaf": -0.0170871671}, {"nodeid": 4, "leaf": 0.00234235986}]}, {"nodeid": 2, "depth": 1, "split": "hrStd", "split_condition": -0.112195775, "yes": 5, "no": 6, "missing": 6, "children": [{"nodeid": 5, "leaf": 0}, {"nodeid": 6, "leaf": 0.0180816185}]}]}, {"nodeid": 0, "depth": 0, "split": "hrMean", "split_condition": -1.24134517, "yes": 1, "no": 2, "missing": 2, "children": [{"nodeid": 1, "leaf": -0.0255810358}, {"nodeid": 2, "depth": 1, "split": "cvRR", "split_condition": -0.325579673, "yes": 3, "no": 4, "missing": 4, "children": [{"nodeid": 3, "leaf": 0.02076382}, {"nodeid": 4, "leaf": -0.00422826177}]}]}, {"nodeid": 0, "depth": 0, "split": "pnn50", "split_condition": 1.06962538, "yes": 1, "no": 2, "missing": 2, "children": [{"nodeid": 1, "depth": 1, "split": "pnn50", "split_condition": 0.489328593, "yes": 3, "no": 4, "missing": 4, "children": [{"nodeid": 3, "leaf": -0.00100303756}, {"nodeid": 4, "leaf": 0.0291257892}]}, {"nodeid": 2, "depth": 1, "split": "cvRR", "split_condition": 1.52472651, "yes": 5, "no": 6, "missing": 6, "children": [{"nodeid": 5, "leaf": -0.0267887171}, {"nodeid": 6, "leaf": 0.00338501274}]}]}, {"nodeid": 0, "depth": 0, "split": "pnn20", "split_condition": 1.249897, "yes": 1, "no": 2, "missing": 2, "children": [{"nodeid": 1, "depth": 1, "split": "pnn20", "split_condition": -0.0814087167, "yes": 3, "no": 4, "missing": 4, "children": [{"nodeid": 3, "leaf": -0.00894039031}, {"nodeid": 4, "leaf": 0.0179442577}]}, {"nodeid": 2, "depth": 1, "split": "dfaAlpha1", "split_condition": -0.708993673, "yes": 5, "no": 6, "missing": 6, "children": [{"nodeid": 5, "leaf": -0.0326684155}, {"nodeid": 6, "leaf": 0}]}]}, {"nodeid": 0, "depth": 0, "split": "pnn20", "split_condition": 1.249897, "yes": 1, "no": 2, "missing": 2, "children": [{"nodeid": 1, "depth": 1, "split": "sd1sd2Ratio", "split_condition": 0.0533784442, "yes": 3, "no": 4, "missing": 4, "children": [{"nodeid": 3, "leaf": -0.00561432261}, {"nodeid": 4, "leaf": 0.0203712638}]}, {"nodeid": 2, "leaf": -0.0229483135}]}, {"nodeid": 0, "depth": 0, "split": "pnn20", "split_condition": 1.25405788, "yes": 1, "no": 2, "missing": 2, "children": [{"nodeid": 1, "depth": 1, "split": "sdnn", "split_condition": -1.03106415, "yes": 3, "no": 4, "missing": 4, "children": [{"nodeid": 3, "leaf": -0.0206834488}, {"nodeid": 4, "leaf": 0.0122336894}]}, {"nodeid": 2, "depth": 1, "split": "pnn20", "split_condition": 1.52925396, "yes": 5, "no": 6, "missing": 6, "children": [{"nodeid": 5, "leaf": -0.0304548144}, {"nodeid": 6, "leaf": 0}]}]}, {"nodeid": 0, "depth": 0, "split": "hrStd", "split_condition": -0.996296525, "yes": 1, "no": 2, "missing": 2, "children": [{"nodeid": 1, "depth": 1, "split": "dfaAlpha1", "split_condition": -0.498304635, "yes": 3, "no": 4, "missing": 4, "children": [{"nodeid": 3, "leaf": 0.00663045654}, {"nodeid": 4, "leaf": -0.0305913631}]}, {"nodeid": 2, "depth": 1, "split": "hrRange", "split_condition": 0.622629702, "yes": 5, "no": 6, "missing": 6, "children": [{"nodeid": 5, "leaf": 0.0182059146}, {"nodeid": 6, "leaf": -0.0127497707}]}]}, {"nodeid": 0, "depth": 0, "split": "rmssd", "split_condition": -0.720681608, "yes": 1, "no": 2, "missing": 2, "children": [{"nodeid": 1, "depth": 1, "split": "meanRR", "split_condition": 0.650093198, "yes": 3, "no": 4, "missing": 4, "children": [{"nodeid": 3, "leaf": 0}, {"nodeid": 4, "leaf": -0.0255113281}]}, {"nodeid": 2, "depth": 1, "split": "sd1sd2Ratio", "split_condition": 1.1461457, "yes": 5, "no": 6, "missing": 6, "children": [{"nodeid": 5, "leaf": 0.0188630279}, {"nodeid": 6, "leaf": -0.0227592792}]}]}, {"nodeid": 0, "depth": 0, "split": "meanRR", "split_condition": -1.56480849, "yes": 1, "no": 2, "missing": 2, "children": [{"nodeid": 1, "leaf": -0.0279006157}, {"nodeid": 2, "depth": 1, "split": "hrMean", "split_condition": 0.864917755, "yes": 3, "no": 4, "missing": 4, "children": [{"nodeid": 3, "leaf": -0.00557150459}, {"nodeid": 4, "leaf": 0.0370876528}]}]}, {"nodeid": 0, "depth": 0, "split": "sampleEntropy", "split_condition": -0.189551145, "yes": 1, "no": 2, "missing": 2, "children": [{"nodeid": 1, "depth": 1, "split": "sd2", "split_condition": -0.317014396, "yes": 3, "no": 4, "missing": 4, "children": [{"nodeid": 3, "leaf": 0.0043249419}, {"nodeid": 4, "leaf": -0.0208667498}]}, {"nodeid": 2, "depth": 1, "split": "hrStd", "split_condition": -0.112195775, "yes": 5, "no": 6, "missing": 6, "children": [{"nodeid": 5, "leaf": -0.00917877909}, {"nodeid": 6, "leaf": 0.0231856052}]}]}, {"nodeid": 0, "depth": 0, "split": "hrMean", "split_condition": -0.99311173, "yes": 1, "no": 2, "missing": 2, "children": [{"nodeid": 1, "depth": 1, "split": "pnn50", "split_condition": 0.428866804, "yes": 3, "no": 4, "missing": 4, "children": [{"nodeid": 3, "leaf": -0.0215308666}, {"nodeid": 4, "leaf": 0}]}, {"nodeid": 2, "depth": 1, "split": "hrMean", "split_condition": -0.115664572, "yes": 5, "no": 6, "missing": 6, "children": [{"nodeid": 5, "leaf": 0.0269751586}, {"nodeid": 6, "leaf": -0.00471624499}]}]}, {"nodeid": 0, "depth": 0, "split": "pnn50", "split_condition": 1.06962538, "yes": 1, "no": 2, "missing": 2, "children": [{"nodeid": 1, "depth": 1, "split": "pnn50", "split_condition": 0.489328593, "yes": 3, "no": 4, "missing": 4, "children": [{"nodeid": 3, "leaf": -0.0062058866}, {"nodeid": 4, "leaf": 0.0314244591}]}, {"nodeid": 2, "depth": 1, "split": "hrRange", "split_condition": -0.028616121, "yes": 5, "no": 6, "missing": 6, "children": [{"nodeid": 5, "leaf": 0}, {"nodeid": 6, "leaf": -0.0309288632}]}]}, {"nodeid": 0, "depth": 0, "split": "pnn50", "split_condition": 1.06962538, "yes": 1, "no": 2, "missing": 2, "children": [{"nodeid": 1, "depth": 1, "split": "pnn50", "split_condition": 0.181091994, "yes": 3, "no": 4, "missing": 4, "children": [{"nodeid": 3, "leaf": -0.00876157172}, {"nodeid": 4, "leaf": 0.0226398502}]}, {"nodeid": 2, "depth": 1, "split": "dfaAlpha1", "split_condition": -0.708993673, "yes": 5, "no": 6, "missing": 6, "children": [{"nodeid": 5, "leaf": -0.0346875861}, {"nodeid": 6, "leaf": 0}]}]}, {"nodeid": 0, "depth": 0, "split": "hrMean", "split_condition": 0.809251308, "yes": 1, "no": 2, "missing": 2, "children": [{"nodeid": 1, "depth": 1, "split": "hrMean", "split_condition": -0.0772350281, "yes": 3, "no": 4, "missing": 4, "children": [{"nodeid": 3, "leaf": 0}, {"nodeid": 4, "leaf": -0.0244766325}]}, {"nodeid": 2, "depth": 1, "split": "hrMean", "split_condition": 1.60739064, "yes": 5, "no": 6, "missing": 6, "children": [{"nodeid": 5, "leaf": 0.0338801742}, {"nodeid": 6, "leaf": -0.0119767254}]}]}, {"nodeid": 0, "depth": 0, "split": "hrMean", "split_condition": 0.496200144, "yes": 1, "no": 2, "missing": 2, "children": [{"nodeid": 1, "depth": 1, "split": "hrMean", "split_condition": -0.0772350281, "yes": 3, "no": 4, "missing": 4, "children": [{"nodeid": 3, "leaf": 0.00350761274}, {"nodeid": 4, "leaf": -0.0265944749}]}, {"nodeid": 2, "depth": 1, "split": "hrMean", "split_condition": 1.53447914, "yes": 5, "no": 6, "missing": 6, "children": [{"nodeid": 5, "leaf": 0.024227174}, {"nodeid": 6, "leaf": -0.0193260368}]}]}, {"nodeid": 0, "depth": 0, "split": "hrStd", "split_condition": 1.0663954, "yes": 1, "no": 2, "missing": 2, "children": [{"nodeid": 1, "depth": 1, "split": "meanRR", "split_condition": 0.868353069, "yes": 3, "no": 4, "missing": 4, "children": [{"nodeid": 3, "leaf": 0.0133421225}, {"nodeid": 4, "leaf": -0.0114847301}]}, {"nodeid": 2, "depth": 1, "split": "cvRR", "split_condition": 1.7337743, "yes": 5, "no": 6, "missing": 6, "children": [{"nodeid": 5, "leaf": -0.0293374266}, {"nodeid": 6, "leaf": 0.000791938452}]}]}, {"nodeid": 0, "depth": 0, "split": "hrRange", "split_condition": 0.368911952, "yes": 1, "no": 2, "missing": 2, "children": [{"nodeid": 1, "depth": 1, "split": "hrMean", "split_condition": -0.781401515, "yes": 3, "no": 4, "missing": 4, "children": [{"nodeid": 3, "leaf": -0.0115954075}, {"nodeid": 4, "leaf": 0.0206734892}]}, {"nodeid": 2, "depth": 1, "split": "sd1sd2Ratio", "split_condition": -0.536117017, "yes": 5, "no": 6, "missing": 6, "children": [{"nodeid": 5, "leaf": 0.00854263362}, {"nodeid": 6, "leaf": -0.0253190231}]}]}, {"nodeid": 0, "depth": 0, "split": "sampleEntropy", "split_condition": -0.593757689, "yes": 1, "no": 2, "missing": 2, "children": [{"nodeid": 1, "depth": 1, "split": "sdnn", "split_condition": 1.73390889, "yes": 3, "no": 4, "missing": 4, "children": [{"nodeid": 3, "leaf": -0.0204563066}, {"nodeid": 4, "leaf": 0.00491377246}]}, {"nodeid": 2, "depth": 1, "split": "pnn50", "split_condition": 1.06962538, "yes": 5, "no": 6, "missing": 6, "children": [{"nodeid": 5, "leaf": 0.00950531289}, {"nodeid": 6, "leaf": -0.017595591}]}]}, {"nodeid": 0, "depth": 0, "split": "hrMean", "split_condition": 0.465112805, "yes": 1, "no": 2, "missing": 2, "children": [{"nodeid": 1, "depth": 1, "split": "hrMean", "split_condition": -0.115664572, "yes": 3, "no": 4, "missing": 4, "children": [{"nodeid": 3, "leaf": 0.00459977007}, {"nodeid": 4, "leaf": -0.0281367432}]}, {"nodeid": 2, "depth": 1, "split": "hrMean", "split_condition": 1.53447914, "yes": 5, "no": 6, "missing": 6, "children": [{"nodeid": 5, "leaf": 0.0340686552}, {"nodeid": 6, "leaf": -0.0111442646}]}]}, {"nodeid": 0, "depth": 0, "split": "pnn50", "split_condition": -0.136674583, "yes": 1, "no": 2, "missing": 2, "children": [{"nodeid": 1, "depth": 1, "split": "cvRR", "split_condition": -0.34053126, "yes": 3, "no": 4, "missing": 4, "children": [{"nodeid": 3, "leaf": 0.000186612233}, {"nodeid": 4, "leaf": -0.0307554901}]}, {"nodeid": 2, "depth": 1, "split": "hrRange", "split_condition": 1.3092128, "yes": 5, "no": 6, "missing": 6, "children": [{"nodeid": 5, "leaf": 0.019575825}, {"nodeid": 6, "leaf": -0.0238423608}]}]}, {"nodeid": 0, "depth": 0, "split": "rmssd", "split_condition": 0.857122302, "yes": 1, "no": 2, "missing": 2, "children": [{"nodeid": 1, "depth": 1, "split": "pnn20", "split_condition": 0.884051621, "yes": 3, "no": 4, "missing": 4, "children": [{"nodeid": 3, "leaf": -0.00348190195}, {"nodeid": 4, "leaf": -0.029080648}]}, {"nodeid": 2, "depth": 1, "split": "rmssd", "split_condition": 1.51048672, "yes": 5, "no": 6, "missing": 6, "children": [{"nodeid": 5, "leaf": 0.0285995845}, {"nodeid": 6, "leaf": -0.00890599098}]}]}, {"nodeid": 0, "depth": 0, "split": "hrMean", "split_condition": 0.720562041, "yes": 1, "no": 2, "missing": 2, "children": [{"nodeid": 1, "depth": 1, "split": "hrMean", "split_condition": -0.0772350281, "yes": 3, "no": 4, "missing": 4, "children": [{"nodeid": 3, "leaf": 0.00360156666}, {"nodeid": 4, "leaf": -0.0278410222}]}, {"nodeid": 2, "depth": 1, "split": "meanRR", "split_condition": -1.63331771, "yes": 5, "no": 6, "missing": 6, "children": [{"nodeid": 5, "leaf": -0.0235215537}, {"nodeid": 6, "leaf": 0.0274631716}]}]}, {"nodeid": 0, "depth": 0, "split": "sd1sd2Ratio", "split_condition": 0.832171738, "yes": 1, "no": 2, "missing": 2, "children": [{"nodeid": 1, "depth": 1, "split": "pnn50", "split_condition": 0.489328593, "yes": 3, "no": 4, "missing": 4, "children": [{"nodeid": 3, "leaf": -0.00390586001}, {"nodeid": 4, "leaf": 0.0163337663}]}, {"nodeid": 2, "depth": 1, "split": "hrRange", "split_condition": -0.307110012, "yes": 5, "no": 6, "missing": 6, "children": [{"nodeid": 5, "leaf": 0.00197839621}, {"nodeid": 6, "leaf": -0.0287662894}]}]}, {"nodeid": 0, "depth": 0, "split": "hrStd", "split_condition": 1.12951207, "yes": 1, "no": 2, "missing": 2, "children": [{"nodeid": 1, "depth": 1, "split": "dfaAlpha1", "split_condition": 1.0726763, "yes": 3, "no": 4, "missing": 4, "children": [{"nodeid": 3, "leaf": 0.0144621013}, {"nodeid": 4, "leaf": -0.0183040779}]}, {"nodeid": 2, "depth": 1, "split": "sdnn", "split_condition": 1.76480556, "yes": 5, "no": 6, "missing": 6, "children": [{"nodeid": 5, "leaf": -0.0265926607}, {"nodeid": 6, "leaf": 0}]}]}, {"nodeid": 0, "depth": 0, "split": "pnn20", "split_condition": -0.348587424, "yes": 1, "no": 2, "missing": 2, "children": [{"nodeid": 1, "depth": 1, "split": "hrRange", "split_condition": 0.509844124, "yes": 3, "no": 4, "missing": 4, "children": [{"nodeid": 3, "leaf": -0.0218391977}, {"nodeid": 4, "leaf": 0}]}, {"nodeid": 2, "depth": 1, "split": "hrRange", "split_condition": 0.368911952, "yes": 5, "no": 6, "missing": 6, "children": [{"nodeid": 5, "leaf": 0.0233810246}, {"nodeid": 6, "leaf": -0.00975017622}]}]}, {"nodeid": 0, "depth": 0, "split": "pnn50", "split_condition": 1.06962538, "yes": 1, "no": 2, "missing": 2, "children": [{"nodeid": 1, "depth": 1, "split": "pnn50", "split_condition": 0.489328593, "yes": 3, "no": 4, "missing": 4, "children": [{"nodeid": 3, "leaf": -0.00106810371}, {"nodeid": 4, "leaf": 0.0259701218}]}, {"nodeid": 2, "depth": 1, "split": "hrRange", "split_condition": -0.028616121, "yes": 5, "no": 6, "missing": 6, "children": [{"nodeid": 5, "leaf": 0}, {"nodeid": 6, "leaf": -0.0310065877}]}]}, {"nodeid": 0, "depth": 0, "split": "hrRange", "split_condition": 1.28773928, "yes": 1, "no": 2, "missing": 2, "children": [{"nodeid": 1, "depth": 1, "split": "pnn20", "split_condition": -0.348587424, "yes": 3, "no": 4, "missing": 4, "children": [{"nodeid": 3, "leaf": -0.00817902945}, {"nodeid": 4, "leaf": 0.0114314025}]}, {"nodeid": 2, "depth": 1, "split": "pnn50", "split_condition": -0.44321239, "yes": 5, "no": 6, "missing": 6, "children": [{"nodeid": 5, "leaf": 0}, {"nodeid": 6, "leaf": -0.0279183444}]}]}, {"nodeid": 0, "depth": 0, "split": "pnn50", "split_condition": -0.23002699, "yes": 1, "no": 2, "missing": 2, "children": [{"nodeid": 1, "depth": 1, "split": "sdnn", "split_condition": -0.782100856, "yes": 3, "no": 4, "missing": 4, "children": [{"nodeid": 3, "leaf": 0.00253033405}, {"nodeid": 4, "leaf": -0.0230116881}]}, {"nodeid": 2, "depth": 1, "split": "sd2", "split_condition": 0.959391952, "yes": 5, "no": 6, "missing": 6, "children": [{"nodeid": 5, "leaf": 0.02374967}, {"nodeid": 6, "leaf": -0.00963882171}]}]}, {"nodeid": 0, "depth": 0, "split": "dfaAlpha1", "split_condition": -0.473200589, "yes": 1, "no": 2, "missing": 2, "children": [{"nodeid": 1, "depth": 1, "split": "hrRange", "split_condition": -0.0414345898, "yes": 3, "no": 4, "missing": 4, "children": [{"nodeid": 3, "leaf": 0.0339088403}, {"nodeid": 4, "leaf": -0.00241672038}]}, {"nodeid": 2, "depth": 1, "split": "hrRange", "split_condition": -0.397481591, "yes": 5, "no": 6, "missing": 6, "children": [{"nodeid": 5, "leaf": -0.0261275675}, {"nodeid": 6, "leaf": 0.0057249628}]}]}, {"nodeid": 0, "depth": 0, "split": "pnn20", "split_condition": 0.884051621, "yes": 1, "no": 2, "missing": 2, "children": [{"nodeid": 1, "depth": 1, "split": "pnn50", "split_condition": -0.136674583, "yes": 3, "no": 4, "missing": 4, "children": [{"nodeid": 3, "leaf": -0.006432903}, {"nodeid": 4, "leaf": 0.0146162082}]}, {"nodeid": 2, "depth": 1, "split": "rmssd", "split_condition": 0.857122302, "yes": 5, "no": 6, "missing": 6, "children": [{"nodeid": 5, "leaf": -0.0278152619}, {"nodeid": 6, "leaf": 0}]}]}, {"nodeid": 0, "depth": 0, "split": "pnn50", "split_condition": 1.22431111, "yes": 1, "no": 2, "missing": 2, "children": [{"nodeid": 1, "depth": 1, "split": "pnn50", "split_condition": -0.136674583, "yes": 3, "no": 4, "missing": 4, "children": [{"nodeid": 3, "leaf": -0.0016315222}, {"nodeid": 4, "leaf": 0.0191993974}]}, {"nodeid": 2, "depth": 1, "split": "dfaAlpha1", "split_condition": -0.837383866, "yes": 5, "no": 6, "missing": 6, "children": [{"nodeid": 5, "leaf": -0.0328568518}, {"nodeid": 6, "leaf": 0}]}]}, {"nodeid": 0, "depth": 0, "split": "pnn20", "split_condition": 0.884051621, "yes": 1, "no": 2, "missing": 2, "children": [{"nodeid": 1, "depth": 1, "split": "pnn50", "split_condition": -0.23002699, "yes": 3, "no": 4, "missing": 4, "children": [{"nodeid": 3, "leaf": -0.00371498219}, {"nodeid": 4, "leaf": 0.0182262864}]}, {"nodeid": 2, "depth": 1, "split": "sd1", "split_condition": 0.855384529, "yes": 5, "no": 6, "missing": 6, "children": [{"nodeid": 5, "leaf": -0.0250530336}, {"nodeid": 6, "leaf": 0}]}]}, {"nodeid": 0, "depth": 0, "split": "dfaAlpha1", "split_condition": 0.758663893, "yes": 1, "no": 2, "missing": 2, "children": [{"nodeid": 1, "depth": 1, "split": "sd1sd2Ratio", "split_condition": 0.832171738, "yes": 3, "no": 4, "missing": 4, "children": [{"nodeid": 3, "leaf": 0.0125008449}, {"nodeid": 4, "leaf": -0.0144636473}]}, {"nodeid": 2, "depth": 1, "split": "hrMean", "split_condition": 0.113595627, "yes": 5, "no": 6, "missing": 6, "children": [{"nodeid": 5, "leaf": 0}, {"nodeid": 6, "leaf": -0.0248435084}]}]}, {"nodeid": 0, "depth": 0, "split": "sd2", "split_condition": -0.0231812634, "yes": 1, "no": 2, "missing": 2, "children": [{"nodeid": 1, "depth": 1, "split": "sdnn", "split_condition": -1.09144354, "yes": 3, "no": 4, "missing": 4, "children": [{"nodeid": 3, "leaf": -0.00961493328}, {"nodeid": 4, "leaf": 0.0223325193}]}, {"nodeid": 2, "depth": 1, "split": "sdnn", "split_condition": 0.663247108, "yes": 5, "no": 6, "missing": 6, "children": [{"nodeid": 5, "leaf": -0.0255798995}, {"nodeid": 6, "leaf": 0.00328497286}]}]}, {"nodeid": 0, "depth": 0, "split": "meanRR", "split_condition": 0.868353069, "yes": 1, "no": 2, "missing": 2, "children": [{"nodeid": 1, "depth": 1, "split": "meanRR", "split_condition": -1.44355774, "yes": 3, "no": 4, "missing": 4, "children": [{"nodeid": 3, "leaf": -0.0178208612}, {"nodeid": 4, "leaf": 0.0144492313}]}, {"nodeid": 2, "depth": 1, "split": "dfaAlpha1", "split_condition": -0.320809871, "yes": 5, "no": 6, "missing": 6, "children": [{"nodeid": 5, "leaf": 0.00307391305}, {"nodeid": 6, "leaf": -0.0261413809}]}]}, {"nodeid": 0, "depth": 0, "split": "hrMean", "split_condition": -0.99311173, "yes": 1, "no": 2, "missing": 2, "children": [{"nodeid": 1, "depth": 1, "split": "cvRR", "split_condition": 1.08472407, "yes": 3, "no": 4, "missing": 4, "children": [{"nodeid": 3, "leaf": -0.0269908495}, {"nodeid": 4, "leaf": 0}]}, {"nodeid": 2, "depth": 1, "split": "cvRR", "split_condition": -0.311804771, "yes": 5, "no": 6, "missing": 6, "children": [{"nodeid": 5, "leaf": 0.0256506689}, {"nodeid": 6, "leaf": -0.00235177809}]}]}, {"nodeid": 0, "depth": 0, "split": "sd2", "split_condition": 0.0692960247, "yes": 1, "no": 2, "missing": 2, "children": [{"nodeid": 1, "depth": 1, "split": "hrMean", "split_condition": -0.99311173, "yes": 3, "no": 4, "missing": 4, "children": [{"nodeid": 3, "leaf": -0.0156674515}, {"nodeid": 4, "leaf": 0.0156159298}]}, {"nodeid": 2, "depth": 1, "split": "meanRR", "split_condition": -0.783708394, "yes": 5, "no": 6, "missing": 6, "children": [{"nodeid": 5, "leaf": 0.0131281735}, {"nodeid": 6, "leaf": -0.0210303627}]}]}, {"nodeid": 0, "depth": 0, "split": "hrStd", "split_condition": 1.0663954, "yes": 1, "no": 2, "missing": 2, "children": [{"nodeid": 1, "depth": 1, "split": "hrStd", "split_condition": -0.996296525, "yes": 3, "no": 4, "missing": 4, "children": [{"nodeid": 3, "leaf": -0.0118941581}, {"nodeid": 4, "leaf": 0.00982084405}]}, {"nodeid": 2, "depth": 1, "split": "dfaAlpha1", "split_condition": 0.356457919, "yes": 5, "no": 6, "missing": 6, "children": [{"nodeid": 5, "leaf": -0.0261230264}, {"nodeid": 6, "leaf": 0}]}]}, {"nodeid": 0, "depth": 0, "split": "dfaAlpha1", "split_condition": -0.478487134, "yes": 1, "no": 2, "missing": 2, "children": [{"nodeid": 1, "depth": 1, "split": "dfaAlpha1", "split_condition": -0.918586552, "yes": 3, "no": 4, "missing": 4, "children": [{"nodeid": 3, "leaf": -0.00361313415}, {"nodeid": 4, "leaf": 0.0307832099}]}, {"nodeid": 2, "depth": 1, "split": "hrMean", "split_condition": 0.854760766, "yes": 5, "no": 6, "missing": 6, "children": [{"nodeid": 5, "leaf": -0.0150536075}, {"nodeid": 6, "leaf": 0.00674041314}]}]}, {"nodeid": 0, "depth": 0, "split": "hrMean", "split_condition": -1.09927428, "yes": 1, "no": 2, "missing": 2, "children": [{"nodeid": 1, "depth": 1, "split": "dfaAlpha1", "split_condition": -0.320809871, "yes": 3, "no": 4, "missing": 4, "children": [{"nodeid": 3, "leaf": 0}, {"nodeid": 4, "leaf": -0.0277255718}]}, {"nodeid": 2, "depth": 1, "split": "hrMean", "split_condition": -0.0772350281, "yes": 5, "no": 6, "missing": 6, "children": [{"nodeid": 5, "leaf": 0.0129634682}, {"nodeid": 6, "leaf": -0.00482080504}]}]}, {"nodeid": 0, "depth": 0, "split": "pnn50", "split_condition": 0.181091994, "yes": 1, "no": 2, "missing": 2, "children": [{"nodeid": 1, "depth": 1, "split": "dfaAlpha1", "split_condition": -0.473200589, "yes": 3, "no": 4, "missing": 4, "children": [{"nodeid": 3, "leaf": 0.0112259565}, {"nodeid": 4, "leaf": -0.0173606556}]}, {"nodeid": 2, "depth": 1, "split": "pnn50", "split_condition": 1.22431111, "yes": 5, "no": 6, "missing": 6, "children": [{"nodeid": 5, "leaf": 0.0247726142}, {"nodeid": 6, "leaf": -0.00630011363}]}]}, {"nodeid": 0, "depth": 0, "split": "dfaAlpha1", "split_condition": 1.15639091, "yes": 1, "no": 2, "missing": 2, "children": [{"nodeid": 1, "depth": 1, "split": "sd2", "split_condition": 1.07716787, "yes": 3, "no": 4, "missing": 4, "children": [{"nodeid": 3, "leaf": 0.0130457478}, {"nodeid": 4, "leaf": -0.00971456058}]}, {"nodeid": 2, "depth": 1, "split": "sampleEntropy", "split_condition": 0.330043733, "yes": 5, "no": 6, "missing": 6, "children": [{"nodeid": 5, "leaf": -0.0177424084}, {"nodeid": 6, "leaf": 0}]}]}, {"nodeid": 0, "depth": 0, "split": "pnn50", "split_condition": -0.841872633, "yes": 1, "no": 2, "missing": 2, "children": [{"nodeid": 1, "depth": 1, "split": "meanRR", "split_condition": 0.650093198, "yes": 3, "no": 4, "missing": 4, "children": [{"nodeid": 3, "leaf": 0}, {"nodeid": 4, "leaf": -0.0315063596}]}, {"nodeid": 2, "depth": 1, "split": "hrRange", "split_condition": 1.30900335, "yes": 5, "no": 6, "missing": 6, "children": [{"nodeid": 5, "leaf": 0.00973116886}, {"nodeid": 6, "leaf": -0.0200267136}]}]}, {"nodeid": 0, "depth": 0, "split": "hrRange", "split_condition": 0.368911952, "yes": 1, "no": 2, "missing": 2, "children": [{"nodeid": 1, "depth": 1, "split": "pnn50", "split_condition": -0.136674583, "yes": 3, "no": 4, "missing": 4, "children": [{"nodeid": 3, "leaf": -0.00166993309}, {"nodeid": 4, "leaf": 0.0241304208}]}, {"nodeid": 2, "depth": 1, "split": "hrMean", "split_condition": 0.455866992, "yes": 5, "no": 6, "missing": 6, "children": [{"nodeid": 5, "leaf": -0.0325296111}, {"nodeid": 6, "leaf": 0.00471521495}]}]}, {"nodeid": 0, "depth": 0, "split": "sd1sd2Ratio", "split_condition": 0.832171738, "yes": 1, "no": 2, "missing": 2, "children": [{"nodeid": 1, "depth": 1, "split": "pnn20", "split_condition": 0.0137978541, "yes": 3, "no": 4, "missing": 4, "children": [{"nodeid": 3, "leaf": -0.00493758451}, {"nodeid": 4, "leaf": 0.0179556739}]}, {"nodeid": 2, "depth": 1, "split": "sd2", "split_condition": -0.569630146, "yes": 5, "no": 6, "missing": 6, "children": [{"nodeid": 5, "leaf": 0}, {"nodeid": 6, "leaf": -0.0250288993}]}]}, {"nodeid": 0, "depth": 0, "split": "hrRange", "split_condition": -0.841523647, "yes": 1, "no": 2, "missing": 2, "children": [{"nodeid": 1, "depth": 1, "split": "rmssd", "split_condition": -1.33662057, "yes": 3, "no": 4, "missing": 4, "children": [{"nodeid": 3, "leaf": 0.00807127636}, {"nodeid": 4, "leaf": -0.0261017065}]}, {"nodeid": 2, "depth": 1, "split": "hrRange", "split_condition": 1.3133049, "yes": 5, "no": 6, "missing": 6, "children": [{"nodeid": 5, "leaf": 0.00643823668}, {"nodeid": 6, "leaf": -0.0175104905}]}]}, {"nodeid": 0, "depth": 0, "split": "hrRange", "split_condition": 1.3133049, "yes": 1, "no": 2, "missing": 2, "children": [{"nodeid": 1, "depth": 1, "split": "sd2", "split_condition": -1.11917996, "yes": 3, "no": 4, "missing": 4, "children": [{"nodeid": 3, "leaf": -0.0181332901}, {"nodeid": 4, "leaf": 0.00567141315}]}, {"nodeid": 2, "leaf": -0.0242621582}]}, {"nodeid": 0, "depth": 0, "split": "hrRange", "split_condition": -1.0776118, "yes": 1, "no": 2, "missing": 2, "children": [{"nodeid": 1, "leaf": -0.019981062}, {"nodeid": 2, "depth": 1, "split": "hrRange", "split_condition": 0.368911952, "yes": 3, "no": 4, "missing": 4, "children": [{"nodeid": 3, "leaf": 0.014689669}, {"nodeid": 4, "leaf": -0.00858181994}]}]}, {"nodeid": 0, "depth": 0, "split": "meanRR", "split_condition": 1.25040209, "yes": 1, "no": 2, "missing": 2, "children": [{"nodeid": 1, "depth": 1, "split": "meanRR", "split_condition": 0.00697685033, "yes": 3, "no": 4, "missing": 4, "children": [{"nodeid": 3, "leaf": -0.00507636135}, {"nodeid": 4, "leaf": 0.0127907423}]}, {"nodeid": 2, "depth": 1, "split": "sd2", "split_condition": 1.33027852, "yes": 5, "no": 6, "missing": 6, "children": [{"nodeid": 5, "leaf": -0.0215113889}, {"nodeid": 6, "leaf": 0}]}]}, {"nodeid": 0, "depth": 0, "split": "cvRR", "split_condition": -0.311804771, "yes": 1, "no": 2, "missing": 2, "children": [{"nodeid": 1, "depth": 1, "split": "sd2", "split_condition": -1.11917996, "yes": 3, "no": 4, "missing": 4, "children": [{"nodeid": 3, "leaf": -0.0114799365}, {"nodeid": 4, "leaf": 0.0196117666}]}, {"nodeid": 2, "depth": 1, "split": "meanRR", "split_condition": -0.759709001, "yes": 5, "no": 6, "missing": 6, "children": [{"nodeid": 5, "leaf": 0.00498864986}, {"nodeid": 6, "leaf": -0.0188072994}]}]}, {"nodeid": 0, "depth": 0, "split": "cvRR", "split_condition": -0.311804771, "yes": 1, "no": 2, "missing": 2, "children": [{"nodeid": 1, "depth": 1, "split": "hrStd", "split_condition": -0.724198818, "yes": 3, "no": 4, "missing": 4, "children": [{"nodeid": 3, "leaf": -0.00572020607}, {"nodeid": 4, "leaf": 0.0286242049}]}, {"nodeid": 2, "depth": 1, "split": "pnn20", "split_condition": 0.247852147, "yes": 5, "no": 6, "missing": 6, "children": [{"nodeid": 5, "leaf": -0.0227981005}, {"nodeid": 6, "leaf": 0.000335734978}]}]}, {"nodeid": 0, "depth": 0, "split": "hrMean", "split_condition": -1.24134517, "yes": 1, "no": 2, "missing": 2, "children": [{"nodeid": 1, "leaf": -0.0206898712}, {"nodeid": 2, "depth": 1, "split": "hrMean", "split_condition": 1.53447914, "yes": 3, "no": 4, "missing": 4, "children": [{"nodeid": 3, "leaf": 0.0040124082}, {"nodeid": 4, "leaf": -0.0222325679}]}]}, {"nodeid": 0, "depth": 0, "split": "pnn20", "split_condition": 1.25405788, "yes": 1, "no": 2, "missing": 2, "children": [{"nodeid": 1, "depth": 1, "split": "hrStd", "split_condition": 1.3350333, "yes": 3, "no": 4, "missing": 4, "children": [{"nodeid": 3, "leaf": 0.0108937258}, {"nodeid": 4, "leaf": -0.0186083298}]}, {"nodeid": 2, "leaf": -0.0208714623}]}, {"nodeid": 0, "depth": 0, "split": "rmssd", "split_condition": 0.857122302, "yes": 1, "no": 2, "missing": 2, "children": [{"nodeid": 1, "depth": 1, "split": "rmssd", "split_condition": -0.410322368, "yes": 3, "no": 4, "missing": 4, "children": [{"nodeid": 3, "leaf": 0}, {"nodeid": 4, "leaf": -0.0202165674}]}, {"nodeid": 2, "depth": 1, "split": "rmssd", "split_condition": 1.51338875, "yes": 5, "no": 6, "missing": 6, "children": [{"nodeid": 5, "leaf": 0.0290065464}, {"nodeid": 6, "leaf": -0.00767198671}]}]}, {"nodeid": 0, "depth": 0, "split": "hrStd", "split_condition": 1.0663954, "yes": 1, "no": 2, "missing": 2, "children": [{"nodeid": 1, "depth": 1, "split": "pnn50", "split_condition": -0.288845867, "yes": 3, "no": 4, "missing": 4, "children": [{"nodeid": 3, "leaf": -0.00716256723}, {"nodeid": 4, "leaf": 0.0139509905}]}, {"nodeid": 2, "depth": 1, "split": "pnn50", "split_condition": 1.44736183, "yes": 5, "no": 6, "missing": 6, "children": [{"nodeid": 5, "leaf": -0.022406904}, {"nodeid": 6, "leaf": 0.00297313975}]}]}, {"nodeid": 0, "depth": 0, "split": "sd2", "split_condition": 1.05697429, "yes": 1, "no": 2, "missing": 2, "children": [{"nodeid": 1, "depth": 1, "split": "dfaAlpha1", "split_condition": 1.15639091, "yes": 3, "no": 4, "missing": 4, "children": [{"nodeid": 3, "leaf": 0.0125946505}, {"nodeid": 4, "leaf": -0.00975262187}]}, {"nodeid": 2, "depth": 1, "split": "sd2", "split_condition": 1.7192173, "yes": 5, "no": 6, "missing": 6, "children": [{"nodeid": 5, "leaf": -0.0234855767}, {"nodeid": 6, "leaf": 0.000338603131}]}]}, {"nodeid": 0, "depth": 0, "split": "pnn50", "split_condition": -0.23002699, "yes": 1, "no": 2, "missing": 2, "children": [{"nodeid": 1, "depth": 1, "split": "rmssd", "split_condition": -0.430090815, "yes": 3, "no": 4, "missing": 4, "children": [{"nodeid": 3, "leaf": 0}, {"nodeid": 4, "leaf": -0.0257452019}]}, {"nodeid": 2, "depth": 1, "split": "pnn50", "split_condition": 1.22431111, "yes": 5, "no": 6, "missing": 6, "children": [{"nodeid": 5, "leaf": 0.0194402859}, {"nodeid": 6, "leaf": -0.0144906715}]}]}, {"nodeid": 0, "depth": 0, "split": "hrMean", "split_condition": -0.115664572, "yes": 1, "no": 2, "missing": 2, "children": [{"nodeid": 1, "depth": 1, "split": "meanRR", "split_condition": 0.665531516, "yes": 3, "no": 4, "missing": 4, "children": [{"nodeid": 3, "leaf": 0.0205636509}, {"nodeid": 4, "leaf": -0.00923894625}]}, {"nodeid": 2, "depth": 1, "split": "hrMean", "split_condition": 0.455866992, "yes": 5, "no": 6, "missing": 6, "children": [{"nodeid": 5, "leaf": -0.0333071724}, {"nodeid": 6, "leaf": 0}]}]}, {"nodeid": 0, "depth": 0, "split": "pnn50", "split_condition": 0.489328593, "yes": 1, "no": 2, "missing": 2, "children": [{"nodeid": 1, "depth": 1, "split": "sd2", "split_condition": 0.0692960247, "yes": 3, "no": 4, "missing": 4, "children": [{"nodeid": 3, "leaf": 0.00093187805}, {"nodeid": 4, "leaf": -0.024773594}]}, {"nodeid": 2, "depth": 1, "split": "dfaAlpha1", "split_condition": -0.708993673, "yes": 5, "no": 6, "missing": 6, "children": [{"nodeid": 5, "leaf": -0.00785327796}, {"nodeid": 6, "leaf": 0.0249837264}]}]}, {"nodeid": 0, "depth": 0, "split": "meanRR", "split_condition": 0.868353069, "yes": 1, "no": 2, "missing": 2, "children": [{"nodeid": 1, "depth": 1, "split": "meanRR", "split_condition": -0.238119543, "yes": 3, "no": 4, "missing": 4, "children": [{"nodeid": 3, "leaf": -0.00706700981}, {"nodeid": 4, "leaf": 0.0208897293}]}, {"nodeid": 2, "depth": 1, "split": "sampleEntropy", "split_condition": -0.081603013, "yes": 5, "no": 6, "missing": 6, "children": [{"nodeid": 5, "leaf": -0.0218178742}, {"nodeid": 6, "leaf": 0}]}]}, {"nodeid": 0, "depth": 0, "split": "pnn20", "split_condition": 1.25405788, "yes": 1, "no": 2, "missing": 2, "children": [{"nodeid": 1, "depth": 1, "split": "hrStd", "split_condition": 1.3350333, "yes": 3, "no": 4, "missing": 4, "children": [{"nodeid": 3, "leaf": 0.00991511345}, {"nodeid": 4, "leaf": -0.0185658}]}, {"nodeid": 2, "depth": 1, "split": "meanRR", "split_condition": -0.578601182, "yes": 5, "no": 6, "missing": 6, "children": [{"nodeid": 5, "leaf": 0}, {"nodeid": 6, "leaf": -0.0286909994}]}]}, {"nodeid": 0, "depth": 0, "split": "pnn20", "split_condition": 1.25405788, "yes": 1, "no": 2, "missing": 2, "children": [{"nodeid": 1, "depth": 1, "split": "sd2", "split_condition": -0.00457960973, "yes": 3, "no": 4, "missing": 4, "children": [{"nodeid": 3, "leaf": 0.0169457477}, {"nodeid": 4, "leaf": -0.00059016695}]}, {"nodeid": 2, "depth": 1, "split": "meanRR", "split_condition": -0.578601182, "yes": 5, "no": 6, "missing": 6, "children": [{"nodeid": 5, "leaf": 0}, {"nodeid": 6, "leaf": -0.025617538}]}]}, {"nodeid": 0, "depth": 0, "split": "sampleEntropy", "split_condition": -0.593757689, "yes": 1, "no": 2, "missing": 2, "children": [{"nodeid": 1, "depth": 1, "split": "sd2", "split_condition": -0.649501741, "yes": 3, "no": 4, "missing": 4, "children": [{"nodeid": 3, "leaf": 0}, {"nodeid": 4, "leaf": -0.0203609187}]}, {"nodeid": 2, "depth": 1, "split": "hrStd", "split_condition": -0.112195775, "yes": 5, "no": 6, "missing": 6, "children": [{"nodeid": 5, "leaf": -0.0030130439}, {"nodeid": 6, "leaf": 0.0181309469}]}]}, {"nodeid": 0, "depth": 0, "split": "rmssd", "split_condition": 0.857122302, "yes": 1, "no": 2, "missing": 2, "children": [{"nodeid": 1, "depth": 1, "split": "cvRR", "split_condition": -0.263695896, "yes": 3, "no": 4, "missing": 4, "children": [{"nodeid": 3, "leaf": 0.00398155814}, {"nodeid": 4, "leaf": -0.0152812889}]}, {"nodeid": 2, "depth": 1, "split": "sd1sd2Ratio", "split_condition": 1.08589268, "yes": 5, "no": 6, "missing": 6, "children": [{"nodeid": 5, "leaf": 0.0249279868}, {"nodeid": 6, "leaf": -0.00353693892}]}]}, {"nodeid": 0, "depth": 0, "split": "hrMean", "split_condition": 0.864917755, "yes": 1, "no": 2, "missing": 2, "children": [{"nodeid": 1, "depth": 1, "split": "pnn20", "split_condition": 1.25405788, "yes": 3, "no": 4, "missing": 4, "children": [{"nodeid": 3, "leaf": -0.0050471616}, {"nodeid": 4, "leaf": -0.0272794403}]}, {"nodeid": 2, "depth": 1, "split": "meanRR", "split_condition": -1.56480849, "yes": 5, "no": 6, "missing": 6, "children": [{"nodeid": 5, "leaf": -0.0152240517}, {"nodeid": 6, "leaf": 0.0235065129}]}]}, {"nodeid": 0, "depth": 0, "split": "hrMean", "split_condition": -0.781401515, "yes": 1, "no": 2, "missing": 2, "children": [{"nodeid": 1, "depth": 1, "split": "dfaAlpha1", "split_condition": -0.513170779, "yes": 3, "no": 4, "missing": 4, "children": [{"nodeid": 3, "leaf": 0.0051116515}, {"nodeid": 4, "leaf": -0.0212921873}]}, {"nodeid": 2, "depth": 1, "split": "hrStd", "split_condition": 1.04110765, "yes": 5, "no": 6, "missing": 6, "children": [{"nodeid": 5, "leaf": 0.0164691471}, {"nodeid": 6, "leaf": -0.0108041214}]}]}, {"nodeid": 0, "depth": 0, "split": "hrMean", "split_condition": -0.0772350281, "yes": 1, "no": 2, "missing": 2, "children": [{"nodeid": 1, "depth": 1, "split": "hrMean", "split_condition": -1.24134517, "yes": 3, "no": 4, "missing": 4, "children": [{"nodeid": 3, "leaf": -0.0146524236}, {"nodeid": 4, "leaf": 0.0155517478}]}, {"nodeid": 2, "depth": 1, "split": "hrMean", "split_condition": 0.465112805, "yes": 5, "no": 6, "missing": 6, "children": [{"nodeid": 5, "leaf": -0.023835456}, {"nodeid": 6, "leaf": 0}]}]}, {"nodeid": 0, "depth": 0, "split": "hrStd", "split_condition": 1.0663954, "yes": 1, "no": 2, "missing": 2, "children": [{"nodeid": 1, "depth": 1, "split": "hrStd", "split_condition": -0.0115815569, "yes": 3, "no": 4, "missing": 4, "children": [{"nodeid": 3, "leaf": -0.00521139242}, {"nodeid": 4, "leaf": 0.0201138314}]}, {"nodeid": 2, "depth": 1, "split": "cvRR", "split_condition": 1.7337743, "yes": 5, "no": 6, "missing": 6, "children": [{"nodeid": 5, "leaf": -0.0211103465}, {"nodeid": 6, "leaf": 0}]}]}, {"nodeid": 0, "depth": 0, "split": "sdnn", "split_condition": -1.2370137, "yes": 1, "no": 2, "missing": 2, "children": [{"nodeid": 1, "leaf": -0.0202804673}, {"nodeid": 2, "depth": 1, "split": "pnn20", "split_condition": 0.749557078, "yes": 3, "no": 4, "missing": 4, "children": [{"nodeid": 3, "leaf": 0.00926590431}, {"nodeid": 4, "leaf": -0.0144072687}]}]}, {"nodeid": 0, "depth": 0, "split": "hrRange", "split_condition": -0.841523647, "yes": 1, "no": 2, "missing": 2, "children": [{"nodeid": 1, "depth": 1, "split": "dfaAlpha1", "split_condition": -0.541603565, "yes": 3, "no": 4, "missing": 4, "children": [{"nodeid": 3, "leaf": 0.00420070346}, {"nodeid": 4, "leaf": -0.0184867829}]}, {"nodeid": 2, "depth": 1, "split": "dfaAlpha1", "split_condition": -0.918586552, "yes": 5, "no": 6, "missing": 6, "children": [{"nodeid": 5, "leaf": -0.0162038859}, {"nodeid": 6, "leaf": 0.0126009583}]}]}, {"nodeid": 0, "depth": 0, "split": "hrStd", "split_condition": 1.19899654, "yes": 1, "no": 2, "missing": 2, "children": [{"nodeid": 1, "depth": 1, "split": "sd2", "split_condition": -1.17501557, "yes": 3, "no": 4, "missing": 4, "children": [{"nodeid": 3, "leaf": -0.0126230894}, {"nodeid": 4, "leaf": 0.0118109426}]}, {"nodeid": 