{
  "version": "1.0.0",
  "modelType": "xgboost_binary_classifier",
  "task": "depression_risk",
  "applySigmoid": true,
  "features": [
    "mean_activity",
    "std_activity",
    "median_activity",
    "max_activity",
    "min_activity",
    "activity_range",
    "activity_cv",
    "p10",
    "p25",
    "p50",
    "p75",
    "p90",
    "inactive_minutes",
    "active_minutes",
    "very_active_minutes",
    "day_mean",
    "night_mean",
    "day_night_ratio",
    "longest_rest_period",
    "rest_period_count",
    "activity_entropy",
    "gender",
    "days",
    "age_num"
  ],
  "numFeatures": 24,
  "numTrees": 200,
  "baseScore": -0.601410849560669,
  "learningRate": 0.05,
  "normalization": {
    "mean": {
      "mean_activity": 0.0,
      "std_activity": 0.0,
      "median_activity": 0.0,
      "max_activity": 0.0,
      "min_activity": 0.0,
      "activity_range": 0.0,
      "activity_cv": 0.0,
      "p10": 0.0,
      "p25": 0.0,
      "p50": 0.0,
      "p75": 0.0,
      "p90": 0.0,
      "inactive_minutes": 0.0,
      "active_minutes": 0.0,
      "very_active_minutes": 0.0,
      "day_mean": 0.0,
      "night_mean": 0.0,
      "day_night_ratio": 0.0,
      "longest_rest_period": 0.0,
      "rest_period_count": 0.0,
      "activity_entropy": 0.0,
      "gender": 0.0,
      "days": 0.0,
      "age_num": 0.0
    },
    "std": {
      "mean_activity": 1.0,
      "std_activity": 1.0,
      "median_activity": 1.0,
      "max_activity": 1.0,
      "min_activity": 1.0,
      "activity_range": 1.0,
      "activity_cv": 1.0,
      "p10": 1.0,
      "p25": 1.0,
      "p50": 1.0,
      "p75": 1.0,
      "p90": 1.0,
      "inactive_minutes": 1.0,
      "active_minutes": 1.0,
      "very_active_minutes": 1.0,
      "day_mean": 1.0,
      "night_mean": 1.0,
      "day_night_ratio": 1.0,
      "longest_rest_period": 1.0,
      "rest_period_count": 1.0,
      "activity_entropy": 1.0,
      "gender": 1.0,
      "days": 1.0,
      "age_num": 1.0
    }
  },
  "decisionThreshold": 0.4,
  "metrics": {
    "cv_accuracy": 0.9231,
    "cv_precision": 0.8729,
    "cv_recall": 0.916,
    "cv_f1": 0.894,
    "cv_auc_roc": 0.966
  },
  "importances": {
    "mean_activity": 0.048299,
    "std_activity": 0.030895,
    "median_activity": 0.049122,
    "max_activity": 0.022428,
    "min_activity": 0.064306,
    "activity_range": 0.0,
    "activity_cv": 0.034504,
    "p10": 0.012287,
    "p25": 0.050856,
    "p50": 0.0,
    "p75": 0.021377,
    "p90": 0.017124,
    "inactive_minutes": 0.034022,
    "active_minutes": 0.01352,
    "very_active_minutes": 0.126492,
    "day_mean": 0.051847,
    "night_mean": 0.043399,
    "day_night_ratio": 0.026904,
    "longest_rest_period": 0.04038,
    "rest_period_count": 0.110479,
    "activity_entropy": 0.019935,
    "gender": 0.061946,
    "days": 0.066659,
    "age_num": 0.053219
  },
  "riskLevels": {
    "minimal": {
      "min": 0,
      "max": 30,
      "label": "Minimal",
      "color": "#35e27e"
    },
    "mild": {
      "min": 30,
      "max": 50,
      "label": "Mild",
      "color": "#9B8EC4"
    },
    "moderate": {
      "min": 50,
      "max": 70,
      "label": "Moderate",
      "color": "#E8A87C"
    },
    "high": {
      "min": 70,
      "max": 100,
      "label": "High",
      "color": "#C4897B"
    }
  },
  "trees": [
    {
      "nodeid": 0,
      "depth": 0,
      "split": "rest_period_count",
      "split_condition": 101,
      "yes": 1,
      "no": 2,
      "missing": 2,
      "children": [
        {
          "nodeid": 1,
          "depth": 1,
          "split": "days",
          "split_condition": 14,
          "yes": 3,
          "no": 4,
          "missing": 4,
          "children": [
            {
              "nodeid": 3,
              "depth": 2,
              "split": "days",
              "split_condition": 8,
              "yes": 7,
              "no": 8,
              "missing": 8,
              "children": [
                {
                  "nodeid": 7,
                  "leaf": 0.105685726
                },
                {
                  "nodeid": 8,
                  "depth": 3,
                  "split": "day_night_ratio",
                  "split_condition": 6.33201075,
                  "yes": 13,
                  "no": 14,
                  "missing": 14,
                  "children": [
                    {
                      "nodeid": 13,
                      "leaf": -0.0549105294
                    },
                    {
                      "nodeid": 14,
                      "leaf": -0.00737228384
                    }
                  ]
                }
              ]
            },
            {
              "nodeid": 4,
              "depth": 2,
              "split": "days",
              "split_condition": 20,
              "yes": 9,
              "no": 10,
              "missing": 10,
              "children": [
                {
                  "nodeid": 9,
                  "depth": 3,
                  "split": "days",
                  "split_condition": 16,
                  "yes": 15,
                  "no": 16,
                  "missing": 16,
                  "children": [
                    {
                      "nodeid": 15,
                      "leaf": 0.00830919296
                    },
                    {
                      "nodeid": 16,
                      "leaf": 0.110710874
                    }
                  ]
                },
                {
                  "nodeid": 10,
                  "leaf": -0.0645682737
                }
              ]
            }
          ]
        },
        {
          "nodeid": 2,
          "depth": 1,
          "split": "very_active_minutes",
          "split_condition": 84,
          "yes": 5,
          "no": 6,
          "missing": 6,
          "children": [
            {
              "nodeid": 5,
              "leaf": 0.131553084
            },
            {
              "nodeid": 6,
              "depth": 2,
              "split": "age_num",
              "split_condition": 37,
              "yes": 11,
              "no": 12,
              "missing": 12,
              "children": [
                {
                  "nodeid": 11,
                  "depth": 3,
                  "split": "days",
                  "split_condition": 16,
                  "yes": 17,
                  "no": 18,
                  "missing": 18,
                  "children": [
                    {
                      "nodeid": 17,
                      "leaf": -0.0263312794
                    },
                    {
                      "nodeid": 18,
                      "leaf": 0.0868384391
                    }
                  ]
                },
                {
                  "nodeid": 12,
                  "depth": 3,
                  "split": "night_mean",
                  "split_condition": 85.7129593,
                  "yes": 19,
                  "no": 20,
                  "missing": 20,
                  "children": [
                    {
                      "nodeid": 19,
                      "leaf": 0.0723341852
                    },
                    {
                      "nodeid": 20,
                      "leaf": 0.00223859004
                    }
                  ]
                }
              ]
            }
          ]
        }
      ]
    },
    {
      "nodeid": 0,
      "depth": 0,
      "split": "rest_period_count",
      "split_condition": 93,
      "yes": 1,
      "no": 2,
      "missing": 2,
      "children": [
        {
          "nodeid": 1,
          "depth": 1,
          "split": "days",
          "split_condition": 16,
          "yes": 3,
          "no": 4,
          "missing": 4,
          "children": [
            {
              "nodeid": 3,
              "depth": 2,
              "split": "longest_rest_period",
              "split_condition": 727,
              "yes": 7,
              "no": 8,
              "missing": 8,
              "children": [
                {
                  "nodeid": 7,
                  "depth": 3,
                  "split": "very_active_minutes",
                  "split_condition": 133,
                  "yes": 13,
                  "no": 14,
                  "missing": 14,
                  "children": [
                    {
                      "nodeid": 13,
                      "leaf": 0.0161222201
                    },
                    {
                      "nodeid": 14,
                      "leaf": -0.0456070565
                    }
                  ]
                },
                {
                  "nodeid": 8,
                  "depth": 3,
                  "split": "max_activity",
                  "split_condition": 1341,
                  "yes": 15,
                  "no": 16,
                  "missing": 16,
                  "children": [
                    {
                      "nodeid": 15,
                      "leaf": -0.0709959865
                    },
                    {
                      "nodeid": 16,
                      "leaf": -0.0259875804
                    }
                  ]
                }
              ]
            },
            {
              "nodeid": 4,
              "depth": 2,
              "split": "days",
              "split_condition": 20,
              "yes": 9,
              "no": 10,
              "missing": 10,
              "children": [
                {
                  "nodeid": 9,
                  "depth": 3,
                  "split": "inactive_minutes",
                  "split_condition": 397,
                  "yes": 17,
                  "no": 18,
                  "missing": 18,
                  "children": [
                    {
                      "nodeid": 17,
                      "leaf": -0.000655788754
                    },
                    {
                      "nodeid": 18,
                      "leaf": 0.119840376
                    }
                  ]
                },
                {
                  "nodeid": 10,
                  "leaf": -0.061298877
                }
              ]
            }
          ]
        },
        {
          "nodeid": 2,
          "depth": 1,
          "split": "very_active_minutes",
          "split_condition": 84,
          "yes": 5,
          "no": 6,
          "missing": 6,
          "children": [
            {
              "nodeid": 5,
              "leaf": 0.117974639
            },
            {
              "nodeid": 6,
              "depth": 2,
              "split": "median_activity",
              "split_condition": 73,
              "yes": 11,
              "no": 12,
              "missing": 12,
              "children": [
                {
                  "nodeid": 11,
                  "depth": 3,
                  "split": "age_num",
                  "split_condition": 37,
                  "yes": 19,
                  "no": 20,
                  "missing": 20,
                  "children": [
                    {
                      "nodeid": 19,
                      "leaf": 0.00325315562
                    },
                    {
                      "nodeid": 20,
                      "leaf": 0.0621311776
                    }
                  ]
                },
                {
                  "nodeid": 12,
                  "depth": 3,
                  "split": "day_night_ratio",
                  "split_condition": 4.30561876,
                  "yes": 21,
                  "no": 22,
                  "missing": 22,
                  "children": [
                    {
                      "nodeid": 21,
                      "leaf": -0.0386978351
                    },
                    {
                      "nodeid": 22,
                      "leaf": 0.0260786768
                    }
                  ]
                }
              ]
            }
          ]
        }
      ]
    },
    {
      "nodeid": 0,
      "depth": 0,
      "split": "rest_period_count",
      "split_condition": 93,
      "yes": 1,
      "no": 2,
      "missing": 2,
      "children": [
        {
          "nodeid": 1,
          "depth": 1,
          "split": "days",
          "split_condition": 16,
          "yes": 3,
          "no": 4,
          "missing": 4,
          "children": [
            {
              "nodeid": 3,
              "depth": 2,
              "split": "days",
              "split_condition": 8,
              "yes": 7,
              "no": 8,
              "missing": 8,
              "children": [
                {
                  "nodeid": 7,
                  "leaf": 0.0931310132
                },
                {
                  "nodeid": 8,
                  "depth": 3,
                  "split": "inactive_minutes",
                  "split_condition": 1297,
                  "yes": 13,
                  "no": 14,
                  "missing": 14,
                  "children": [
                    {
                      "nodeid": 13,
                      "leaf": -0.0258554369
                    },
                    {
                      "nodeid": 14,
                      "leaf": -0.0655147955
                    }
                  ]
                }
              ]
            },
            {
              "nodeid": 4,
              "depth": 2,
              "split": "days",
              "split_condition": 20,
              "yes": 9,
              "no": 10,
              "missing": 10,
              "children": [
                {
                  "nodeid": 9,
                  "depth": 3,
                  "split": "inactive_minutes",
                  "split_condition": 397,
                  "yes": 15,
                  "no": 16,
                  "missing": 16,
                  "children": [
                    {
                      "nodeid": 15,
                      "leaf": -0.000634434051
                    },
                    {
                      "nodeid": 16,
                      "leaf": 0.11169716
                    }
                  ]
                },
                {
                  "nodeid": 10,
                  "leaf": -0.0598259941
                }
              ]
            }
          ]
        },
        {
          "nodeid": 2,
          "depth": 1,
          "split": "very_active_minutes",
          "split_condition": 84,
          "yes": 5,
          "no": 6,
          "missing": 6,
          "children": [
            {
              "nodeid": 5,
              "leaf": 0.109688297
            },
            {
              "nodeid": 6,
              "depth": 2,
              "split": "median_activity",
              "split_condition": 73,
              "yes": 11,
              "no": 12,
              "missing": 12,
              "children": [
                {
                  "nodeid": 11,
                  "depth": 3,
                  "split": "days",
                  "split_condition": 16,
                  "yes": 17,
                  "no": 18,
                  "missing": 18,
                  "children": [
                    {
                      "nodeid": 17,
                      "leaf": 0.0269104037
                    },
                    {
                      "nodeid": 18,
                      "leaf": 0.107386112
                    }
                  ]
                },
                {
                  "nodeid": 12,
                  "depth": 3,
                  "split": "activity_cv",
                  "split_condition": 1.39840794,
                  "yes": 19,
                  "no": 20,
                  "missing": 20,
                  "children": [
                    {
                      "nodeid": 19,
                      "leaf": 0.00865961798
                    },
                    {
                      "nodeid": 20,
                      "leaf": -0.0494651608
                    }
                  ]
                }
              ]
            }
          ]
        }
      ]
    },
    {
      "nodeid": 0,
      "depth": 0,
      "split": "rest_period_count",
      "split_condition": 93,
      "yes": 1,
      "no": 2,
      "missing": 2,
      "children": [
        {
          "nodeid": 1,
          "depth": 1,
          "split": "days",
          "split_condition": 14,
          "yes": 3,
          "no": 4,
          "missing": 4,
          "children": [
            {
              "nodeid": 3,
              "depth": 2,
              "split": "days",
              "split_condition": 8,
              "yes": 7,
              "no": 8,
              "missing": 8,
              "children": [
                {
                  "nodeid": 7,
                  "leaf": 0.088517122
                },
                {
                  "nodeid": 8,
                  "depth": 3,
                  "split": "day_night_ratio",
                  "split_condition": 6.33201075,
                  "yes": 15,
                  "no": 16,
                  "missing": 16,
                  "children": [
                    {
                      "nodeid": 15,
                      "leaf": -0.0518059693
                    },
                    {
                      "nodeid": 16,
                      "leaf": -0.0081996657
                    }
                  ]
                }
              ]
            },
            {
              "nodeid": 4,
              "depth": 2,
              "split": "days",
              "split_condition": 20,
              "yes": 9,
              "no": 10,
              "missing": 10,
              "children": [
                {
                  "nodeid": 9,
                  "depth": 3,
                  "split": "day_mean",
                  "split_condition": 0.0211111102,
                  "yes": 17,
                  "no": 18,
                  "missing": 18,
                  "children": [
                    {
                      "nodeid": 17,
                      "leaf": -0.0446721613
                    },
                    {
                      "nodeid": 18,
                      "leaf": 0.066116266
                    }
                  ]
                },
                {
                  "nodeid": 10,
                  "leaf": -0.0584471598
                }
              ]
            }
          ]
        },
        {
          "nodeid": 2,
          "depth": 1,
          "split": "very_active_minutes",
          "split_condition": 84,
          "yes": 5,
          "no": 6,
          "missing": 6,
          "children": [
            {
              "nodeid": 5,
              "depth": 2,
              "split": "rest_period_count",
              "split_condition": 98,
              "yes": 11,
              "no": 12,
              "missing": 12,
              "children": [
                {
                  "nodeid": 11,
                  "leaf": 0.0392311476
                },
                {
                  "nodeid": 12,
                  "leaf": 0.105981149
                }
              ]
            },
            {
              "nodeid": 6,
              "depth": 2,
              "split": "median_activity",
              "split_condition": 73,
              "yes": 13,
              "no": 14,
              "missing": 14,
              "children": [
                {
                  "nodeid": 13,
                  "depth": 3,
                  "split": "age_num",
                  "split_condition": 37,
                  "yes": 19,
                  "no": 20,
                  "missing": 20,
                  "children": [
                    {
                      "nodeid": 19,
                      "leaf": 0.00133757887
                    },
                    {
                      "nodeid": 20,
                      "leaf": 0.0559737496
                    }
                  ]
                },
                {
                  "nodeid": 14,
                  "depth": 3,
                  "split": "day_night_ratio",
                  "split_condition": 4.30561876,
                  "yes": 21,
                  "no": 22,
                  "missing": 22,
                  "children": [
                    {
                      "nodeid": 21,
                      "leaf": -0.0365029536
                    },
                    {
                      "nodeid": 22,
                      "leaf": 0.0251830164
                    }
                  ]
                }
              ]
            }
          ]
        }
      ]
    },
    {
      "nodeid": 0,
      "depth": 0,
      "split": "rest_period_count",
      "split_condition": 93,
      "yes": 1,
      "no": 2,
      "missing": 2,
      "children": [
        {
          "nodeid": 1,
          "depth": 1,
          "split": "days",
          "split_condition": 16,
          "yes": 3,
          "no": 4,
          "missing": 4,
          "children": [
            {
              "nodeid": 3,
              "depth": 2,
              "split": "longest_rest_period",
              "split_condition": 757,
              "yes": 7,
              "no": 8,
              "missing": 8,
              "children": [
                {
                  "nodeid": 7,
                  "depth": 3,
                  "split": "very_active_minutes",
                  "split_condition": 133,
                  "yes": 15,
                  "no": 16,
                  "missing": 16,
                  "children": [
                    {
                      "nodeid": 15,
                      "leaf": 0.0143823922
                    },
                    {
                      "nodeid": 16,
                      "leaf": -0.0419628918
                    }
                  ]
                },
                {
                  "nodeid": 8,
                  "depth": 3,
                  "split": "day_night_ratio",
                  "split_condition": 5.76257992,
                  "yes": 17,
                  "no": 18,
                  "missing": 18,
                  "children": [
                    {
                      "nodeid": 17,
                      "leaf": -0.0663844272
                    },
                    {
                      "nodeid": 18,
                      "leaf": -0.0149971982
                    }
                  ]
                }
              ]
            },
            {
              "nodeid": 4,
              "depth": 2,
              "split": "days",
              "split_condition": 20,
              "yes": 9,
              "no": 10,
              "missing": 10,
              "children": [
                {
                  "nodeid": 9,
                  "depth": 3,
                  "split": "inactive_minutes",
                  "split_condition": 397,
                  "yes": 19,
                  "no": 20,
                  "missing": 20,
                  "children": [
                    {
                      "nodeid": 19,
                      "leaf": -0.00276265386
                    },
                    {
                      "nodeid": 20,
                      "leaf": 0.101442412
                    }
                  ]
                },
                {
                  "nodeid": 10,
                  "leaf": -0.0571521781
                }
              ]
            }
          ]
        },
        {
          "nodeid": 2,
          "depth": 1,
          "split": "very_active_minutes",
          "split_condition": 84,
          "yes": 5,
          "no": 6,
          "missing": 6,
          "children": [
            {
              "nodeid": 5,
              "depth": 2,
              "split": "rest_period_count",
              "split_condition": 98,
              "yes": 11,
              "no": 12,
              "missing": 12,
              "children": [
                {
                  "nodeid": 11,
                  "leaf": 0.0378383324
                },
                {
                  "nodeid": 12,
                  "leaf": 0.0999478325
                }
              ]
            },
            {
              "nodeid": 6,
              "depth": 2,
              "split": "median_activity",
              "split_condition": 73,
              "yes": 13,
              "no": 14,
              "missing": 14,
              "children": [
                {
                  "nodeid": 13,
                  "depth": 3,
                  "split": "days",
                  "split_condition": 16,
                  "yes": 21,
                  "no": 22,
                  "missing": 22,
                  "children": [
                    {
                      "nodeid": 21,
                      "leaf": 0.0234895591
                    },
                    {
                      "nodeid": 22,
                      "leaf": 0.0986316577
                    }
                  ]
                },
                {
                  "nodeid": 14,
                  "depth": 3,
                  "split": "activity_cv",
                  "split_condition": 1.39840794,
                  "yes": 23,
                  "no": 24,
                  "missing": 24,
                  "children": [
                    {
                      "nodeid": 23,
                      "leaf": 0.00885920972
                    },
                    {
                      "nodeid": 24,
                      "leaf": -0.0471321382
                    }
                  ]
                }
              ]
            }
          ]
        }
      ]
    },
    {
      "nodeid": 0,
      "depth": 0,
      "split": "age_num",
      "split_condition": 37,
      "yes": 1,
      "no": 2,
      "missing": 2,
      "children": [
        {
          "nodeid": 1,
          "depth": 1,
          "split": "days",
          "split_condition": 7,
          "yes": 3,
          "no": 4,
          "missing": 4,
          "children": [
            {
              "nodeid": 3,
              "leaf": 0.0991144478
            },
            {
              "nodeid": 4,
              "depth": 2,
              "split": "days",
              "split_condition": 14,
              "yes": 7,
              "no": 8,
              "missing": 8,
              "children": [
                {
                  "nodeid": 7,
                  "depth": 3,
                  "split": "p75",
                  "split_condition": 640,
                  "yes": 13,
                  "no": 14,
                  "missing": 14,
                  "children": [
                    {
                      "nodeid": 13,
                      "leaf": -0.0501436777
                    },
                    {
                      "nodeid": 14,
                      "leaf": 0.0197178721
                    }
                  ]
                },
                {
                  "nodeid": 8,
                  "depth": 3,
                  "split": "gender",
                  "split_condition": 2,
                  "yes": 15,
                  "no": 16,
                  "missing": 16,
                  "children": [
                    {
                      "nodeid": 15,
                      "leaf": 0.0538775921
                    },
                    {
                      "nodeid": 16,
                      "leaf": -0.0670099929
                    }
                  ]
                }
              ]
            }
          ]
        },
        {
          "nodeid": 2,
          "depth": 1,
          "split": "activity_cv",
          "split_condition": 1.57275891,
          "yes": 5,
          "no": 6,
          "missing": 6,
          "children": [
            {
              "nodeid": 5,
              "depth": 2,
              "split": "min_activity",
              "split_condition": 3,
              "yes": 9,
              "no": 10,
              "missing": 10,
              "children": [
                {
                  "nodeid": 9,
                  "depth": 3,
                  "split": "day_night_ratio",
                  "split_condition": 4.39148235,
                  "yes": 17,
                  "no": 18,
                  "missing": 18,
                  "children": [
                    {
                      "nodeid": 17,
                      "leaf": -0.0385226719
                    },
                    {
                      "nodeid": 18,
                      "leaf": 0.0210265629
                    }
                  ]
                },
                {
                  "nodeid": 10,
                  "depth": 3,
                  "split": "mean_activity",
                  "split_condition": 7.92847204,
                  "yes": 19,
                  "no": 20,
                  "missing": 20,
                  "children": [
                    {
                      "nodeid": 19,
                      "leaf": -0.0150963562
                    },
                    {
                      "nodeid": 20,
                      "leaf": 0.102091603
                    }
                  ]
                }
              ]
            },
            {
              "nodeid": 6,
              "depth": 2,
              "split": "gender",
              "split_condition": 2,
              "yes": 11,
              "no": 12,
              "missing": 12,
              "children": [
                {
                  "nodeid": 11,
                  "depth": 3,
                  "split": "days",
                  "split_condition": 14,
                  "yes": 21,
                  "no": 22,
                  "missing": 22,
                  "children": [
                    {
                      "nodeid": 21,
                      "leaf": -0.0136801843
                    },
                    {
                      "nodeid": 22,
                      "leaf": 0.0751568675
                    }
                  ]
                },
                {
                  "nodeid": 12,
                  "depth": 3,
                  "split": "days",
                  "split_condition": 11,
                  "yes": 23,
                  "no": 24,
                  "missing": 24,
                  "children": [
                    {
                      "nodeid": 23,
                      "leaf": -0.0164152421
                    },
                    {
                      "nodeid": 24,
                      "leaf": 0.0933571085
                    }
                  ]
                }
              ]
            }
          ]
        }
      ]
    },
    {
      "nodeid": 0,
      "depth": 0,
      "split": "rest_period_count",
      "split_condition": 93,
      "yes": 1,
      "no": 2,
      "missing": 2,
      "children": [
        {
          "nodeid": 1,
          "depth": 1,
          "split": "days",
          "split_condition": 14,
          "yes": 3,
          "no": 4,
          "missing": 4,
          "children": [
            {
              "nodeid": 3,
              "depth": 2,
              "split": "days",
              "split_condition": 8,
              "yes": 7,
              "no": 8,
              "missing": 8,
              "children": [
                {
                  "nodeid": 7,
                  "leaf": 0.083561182
                },
                {
                  "nodeid": 8,
                  "depth": 3,
                  "split": "day_night_ratio",
                  "split_condition": 6.33201075,
                  "yes": 15,
                  "no": 16,
                  "missing": 16,
                  "children": [
                    {
                      "nodeid": 15,
                      "leaf": -0.048175659
                    },
                    {
                      "nodeid": 16,
                      "leaf": -0.0069575347
                    }
                  ]
                }
              ]
            },
            {
              "nodeid": 4,
              "depth": 2,
              "split": "days",
              "split_condition": 20,
              "yes": 9,
              "no": 10,
              "missing": 10,
              "children": [
                {
                  "nodeid": 9,
                  "depth": 3,
                  "split": "days",
                  "split_condition": 16,
                  "yes": 17,
                  "no": 18,
                  "missing": 18,
                  "children": [
                    {
                      "nodeid": 17,
                      "leaf": 0.00125073141
                    },
                    {
                      "nodeid": 18,
                      "leaf": 0.0796858892
                    }
                  ]
                },
                {
                  "nodeid": 10,
                  "leaf": -0.0570810735
                }
              ]
            }
          ]
        },
        {
          "nodeid": 2,
          "depth": 1,
          "split": "very_active_minutes",
          "split_condition": 84,
          "yes": 5,
          "no": 6,
          "missing": 6,
          "children": [
            {
              "nodeid": 5,
              "depth": 2,
              "split": "rest_period_count",
              "split_condition": 98,
              "yes": 11,
              "no": 12,
              "missing": 12,
              "children": [
                {
                  "nodeid": 11,
                  "leaf": 0.0350860693
                },
                {
                  "nodeid": 12,
                  "leaf": 0.0926494896
                }
              ]
            },
            {
              "nodeid": 6,
              "depth": 2,
              "split": "median_activity",
              "split_condition": 73,
              "yes": 13,
              "no": 14,
              "missing": 14,
              "children": [
                {
                  "nodeid": 13,
                  "depth": 3,
                  "split": "age_num",
                  "split_condition": 37,
                  "yes": 19,
                  "no": 20,
                  "missing": 20,
                  "children": [
                    {
                      "nodeid": 19,
                      "leaf": 0.000484718563
                    },
                    {
                      "nodeid": 20,
                      "leaf": 0.0484679602
                    }
                  ]
                },
                {
                  "nodeid": 14,
                  "depth": 3,
                  "split": "day_night_ratio",
                  "split_condition": 4.30561876,
                  "yes": 21,
                  "no": 22,
                  "missing": 22,
                  "children": [
                    {
                      "nodeid": 21,
                      "leaf": -0.0334011465
                    },
                    {
                      "nodeid": 22,
                      "leaf": 0.023966182
                    }
                  ]
                }
              ]
            }
          ]
        }
      ]
    },
    {
      "nodeid": 0,
      "depth": 0,
      "split": "rest_period_count",
      "split_condition": 93,
      "yes": 1,
      "no": 2,
      "missing": 2,
      "children": [
        {
          "nodeid": 1,
          "depth": 1,
          "split": "days",
          "split_condition": 14,
          "yes": 3,
          "no": 4,
          "missing": 4,
          "children": [
            {
              "nodeid": 3,
              "depth": 2,
              "split": "days",
              "split_condition": 8,
              "yes": 7,
              "no": 8,
              "missing": 8,
              "children": [
                {
                  "nodeid": 7,
                  "leaf": 0.0799691454
                },
                {
                  "nodeid": 8,
                  "depth": 3,
                  "split": "inactive_minutes",
                  "split_condition": 1382,
                  "yes": 15,
                  "no": 16,
                  "missing": 16,
                  "children": [
                    {
                      "nodeid": 15,
                      "leaf": -0.0290578902
                    },
                    {
                      "nodeid": 16,
                      "leaf": -0.0615167022
                    }
                  ]
                }
              ]
            },
            {
              "nodeid": 4,
              "depth": 2,
              "split": "days",
              "split_condition": 20,
              "yes": 9,
              "no": 10,
              "missing": 10,
              "children": [
                {
                  "nodeid": 9,
                  "depth": 3,
                  "split": "activity_entropy",
                  "split_condition": 0.01518548,
                  "yes": 17,
                  "no": 18,
                  "missing": 18,
                  "children": [
                    {
                      "nodeid": 17,
                      "leaf": -0.0368422531
                    },
                    {
                      "nodeid": 18,
                      "leaf": 0.0569465347
                    }
                  ]
                },
                {
                  "nodeid": 10,
                  "leaf": -0.0558651052
                }
              ]
            }
          ]
        },
        {
          "nodeid": 2,
          "depth": 1,
          "split": "very_active_minutes",
          "split_condition": 84,
          "yes": 5,
          "no": 6,
          "missing": 6,
          "children": [
            {
              "nodeid": 5,
              "depth": 2,
              "split": "rest_period_count",
              "split_condition": 98,
              "yes": 11,
              "no": 12,
              "missing": 12,
              "children": [
                {
                  "nodeid": 11,
                  "leaf": 0.0338936076
                },
                {
                  "nodeid": 12,
                  "leaf": 0.0884542018
                }
              ]
            },
            {
              "nodeid": 6,
              "depth": 2,
              "split": "days",
              "split_condition": 8,
              "yes": 13,
              "no": 14,
              "missing": 14,
              "children": [
                {
                  "nodeid": 13,
                  "leaf": 0.101867534
                },
                {
                  "nodeid": 14,
                  "depth": 3,
                  "split": "days",
                  "split_condition": 14,
                  "yes": 19,
                  "no": 20,
                  "missing": 20,
                  "children": [
                    {
                      "nodeid": 19,
                      "leaf": -0.0065452056
                    },
                    {
                      "nodeid": 20,
                      "leaf": 0.0481128842
                    }
                  ]
                }
              ]
            }
          ]
        }
      ]
    },
    {
      "nodeid": 0,
      "depth": 0,
      "split": "age_num",
      "split_condition": 37,
      "yes": 1,
      "no": 2,
      "missing": 2,
      "children": [
        {
          "nodeid": 1,
          "depth": 1,
          "split": "days",
          "split_condition": 7,
          "yes": 3,
          "no": 4,
          "missing": 4,
          "children": [
            {
              "nodeid": 3,
              "leaf": 0.0881818011
            },
            {
              "nodeid": 4,
              "depth": 2,
              "split": "days",
              "split_condition": 14,
              "yes": 7,
              "no": 8,
              "missing": 8,
              "children": [
                {
                  "nodeid": 7,
                  "depth": 3,
                  "split": "p75",
                  "split_condition": 640,
                  "yes": 13,
                  "no": 14,
                  "missing": 14,
                  "children": [
                    {
                      "nodeid": 13,
                      "leaf": -0.0471010022
                    },
                    {
                      "nodeid": 14,
                      "leaf": 0.0211583767
                    }
                  ]
                },
                {
                  "nodeid": 8,
                  "depth": 3,
                  "split": "gender",
                  "split_condition": 2,
                  "yes": 15,
                  "no": 16,
                  "missing": 16,
                  "children": [
                    {
                      "nodeid": 15,
                      "leaf": 0.0502181165
                    },
                    {
                      "nodeid": 16,
                      "leaf": -0.0659029409
                    }
                  ]
                }
              ]
            }
          ]
        },
        {
          "nodeid": 2,
          "depth": 1,
          "split": "gender",
          "split_condition": 2,
          "yes": 5,
          "no": 6,
          "missing": 6,
          "children": [
            {
              "nodeid": 5,
              "depth": 2,
              "split": "days",
              "split_condition": 14,
              "yes": 9,
              "no": 10,
              "missing": 10,
              "children": [
                {
                  "nodeid": 9,
                  "depth": 3,
                  "split": "min_activity",
                  "split_condition": 2,
                  "yes": 17,
                  "no": 18,
                  "missing": 18,
                  "children": [
                    {
                      "nodeid": 17,
                      "leaf": -0.04219044
                    },
                    {
                      "nodeid": 18,
                      "leaf": 0.0985001326
                    }
                  ]
                },
                {
                  "nodeid": 10,
                  "depth": 3,
                  "split": "age_num",
                  "split_condition": 52,
                  "yes": 19,
                  "no": 20,
                  "missing": 20,
                  "children": [
                    {
                      "nodeid": 19,
                      "leaf": 0.095322445
                    },
                    {
                      "nodeid": 20,
                      "leaf": -0.00744960038
                    }
                  ]
                }
              ]
            },
            {
              "nodeid": 6,
              "depth": 2,
              "split": "day_mean",
              "split_condition": 304.882233,
              "yes": 11,
              "no": 12,
              "missing": 12,
              "children": [
                {
                  "nodeid": 11,
                  "depth": 3,
                  "split": "p25",
                  "split_condition": 2,
                  "yes": 21,
                  "no": 22,
                  "missing": 22,
                  "children": [
                    {
                      "nodeid": 21,
                      "leaf": 0.096676223
                    },
                    {
                      "nodeid": 22,
                      "leaf": 0.0277795829
                    }
                  ]
                },
                {
                  "nodeid": 12,
                  "depth": 3,
                  "split": "night_mean",
                  "split_condition": 93.4129639,
                  "yes": 23,
                  "no": 24,
                  "missing": 24,
                  "children": [
                    {
                      "nodeid": 23,
                      "leaf": 0.0530460589
                    },
                    {
                      "nodeid": 24,
                      "leaf": -0.0425118916
                    }
                  ]
                }
              ]
            }
          ]
        }
      ]
    },
    {
      "nodeid": 0,
      "depth": 0,
      "split": "rest_period_count",
      "split_condition": 93,
      "yes": 1,
      "no": 2,
      "missing": 2,
      "children": [
        {
          "nodeid": 1,
          "depth": 1,
          "split": "days",
          "split_condition": 14,
          "yes": 3,
          "no": 4,
          "missing": 4,
          "children": [
            {
              "nodeid": 3,
              "depth": 2,
              "split": "days",
              "split_condition": 8,
              "yes": 7,
              "no": 8,
              "missing": 8,
              "children": [
                {
                  "nodeid": 7,
                  "leaf": 0.0765012428
                },
                {
                  "nodeid": 8,
                  "depth": 3,
                  "split": "age_num",
                  "split_condition": 47,
                  "yes": 15,
                  "no": 16,
                  "missing": 16,
                  "children": [
                    {
                      "nodeid": 15,
                      "leaf": -0.0471326336
                    },
                    {
                      "nodeid": 16,
                      "leaf": -0.012718888
                    }
                  ]
                }
              ]
            },
            {
              "nodeid": 4,
              "depth": 2,
              "split": "days",
              "split_condition": 20,
              "yes": 9,
              "no": 10,
              "missing": 10,
              "children": [
                {
                  "nodeid": 9,
                  "depth": 3,
                  "split": "days",
                  "split_condition": 16,
                  "yes": 17,
                  "no": 18,
                  "missing": 18,
                  "children": [
                    {
                      "nodeid": 17,
                      "leaf": 0.000125442632
                    },
                    {
                      "nodeid": 18,
                      "leaf": 0.07137198
                    }
                  ]
                },
                {
                  "nodeid": 10,
                  "leaf": -0.0557471588
                }
              ]
            }
          ]
        },
        {
          "nodeid": 2,
          "depth": 1,
          "split": "very_active_minutes",
          "split_condition": 84,
          "yes": 5,
          "no": 6,
          "missing": 6,
          "children": [
            {
              "nodeid": 5,
              "depth": 2,
              "split": "rest_period_count",
              "split_condition": 98,
              "yes": 11,
              "no": 12,
              "missing": 12,
              "children": [
                {
                  "nodeid": 11,
                  "leaf": 0.0325244293
                },
                {
                  "nodeid": 12,
                  "leaf": 0.0836774707
                }
              ]
            },
            {
              "nodeid": 6,
              "depth": 2,
              "split": "days",
              "split_condition": 8,
              "yes": 13,
              "no": 14,
              "missing": 14,
              "children": [
                {
                  "nodeid": 13,
                  "leaf": 0.0952304602
                },
                {
                  "nodeid": 14,
                  "depth": 3,
                  "split": "days",
                  "split_condition": 14,
                  "yes": 19,
                  "no": 20,
                  "missing": 20,
                  "children": [
                    {
                      "nodeid": 19,
                      "leaf": -0.00633033505
                    },
                    {
                      "nodeid": 20,
                      "leaf": 0.0439214483
                    }
                  ]
                }
              ]
            }
          ]
        }
      ]
    },
    {
      "nodeid": 0,
      "depth": 0,
      "split": "age_num",
      "split_condition": 37,
      "yes": 1,
      "no": 2,
      "missing": 2,
      "children": [
        {
          "nodeid": 1,
          "depth": 1,
          "split": "days",
          "split_condition": 7,
          "yes": 3,
          "no": 4,
          "missing": 4,
          "children": [
            {
              "nodeid": 3,
              "leaf": 0.080554001
            },
            {
              "nodeid": 4,
              "depth": 2,
              "split": "rest_period_count",
              "split_condition": 72,
              "yes": 7,
              "no": 8,
              "missing": 8,
              "children": [
                {
                  "nodeid": 7,
                  "depth": 3,
                  "split": "days",
                  "split_condition": 16,
                  "yes": 13,
                  "no": 14,
                  "missing": 14,
                  "children": [
                    {
                      "nodeid": 13,
                      "leaf": -0.0534819663
                    },
                    {
                      "nodeid": 14,
                      "leaf": -0.0081310235
                    }
                  ]
                },
                {
                  "nodeid": 8,
                  "depth": 3,
                  "split": "very_active_minutes",
                  "split_condition": 96,
                  "yes": 15,
                  "no": 16,
                  "missing": 16,
                  "children": [
                    {
                      "nodeid": 15,
                      "leaf": 0.0725842044
                    },
                    {
                      "nodeid": 16,
                      "leaf": -0.0220210962
                    }
                  ]
                }
              ]
            }
          ]
        },
        {
          "nodeid": 2,
          "depth": 1,
          "split": "gender",
          "split_condition": 2,
          "yes": 5,
          "no": 6,
          "missing": 6,
          "children": [
            {
              "nodeid": 5,
              "depth": 2,
              "split": "days",
              "split_condition": 14,
              "yes": 9,
              "no": 10,
              "missing": 10,
              "children": [
                {
                  "nodeid": 9,
                  "depth": 3,
                  "split": "min_activity",
                  "split_condition": 2,
                  "yes": 17,
                  "no": 18,
                  "missing": 18,
                  "children": [
                    {
                      "nodeid": 17,
                      "leaf": -0.0408458933
                    },
                    {
                      "nodeid": 18,
                      "leaf": 0.0931428969
                    }
                  ]
                },
                {
                  "nodeid": 10,
                  "depth": 3,
                  "split": "age_num",
                  "split_condition": 52,
                  "yes": 19,
                  "no": 20,
                  "missing": 20,
                  "children": [
                    {
                      "nodeid": 19,
                      "leaf": 0.0886715576
                    },
                    {
                      "nodeid": 20,
                      "leaf": -0.0085697975
                    }
                  ]
                }
              ]
            },
            {
              "nodeid": 6,
              "depth": 2,
              "split": "day_mean",
              "split_condition": 304.882233,
              "yes": 11,
              "no": 12,
              "missing": 12,
              "children": [
                {
                  "nodeid": 11,
                  "depth": 3,
                  "split": "p25",
                  "split_condition": 2,
                  "yes": 21,
                  "no": 22,
                  "missing": 22,
                  "children": [
                    {
                      "nodeid": 21,
                      "leaf": 0.0909767598
                    },
                    {
                      "nodeid": 22,
                      "leaf": 0.0254806485
                    }
                  ]
                },
                {
                  "nodeid": 12,
                  "depth": 3,
                  "split": "night_mean",
                  "split_condition": 93.4129639,
                  "yes": 23,
                  "no": 24,
                  "missing": 24,
                  "children": [
                    {
                      "nodeid": 23,
                      "leaf": 0.0501021706
                    },
                    {
                      "nodeid": 24,
                      "leaf": -0.0414162204
                    }
                  ]
                }
              ]
            }
          ]
        }
      ]
    },
    {
      "nodeid": 0,
      "depth": 0,
      "split": "age_num",
      "split_condition": 37,
      "yes": 1,
      "no": 2,
      "missing": 2,
      "children": [
        {
          "nodeid": 1,
          "depth": 1,
          "split": "rest_period_count",
          "split_condition": 72,
          "yes": 3,
          "no": 4,
          "missing": 4,
          "children": [
            {
              "nodeid": 3,
              "depth": 2,
              "split": "activity_cv",
              "split_condition": 2.76228738,
              "yes": 7,
              "no": 8,
              "missing": 8,
              "children": [
                {
                  "nodeid": 7,
                  "depth": 3,
                  "split": "median_activity",
                  "split_condition": 449,
                  "yes": 15,
                  "no": 16,
                  "missing": 16,
                  "children": [
                    {
                      "nodeid": 15,
                      "leaf": -0.0572854951
                    },
                    {
                      "nodeid": 16,
                      "leaf": 0.00338133052
                    }
                  ]
                },
                {
                  "nodeid": 8,
                  "depth": 3,
                  "split": "days",
                  "split_condition": 16,
                  "yes": 17,
                  "no": 18,
                  "missing": 18,
                  "children": [
                    {
                      "nodeid": 17,
                      "leaf": -0.0363977142
                    },
                    {
                      "nodeid": 18,
                      "leaf": 0.0320452601
                    }
                  ]
                }
              ]
            },
            {
              "nodeid": 4,
              "depth": 2,
              "split": "very_active_minutes",
              "split_condition": 81,
              "yes": 9,
              "no": 10,
              "missing": 10,
              "children": [
                {
                  "nodeid": 9,
                  "leaf": 0.0764890239
                },
                {
                  "nodeid": 10,
                  "depth": 3,
                  "split": "days",
                  "split_condition": 14,
                  "yes": 19,
                  "no": 20,
                  "missing": 20,
                  "children": [
                    {
                      "nodeid": 19,
                      "leaf": -0.029098196
                    },
                    {
                      "nodeid": 20,
                      "leaf": 0.0305357818
                    }
                  ]
                }
              ]
            }
          ]
        },
        {
          "nodeid": 2,
          "depth": 1,
          "split": "gender",
          "split_condition": 2,
          "yes": 5,
          "no": 6,
          "missing": 6,
          "children": [
            {
              "nodeid": 5,
              "depth": 2,
              "split": "days",
              "split_condition": 14,
              "yes": 11,
              "no": 12,
              "missing": 12,
              "children": [
                {
                  "nodeid": 11,
                  "depth": 3,
                  "split": "min_activity",
                  "split_condition": 2,
                  "yes": 21,
                  "no": 22,
                  "missing": 22,
                  "children": [
                    {
                      "nodeid": 21,
                      "leaf": -0.0393662453
                    },
                    {
                      "nodeid": 22,
                      "leaf": 0.0876837149
                    }
                  ]
                },
                {
                  "nodeid": 12,
                  "depth": 3,
                  "split": "age_num",
                  "split_condition": 52,
                  "yes": 23,
                  "no": 24,
                  "missing": 24,
                  "children": [
                    {
                      "nodeid": 23,
                      "leaf": 0.0851008296
                    },
                    {
                      "nodeid": 24,
                      "leaf": -0.00818932708
                    }
                  ]
                }
              ]
            },
            {
              "nodeid": 6,
              "depth": 2,
              "split": "day_mean",
              "split_condition": 304.882233,
              "yes": 13,
              "no": 14,
              "missing": 14,
              "children": [
                {
                  "nodeid": 13,
                  "depth": 3,
                  "split": "p25",
                  "split_condition": 2,
                  "yes": 25,
                  "no": 26,
                  "missing": 26,
                  "children": [
                    {
                      "nodeid": 25,
                      "leaf": 0.086213015
                    },
                    {
                      "nodeid": 26,
                      "leaf": 0.0242990647
                    }
                  ]
                },
                {
                  "nodeid": 14,
                  "depth": 3,
                  "split": "night_mean",
                  "split_condition": 93.4129639,
                  "yes": 27,
                  "no": 28,
                  "missing": 28,
                  "children": [
                    {
                      "nodeid": 27,
                      "leaf": 0.0473484844
                    },
                    {
                      "nodeid": 28,
                      "leaf": -0.0400569364
                    }
                  ]
                }
              ]
            }
          ]
        }
      ]
    },
    {
      "nodeid": 0,
      "depth": 0,
      "split": "rest_period_count",
      "split_condition": 70,
      "yes": 1,
      "no": 2,
      "missing": 2,
      "children": [
        {
          "nodeid": 1,
          "depth": 1,
          "split": "days",
          "split_condition": 16,
          "yes": 3,
          "no": 4,
          "missing": 4,
          "children": [
            {
              "nodeid": 3,
              "depth": 2,
              "split": "inactive_minutes",
              "split_condition": 1435,
              "yes": 7,
              "no": 8,
              "missing": 8,
              "children": [
                {
                  "nodeid": 7,
                  "depth": 3,
                  "split": "p75",
                  "split_condition": 2,
                  "yes": 15,
                  "no": 16,
                  "missing": 16,
                  "children": [
                    {
                      "nodeid": 15,
                      "leaf": 0.0154551435
                    },
                    {
                      "nodeid": 16,
                      "leaf": -0.0386365838
                    }
                  ]
                },
                {
                  "nodeid": 8,
                  "leaf": -0.059010148
                }
              ]
            },
            {
              "nodeid": 4,
              "depth": 2,
              "split": "days",
              "split_condition": 20,
              "yes": 9,
              "no": 10,
              "missing": 10,
              "children": [
                {
                  "nodeid": 9,
                  "depth": 3,
                  "split": "std_activity",
                  "split_condition": 342.578156,
                  "yes": 17,
                  "no": 18,
                  "missing": 18,
                  "children": [
                    {
                      "nodeid": 17,
                      "leaf": 0.0758267269
                    },
                    {
                      "nodeid": 18,
                      "leaf": 0.0117372386
                    }
                  ]
                },
                {
                  "nodeid": 10,
                  "leaf": -0.0478989743
                }
              ]
            }
          ]
        },
        {
          "nodeid": 2,
          "depth": 1,
          "split": "mean_activity",
          "split_condition": 194.040283,
          "yes": 5,
          "no": 6,
          "missing": 6,
          "children": [
            {
              "nodeid": 5,
              "depth": 2,
              "split": "very_active_minutes",
              "split_condition": 85,
              "yes": 11,
              "no": 12,
              "missing": 12,
              "children": [
                {
                  "nodeid": 11,
                  "depth": 3,
                  "split": "p75",
                  "split_condition": 2,
                  "yes": 19,
                  "no": 20,
                  "missing": 20,
                  "children": [
                    {
                      "nodeid": 19,
                      "leaf": 0.0285238754
                    },
                    {
                      "nodeid": 20,
                      "leaf": 0.083433114
                    }
                  ]
                },
                {
                  "nodeid": 12,
                  "depth": 3,
                  "split": "activity_entropy",
                  "split_condition": 2.3506496,
                  "yes": 21,
                  "no": 22,
                  "missing": 22,
                  "children": [
                    {
                      "nodeid": 21,
                      "leaf": 0.037204247
                    },
                    {
                      "nodeid": 22,
                      "leaf": -0.0434318818
                    }
                  ]
                }
              ]
            },
            {
              "nodeid": 6,
              "depth": 2,
              "split": "days",
              "split_condition": 14,
              "yes": 13,
              "no": 14,
              "missing": 14,
              "children": [
                {
                  "nodeid": 13,
                  "depth": 3,
                  "split": "days",
                  "split_condition": 8,
                  "yes": 23,
                  "no": 24,
                  "missing": 24,
                  "children": [
                    {
                      "nodeid": 23,
                      "leaf": 0.0850630403
                    },
                    {
                      "nodeid": 24,
                      "leaf": -0.0284900516
                    }
                  ]
                },
                {
                  "nodeid": 14,
                  "depth": 3,
                  "split": "inactive_minutes",
                  "split_condition": 449,
                  "yes": 25,
                  "no": 26,
                  "missing": 26,
                  "children": [
                    {
                      "nodeid": 25,
                      "leaf": -0.0464375727
                    },
                    {
                      "nodeid": 26,
                      "leaf": 0.0548966341
                    }
                  ]
                }
              ]
            }
          ]
        }
      ]
    },
    {
      "nodeid": 0,
      "depth": 0,
      "split": "age_num",
      "split_condition": 37,
      "yes": 1,
      "no": 2,
      "missing": 2,
      "children": [
        {
          "nodeid": 1,
          "depth": 1,
          "split": "days",
          "split_condition": 7,
          "yes": 3,
          "no": 4,
          "missing": 4,
          "children": [
            {
              "nodeid": 3,
              "leaf": 0.0763782188
            },
            {
              "nodeid": 4,
              "depth": 2,
              "split": "rest_period_count",
              "split_condition": 72,
              "yes": 7,
              "no": 8,
              "missing": 8,
              "children": [
                {
                  "nodeid": 7,
                  "depth": 3,
                  "split": "days",
                  "split_condition": 16,
                  "yes": 13,
                  "no": 14,
                  "missing": 14,
                  "children": [
                    {
                      "nodeid": 13,
                      "leaf": -0.0500787869
                    },
                    {
                      "nodeid": 14,
                      "leaf": -0.00746724894
                    }
                  ]
                },
                {
                  "nodeid": 8,
                  "depth": 3,
                  "split": "very_active_minutes",
                  "split_condition": 96,
                  "yes": 15,
                  "no": 16,
                  "missing": 16,
                  "children": [
                    {
                      "nodeid": 15,
                      "leaf": 0.0640160441
                    },
                    {
                      "nodeid": 16,
                      "leaf": -0.0206373669
                    }
                  ]
                }
              ]
            }
          ]
        },
        {
          "nodeid": 2,
          "depth": 1,
          "split": "gender",
          "split_condition": 2,
          "yes": 5,
          "no": 6,
          "missing": 6,
          "children": [
            {
              "nodeid": 5,
              "depth": 2,
              "split": "days",
              "split_condition": 14,
              "yes": 9,
              "no": 10,
              "missing": 10,
              "children": [
                {
                  "nodeid": 9,
                  "depth": 3,
                  "split": "days",
                  "split_condition": 8,
                  "yes": 17,
                  "no": 18,
                  "missing": 18,
                  "children": [
                    {
                      "nodeid": 17,
                      "leaf": 0.0891767964
                    },
                    {
                      "nodeid": 18,
                      "leaf": -0.0377142392
                    }
                  ]
                },
                {
                  "nodeid": 10,
                  "depth": 3,
                  "split": "age_num",
                  "split_condition": 52,
                  "yes": 19,
                  "no": 20,
                  "missing": 20,
                  "children": [
                    {
                      "nodeid": 19,
                      "leaf": 0.0801700279
                    },
                    {
                      "nodeid": 20,
                      "leaf": -0.00867361482
                    }
                  ]
                }
              ]
            },
            {
              "nodeid": 6,
              "depth": 2,
              "split": "night_mean",
              "split_condition": 93.4129639,
              "yes": 11,
              "no": 12,
              "missing": 12,
              "children": [
                {
                  "nodeid": 11,
                  "depth": 3,
                  "split": "p25",
                  "split_condition": 2,
                  "yes": 21,
                  "no": 22,
                  "missing": 22,
                  "children": [
                    {
                      "nodeid": 21,
                      "leaf": 0.0800036192
                    },
                    {
                      "nodeid": 22,
                      "leaf": 0.016076535
                    }
                  ]
                },
                {
                  "nodeid": 12,
                  "depth": 3,
                  "split": "std_activity",
                  "split_condition": 360.761261,
                  "yes": 23,
                  "no": 24,
                  "missing": 24,
                  "children": [
                    {
                      "nodeid": 23,
                      "leaf": 0.0496196896
                    },
                    {
                      "nodeid": 24,
                      "leaf": -0.0452081412
                    }
                  ]
                }
              ]
            }
          ]
        }
      ]
    },
    {
      "nodeid": 0,
      "depth": 0,
      "split": "rest_period_count",
      "split_condition": 70,
      "yes": 1,
      "no": 2,
      "missing": 2,
      "children": [
        {
          "nodeid": 1,
          "depth": 1,
          "split": "days",
          "split_condition": 16,
          "yes": 3,
          "no": 4,
          "missing": 4,
          "children": [
            {
              "nodeid": 3,
              "depth": 2,
              "split": "inactive_minutes",
              "split_condition": 1435,
              "yes": 7,
              "no": 8,
              "missing": 8,
              "children": [
                {
                  "nodeid": 7,
                  "depth": 3,
                  "split": "p75",
                  "split_condition": 2,
                  "yes": 15,
                  "no": 16,
                  "missing": 16,
                  "children": [
                    {
                      "nodeid": 15,
                      "leaf": 0.0148783671
                    },
                    {
                      "nodeid": 16,
                      "leaf": -0.0366216339
                    }
                  ]
                },
                {
                  "nodeid": 8,
                  "leaf": -0.0573113225
                }
              ]
            },
            {
              "nodeid": 4,
              "depth": 2,
              "split": "days",
              "split_condition": 20,
              "yes": 9,
              "no": 10,
              "missing": 10,
              "children": [
                {
                  "nodeid": 9,
                  "depth": 3,
                  "split": "activity_entropy",
                  "split_condition": 2.23227906,
                  "yes": 17,
                  "no": 18,
                  "missing": 18,
                  "children": [
                    {
                      "nodeid": 17,
                      "leaf": 0.0722597763
                    },
                    {
                      "nodeid": 18,
                      "leaf": 0.0108331172
                    }
                  ]
                },
                {
                  "nodeid": 10,
                  "leaf": -0.0468358286
                }
              ]
            }
          ]
        },
        {
          "nodeid": 2,
          "depth": 1,
          "split": "mean_activity",
          "split_condition": 194.040283,
          "yes": 5,
          "no": 6,
          "missing": 6,
          "children": [
            {
              "nodeid": 5,
              "depth": 2,
              "split": "very_active_minutes",
              "split_condition": 85,
              "yes": 11,
              "no": 12,
              "missing": 12,
              "children": [
                {
                  "nodeid": 11,
                  "depth": 3,
                  "split": "p75",
                  "split_condition": 2,
                  "yes": 19,
                  "no": 20,
                  "missing": 20,
                  "children": [
                    {
                      "nodeid": 19,
                      "leaf": 0.0260239597
                    },
                    {
                      "nodeid": 20,
                      "leaf": 0.0792427808
                    }
                  ]
                },
                {
                  "nodeid": 12,
                  "depth": 3,
                  "split": "activity_entropy",
                  "split_condition": 2.3506496,
                  "yes": 21,
                  "no": 22,
                  "missing": 22,
                  "children": [
                    {
                      "nodeid": 21,
                      "leaf": 0.0340505466
                    },
                    {
                      "nodeid": 22,
                      "leaf": -0.0420184135
                    }
                  ]
                }
              ]
            },
            {
              "nodeid": 6,
              "depth": 2,
              "split": "days",
              "split_condition": 14,
              "yes": 13,
              "no": 14,
              "missing": 14,
              "children": [
                {
                  "nodeid": 13,
                  "depth": 3,
                  "split": "days",
                  "split_condition": 8,
                  "yes": 23,
                  "no": 24,
                  "missing": 24,
                  "children": [
                    {
                      "nodeid": 23,
                      "leaf": 0.078066498
                    },
                    {
                      "nodeid": 24,
                      "leaf": -0.0269941092
                    }
                  ]
                },
                {
                  "nodeid": 14,
                  "depth": 3,
                  "split": "inactive_minutes",
                  "split_condition": 449,
                  "yes": 25,
                  "no": 26,
                  "missing": 26,
                  "children": [
                    {
                      "nodeid": 25,
                      "leaf": -0.0445814729
                    },
                    {
                      "nodeid": 26,
                      "leaf": 0.0514472909
                    }
                  ]
                }
              ]
            }
          ]
        }
      ]
    },
    {
      "nodeid": 0,
      "depth": 0,
      "split": "age_num",
      "split_condition": 37,
      "yes": 1,
      "no": 2,
      "missing": 2,
      "children": [
        {
          "nodeid": 1,
          "depth": 1,
          "split": "days",
          "split_condition": 7,
          "yes": 3,
          "no": 4,
          "missing": 4,
          "children": [
            {
              "nodeid": 3,
              "leaf": 0.0720443353
            },
            {
              "nodeid": 4,
              "depth": 2,
              "split": "days",
              "split_condition": 14,
              "yes": 7,
              "no": 8,
              "missing": 8,
              "children": [
                {
                  "nodeid": 7,
                  "depth": 3,
                  "split": "p75",
                  "split_condition": 640,
                  "yes": 13,
                  "no": 14,
                  "missing": 14,
                  "children": [
                    {
                      "nodeid": 13,
                      "leaf": -0.0414664745
                    },
                    {
                      "nodeid": 14,
                      "leaf": 0.0302311983
                    }
                  ]
                },
                {
                  "nodeid": 8,
                  "depth": 3,
                  "split": "gender",
                  "split_condition": 2,
                  "yes": 15,
                  "no": 16,
                  "missing": 16,
                  "children": [
                    {
                      "nodeid": 15,
                      "leaf": 0.0447526649
                    },
                    {
                      "nodeid": 16,
                      "leaf": -0.0633492544
                    }
                  ]
                }
              ]
            }
          ]
        },
        {
          "nodeid": 2,
          "depth": 1,
          "split": "gender",
          "split_condition": 2,
          "yes": 5,
          "no": 6,
          "missing": 6,
          "children": [
            {
              "nodeid": 5,
              "depth": 2,
              "split": "days",
              "split_condition": 14,
              "yes": 9,
              "no": 10,
              "missing": 10,
              "children": [
                {
                  "nodeid": 9,
                  "depth": 3,
                  "split": "min_activity",
                  "split_condition": 2,
                  "yes": 17,
                  "no": 18,
                  "missing": 18,
                  "children": [
                    {
                      "nodeid": 17,
                      "leaf": -0.0372348353
                    },
                    {
                      "nodeid": 18,
                      "leaf": 0.0873399898
                    }
                  ]
                },
                {
                  "nodeid": 10,
                  "depth": 3,
                  "split": "age_num",
                  "split_condition": 52,
                  "yes": 19,
                  "no": 20,
                  "missing": 20,
                  "children": [
                    {
                      "nodeid": 19,
                      "leaf": 0.0760731846
                    },
                    {
                      "nodeid": 20,
                      "leaf": -0.00910267327
                    }
                  ]
                }
              ]
            },
            {
              "nodeid": 6,
              "depth": 2,
              "split": "mean_activity",
              "split_condition": 202.647217,
              "yes": 11,
              "no": 12,
              "missing": 12,
              "children": [
                {
                  "nodeid": 11,
                  "depth": 3,
                  "split": "rest_period_count",
                  "split_condition": 63,
                  "yes": 21,
                  "no": 22,
                  "missing": 22,
                  "children": [
                    {
                      "nodeid": 21,
                      "leaf": 0.0240426566
                    },
                    {
                      "nodeid": 22,
                      "leaf": 0.0826562643
                    }
                  ]
                },
                {
                  "nodeid": 12,
                  "depth": 3,
                  "split": "day_night_ratio",
                  "split_condition": 5.03798962,
                  "yes": 23,
                  "no": 24,
                  "missing": 24,
                  "children": [
                    {
                      "nodeid": 23,
                      "leaf": -0.0172302853
                    },
                    {
                      "nodeid": 24,
                      "leaf": 0.0586312003
                    }
                  ]
                }
              ]
            }
          ]
        }
      ]
    },
    {
      "nodeid": 0,
      "depth": 0,
      "split": "rest_period_count",
      "split_condition": 70,
      "yes": 1,
      "no": 2,
      "missing": 2,
      "children": [
        {
          "nodeid": 1,
          "depth": 1,
          "split": "days",
          "split_condition": 16,
          "yes": 3,
          "no": 4,
          "missing": 4,
          "children": [
            {
              "nodeid": 3,
              "depth": 2,
              "split": "inactive_minutes",
              "split_condition": 1435,
              "yes": 7,
              "no": 8,
              "missing": 8,
              "children": [
                {
                  "nodeid": 7,
                  "depth": 3,
                  "split": "p75",
                  "split_condition": 2,
                  "yes": 15,
                  "no": 16,
                  "missing": 16,
                  "children": [
                    {
                      "nodeid": 15,
                      "leaf": 0.0150354793
                    },
                    {
                      "nodeid": 16,
                      "leaf": -0.0350450426
                    }
                  ]
                },
                {
                  "nodeid": 8,
                  "leaf": -0.0557840243
                }
              ]
            },
            {
              "nodeid": 4,
              "depth": 2,
              "split": "days",
              "split_condition": 20,
              "yes": 9,
              "no": 10,
              "missing": 10,
              "children": [
                {
                  "nodeid": 9,
                  "depth": 3,
                  "split": "activity_entropy",
                  "split_condition": 2.23227906,
                  "yes": 17,
                  "no": 18,
                  "missing": 18,
                  "children": [
                    {
                      "nodeid": 17,
                      "leaf": 0.068812564
                    },
                    {
                      "nodeid": 18,
                      "leaf": 0.00972392596
                    }
                  ]
                },
                {
                  "nodeid": 10,
                  "leaf": -0.0467963703
                }
              ]
            }
          ]
        },
        {
          "nodeid": 2,
          "depth": 1,
          "split": "very_active_minutes",
          "split_condition": 85,
          "yes": 5,
          "no": 6,
          "missing": 6,
          "children": [
            {
              "nodeid": 5,
              "depth": 2,
              "split": "p75",
              "split_condition": 2,
              "yes": 11,
              "no": 12,
              "missing": 12,
              "children": [
                {
                  "nodeid": 11,
                  "leaf": 0.0246507972
                },
                {
                  "nodeid": 12,
                  "depth": 3,
                  "split": "active_minutes",
                  "split_condition": 263,
                  "yes": 19,
                  "no": 20,
                  "missing": 20,
                  "children": [
                    {
                      "nodeid": 19,
                      "leaf": 0.0777269006
                    },
                    {
                      "nodeid": 20,
                      "leaf": 0.0234255232
                    }
                  ]
                }
              ]
            },
            {
              "nodeid": 6,
              "depth": 2,
              "split": "days",
              "split_condition": 8,
              "yes": 13,
              "no": 14,
              "missing": 14,
              "children": [
                {
                  "nodeid": 13,
                  "leaf": 0.0850804076
                },
                {
                  "nodeid": 14,
                  "depth": 3,
                  "split": "days",
                  "split_condition": 14,
                  "yes": 21,
                  "no": 22,
                  "missing": 22,
                  "children": [
                    {
                      "nodeid": 21,
                      "leaf": -0.0142349275
                    },
                    {
                      "nodeid": 22,
                      "leaf": 0.0336666778
                    }
                  ]
                }
              ]
            }
          ]
        }
      ]
    },
    {
      "nodeid": 0,
      "depth": 0,
      "split": "age_num",
      "split_condition": 37,
      "yes": 1,
      "no": 2,
      "missing": 2,
      "children": [
        {
          "nodeid": 1,
          "depth": 1,
          "split": "days",
          "split_condition": 7,
          "yes": 3,
          "no": 4,
          "missing": 4,
          "children": [
            {
              "nodeid": 3,
              "leaf": 0.0677808225
            },
            {
              "nodeid": 4,
              "depth": 2,
              "split": "age_num",
              "split_condition": 22,
              "yes": 7,
              "no": 8,
              "missing": 8,
              "children": [
                {
                  "nodeid": 7,
                  "depth": 3,
                  "split": "days",
                  "split_condition": 14,
                  "yes": 13,
                  "no": 14,
                  "missing": 14,
                  "children": [
                    {
                      "nodeid": 13,
                      "leaf": -0.0483674295
                    },
                    {
                      "nodeid": 14,
                      "leaf": 0.0903566554
                    }
                  ]
                },
                {
                  "nodeid": 8,
                  "depth": 3,
                  "split": "days",
                  "split_condition": 16,
                  "yes": 15,
                  "no": 16,
                  "missing": 16,
                  "children": [
                    {
                      "nodeid": 15,
                      "leaf": -0.036729347
                    },
                    {
                      "nodeid": 16,
                      "leaf": 0.0166651942
                    }
                  ]
                }
              ]
            }
          ]
        },
        {
          "nodeid": 2,
          "depth": 1,
          "split": "gender",
          "split_condition": 2,
          "yes": 5,
          "no": 6,
          "missing": 6,
          "children": [
            {
              "nodeid": 5,
              "depth": 2,
              "split": "days",
              "split_condition": 14,
              "yes": 9,
              "no": 10,
              "missing": 10,
              "children": [
                {
                  "nodeid": 9,
                  "depth": 3,
                  "split": "min_activity",
                  "split_condition": 2,
                  "yes": 17,
                  "no": 18,
                  "missing": 18,
                  "children": [
                    {
                      "nodeid": 17,
                      "leaf": -0.0361039005
                    },
                    {
                      "nodeid": 18,
                      "leaf": 0.0834029689
                    }
                  ]
                },
                {
                  "nodeid": 10,
                  "depth": 3,
                  "split": "age_num",
                  "split_condition": 52,
                  "yes": 19,
                  "no": 20,
                  "missing": 20,
                  "children": [
                    {
                      "nodeid": 19,
                      "leaf": 0.0726554841
                    },
                    {
                      "nodeid": 20,
                      "leaf": -0.00983517803
                    }
                  ]
                }
              ]
            },
            {
              "nodeid": 6,
              "depth": 2,
              "split": "night_mean",
              "split_condition": 93.4129639,
              "yes": 11,
              "no": 12,
              "missing": 12,
              "children": [
                {
                  "nodeid": 11,
                  "depth": 3,
                  "split": "p25",
                  "split_condition": 2,
                  "yes": 21,
                  "no": 22,
                  "missing": 22,
                  "children": [
                    {
                      "nodeid": 21,
                      "leaf": 0.0731464401
                    },
                    {
                      "nodeid": 22,
                      "leaf": 0.0122816442
                    }
                  ]
                },
                {
                  "nodeid": 12,
                  "depth": 3,
                  "split": "std_activity",
                  "split_condition": 360.761261,
                  "yes": 23,
                  "no": 24,
                  "missing": 24,
                  "children": [
                    {
                      "nodeid": 23,
                      "leaf": 0.0452621691
                    },
                    {
                      "nodeid": 24,
                      "leaf": -0.0428968035
                    }
                  ]
                }
              ]
            }
          ]
        }
      ]
    },
    {
      "nodeid": 0,
      "depth": 0,
      "split": "rest_period_count",
      "split_condition": 70,
      "yes": 1,
      "no": 2,
      "missing": 2,
      "children": [
        {
          "nodeid": 1,
          "depth": 1,
          "split": "days",
          "split_condition": 16,
          "yes": 3,
          "no": 4,
          "missing": 4,
          "children": [
            {
              "nodeid": 3,
              "depth": 2,
              "split": "inactive_minutes",
              "split_condition": 1435,
              "yes": 7,
              "no": 8,
              "missing": 8,
              "children": [
                {
                  "nodeid": 7,
                  "depth": 3,
                  "split": "p75",
                  "split_condition": 2,
                  "yes": 15,
                  "no": 16,
                  "missing": 16,
                  "children": [
                    {
                      "nodeid": 15,
                      "leaf": 0.0144388769
                    },
                    {
                      "nodeid": 16,
                      "leaf": -0.0335073285
                    }
                  ]
                },
                {
                  "nodeid": 8,
                  "leaf": -0.0544912592
                }
              ]
            },
            {
              "nodeid": 4,
              "depth": 2,
              "split": "days",
              "split_condition": 20,
              "yes": 9,
              "no": 10,
              "missing": 10,
              "children": [
                {
                  "nodeid": 9,
                  "depth": 3,
                  "split": "std_activity",
                  "split_condition": 342.578156,
                  "yes": 17,
                  "no": 18,
                  "missing": 18,
                  "children": [
                    {
                      "nodeid": 17,
                      "leaf": 0.0660975873
                    },
                    {
                      "nodeid": 18,
                      "leaf": 0.00888586324
                    }
                  ]
                },
                {
                  "nodeid": 10,
                  "leaf": -0.0462298356
                }
              ]
            }
          ]
        },
        {
          "nodeid": 2,
          "depth": 1,
          "split": "very_active_minutes",
          "split_condition": 85,
          "yes": 5,
          "no": 6,
          "missing": 6,
          "children": [
            {
              "nodeid": 5,
              "depth": 2,
              "split": "p75",
              "split_condition": 2,
              "yes": 11,
              "no": 12,
              "missing": 12,
              "children": [
                {
                  "nodeid": 11,
                  "leaf": 0.0234336313
                },
                {
                  "nodeid": 12,
                  "depth": 3,
                  "split": "active_minutes",
                  "split_condition": 263,
                  "yes": 19,
                  "no": 20,
                  "missing": 20,
                  "children": [
                    {
                      "nodeid": 19,
                      "leaf": 0.0752043948
                    },
                    {
                      "nodeid": 20,
                      "leaf": 0.0216107145
                    }
                  ]
                }
              ]
            },
            {
              "nodeid": 6,
              "depth": 2,
              "split": "days",
              "split_condition": 8,
              "yes": 13,
              "no": 14,
              "missing": 14,
              "children": [
                {
                  "nodeid": 13,
                  "leaf": 0.0816817507
                },
                {
                  "nodeid": 14,
                  "depth": 3,
                  "split": "days",
                  "split_condition": 14,
                  "yes": 21,
                  "no": 22,
                  "missing": 22,
                  "children": [
                    {
                      "nodeid": 21,
                      "leaf": -0.0135016534
                    },
                    {
                      "nodeid": 22,
                      "leaf": 0.0309867207
                    }
                  ]
                }
              ]
            }
          ]
        }
      ]
    },
    {
      "nodeid": 0,
      "depth": 0,
      "split": "age_num",
      "split_condition": 37,
      "yes": 1,
      "no": 2,
      "missing": 2,
      "children": [
        {
          "nodeid": 1,
          "depth": 1,
          "split": "days",
          "split_condition": 7,
          "yes": 3,
          "no": 4,
          "missing": 4,
          "children": [
            {
              "nodeid": 3,
              "leaf": 0.0641598701
            },
            {
              "nodeid": 4,
              "depth": 2,
              "split": "age_num",
              "split_condition": 22,
              "yes": 7,
              "no": 8,
              "missing": 8,
              "children": [
                {
                  "nodeid": 7,
                  "depth": 3,
                  "split": "days",
                  "split_condition": 14,
                  "yes": 13,
                  "no": 14,
                  "missing": 14,
                  "children": [
                    {
                      "nodeid": 13,
                      "leaf": -0.0472126789
                    },
                    {
                      "nodeid": 14,
                      "leaf": 0.0853208527
                    }
                  ]
                },
                {
                  "nodeid": 8,
                  "depth": 3,
                  "split": "longest_rest_period",
                  "split_condition": 32,
                  "yes": 15,
                  "no": 16,
                  "missing": 16,
                  "children": [
                    {
                      "nodeid": 15,
                      "leaf": 0.0443994664
                    },
                    {
                      "nodeid": 16,
                      "leaf": -0.0325521715
                    }
                  ]
                }
              ]
            }
          ]
        },
        {
          "nodeid": 2,
          "depth": 1,
          "split": "gender",
          "split_condition": 2,
          "yes": 5,
          "no": 6,
          "missing": 6,
          "children": [
            {
              "nodeid": 5,
              "depth": 2,
              "split": "days",
              "split_condition": 14,
              "yes": 9,
              "no": 10,
              "missing": 10,
              "children": [
                {
                  "nodeid": 9,
                  "depth": 3,
                  "split": "min_activity",
                  "split_condition": 2,
                  "yes": 17,
                  "no": 18,
                  "missing": 18,
                  "children": [
                    {
                      "nodeid": 17,
                      "leaf": -0.0350436531
                    },
                    {
                      "nodeid": 18,
                      "leaf": 0.0798478052
                    }
                  ]
                },
                {
                  "nodeid": 10,
                  "depth": 3,
                  "split": "age_num",
                  "split_condition": 52,
                  "yes": 19,
                  "no": 20,
                  "missing": 20,
                  "children": [
                    {
                      "nodeid": 19,
                      "leaf": 0.0697281286
                    },
                    {
                      "nodeid": 20,
                      "leaf": -0.0105001088
                    }
                  ]
                }
              ]
            },
            {
              "nodeid": 6,
              "depth": 2,
              "split": "day_mean",
              "split_condition": 304.882233,
              "yes": 11,
              "no": 12,
              "missing": 12,
              "children": [
                {
                  "nodeid": 11,
                  "depth": 3,
                  "split": "longest_rest_period",
                  "split_condition": 594,
                  "yes": 21,
                  "no": 22,
                  "missing": 22,
                  "children": [
                    {
                      "nodeid": 21,
                      "leaf": 0.0672334209
                    },
                    {
                      "nodeid": 22,
                      "leaf": -0.00511799892
                    }
                  ]
                },
                {
                  "nodeid": 12,
                  "depth": 3,
                  "split": "night_mean",
                  "split_condition": 96.7574081,
                  "yes": 23,
                  "no": 24,
                  "missing": 24,
                  "children": [
                    {
                      "nodeid": 23,
                      "leaf": 0.0370725393
                    },
                    {
                      "nodeid": 24,
                      "leaf": -0.0385983959
                    }
                  ]
                }
              ]
            }
          ]
        }
      ]
    },
    {
      "nodeid": 0,
      "depth": 0,
      "split": "rest_period_count",
      "split_condition": 70,
      "yes": 1,
      "no": 2,
      "missing": 2,
      "children": [
        {
          "nodeid": 1,
          "depth": 1,
          "split": "days",
          "split_condition": 16,
          "yes": 3,
          "no": 4,
          "missing": 4,
          "children": [
            {
              "nodeid": 3,
              "depth": 2,
              "split": "inactive_minutes",
              "split_condition": 1435,
              "yes": 7,
              "no": 8,
              "missing": 8,
              "children": [
                {
                  "nodeid": 7,
                  "depth": 3,
                  "split": "p75",
                  "split_condition": 2,
                  "yes": 15,
                  "no": 16,
                  "missing": 16,
                  "children": [
                    {
                      "nodeid": 15,
                      "leaf": 0.0139370253
                    },
                    {
                      "nodeid": 16,
                      "leaf": -0.0322722495
                    }
                  ]
                },
                {
                  "nodeid": 8,
                  "leaf": -0.0532377437
                }
              ]
            },
            {
              "nodeid": 4,
              "depth": 2,
              "split": "days",
              "split_condition": 20,
              "yes": 9,
              "no": 10,
              "missing": 10,
              "children": [
