{
  "version": "1.0.0",
  "modelType": "xgboost_binary_classifier",
  "task": "depression_risk",
  "applySigmoid": true,
  "features": [
    "mean_activity",
    "std_activity",
    "median_activity",
    "max_activity",
    "min_activity",
    "activity_range",
    "activity_cv",
    "p10",
    "p25",
    "p50",
    "p75",
    "p90",
    "inactive_minutes",
    "active_minutes",
    "very_active_minutes",
    "day_mean",
    "night_mean",
    "day_night_ratio",
    "longest_rest_period",
    "rest_period_count",
    "activity_entropy",
    "gender",
    "days",
    "age_num"
  ],
  "numFeatures": 24,
  "numTrees": 200,
  "baseScore": -0.601410849560669,
  "learningRate": 0.05,
  "normalization": {
    "mean": {
      "mean_activity": 0.0,
      "std_activity": 0.0,
      "median_activity": 0.0,
      "max_activity": 0.0,
      "min_activity": 0.0,
      "activity_range": 0.0,
      "activity_cv": 0.0,
      "p10": 0.0,
      "p25": 0.0,
      "p50": 0.0,
      "p75": 0.0,
      "p90": 0.0,
      "inactive_minutes": 0.0,
      "active_minutes": 0.0,
      "very_active_minutes": 0.0,
      "day_mean": 0.0,
      "night_mean": 0.0,
      "day_night_ratio": 0.0,
      "longest_rest_period": 0.0,
      "rest_period_count": 0.0,
      "activity_entropy": 0.0,
      "gender": 0.0,
      "days": 0.0,
      "age_num": 0.0
    },
    "std": {
      "mean_activity": 1.0,
      "std_activity": 1.0,
      "median_activity": 1.0,
      "max_activity": 1.0,
      "min_activity": 1.0,
      "activity_range": 1.0,
      "activity_cv": 1.0,
      "p10": 1.0,
      "p25": 1.0,
      "p50": 1.0,
      "p75": 1.0,
      "p90": 1.0,
      "inactive_minutes": 1.0,
      "active_minutes": 1.0,
      "very_active_minutes": 1.0,
      "day_mean": 1.0,
      "night_mean": 1.0,
      "day_night_ratio": 1.0,
      "longest_rest_period": 1.0,
      "rest_period_count": 1.0,
      "activity_entropy": 1.0,
      "gender": 1.0,
      "days": 1.0,
      "age_num": 1.0
    }
  },
  "decisionThreshold": 0.4,
  "metrics": {
    "cv_accuracy": 0.9257,
    "cv_precision": 0.8738,
    "cv_recall": 0.9235,
    "cv_f1": 0.898,
    "cv_auc_roc": 0.9668
  },
  "importances": {
    "mean_activity": 0.095382,
    "std_activity": 0.027106,
    "median_activity": 0.051222,
    "max_activity": 0.021017,
    "min_activity": 0.063949,
    "activity_range": 0.0,
    "activity_cv": 0.024287,
    "p10": 0.015158,
    "p25": 0.0502,
    "p50": 0.0,
    "p75": 0.021622,
    "p90": 0.01467,
    "inactive_minutes": 0.038645,
    "active_minutes": 0.01201,
    "very_active_minutes": 0.120487,
    "day_mean": 0.035854,
    "night_mean": 0.040323,
    "day_night_ratio": 0.024219,
    "longest_rest_period": 0.040014,
    "rest_period_count": 0.102847,
    "activity_entropy": 0.022918,
    "gender": 0.060983,
    "days": 0.064641,
    "age_num": 0.052444
  },
  "riskLevels": {
    "minimal": {
      "min": 0,
      "max": 30,
      "label": "Minimal",
      "color": "#35e27e"
    },
    "mild": {
      "min": 30,
      "max": 50,
      "label": "Mild",
      "color": "#9B8EC4"
    },
    "moderate": {
      "min": 50,
      "max": 70,
      "label": "Moderate",
      "color": "#E8A87C"
    },
    "high": {
      "min": 70,
      "max": 100,
      "label": "High",
      "color": "#C4897B"
    }
  },
  "trainingNotes": "Trained on Depresjon actigraphy dataset (55 subjects: 23 condition, 32 control). Daily activity aggregates computed from per-minute wrist actigraphy. XGBoost binary classifier; no feature scaling applied. Tree split conditions are in raw feature space \u2014 TS inference uses identity normalization.",
  "trees": [
    {
      "nodeid": 0,
      "depth": 0,
      "split": "rest_period_count",
      "split_condition": 101,
      "yes": 1,
      "no": 2,
      "missing": 2,
      "children": [
        {
          "nodeid": 1,
          "depth": 1,
          "split": "days",
          "split_condition": 14,
          "yes": 3,
          "no": 4,
          "missing": 4,
          "children": [
            {
              "nodeid": 3,
              "depth": 2,
              "split": "days",
              "split_condition": 8,
              "yes": 7,
              "no": 8,
              "missing": 8,
              "children": [
                {
                  "nodeid": 7,
                  "leaf": 0.105685726
                },
                {
                  "nodeid": 8,
                  "depth": 3,
                  "split": "day_night_ratio",
                  "split_condition": 6.31385946,
                  "yes": 13,
                  "no": 14,
                  "missing": 14,
                  "children": [
                    {
                      "nodeid": 13,
                      "leaf": -0.0549105294
                    },
                    {
                      "nodeid": 14,
                      "leaf": -0.00737228384
                    }
                  ]
                }
              ]
            },
            {
              "nodeid": 4,
              "depth": 2,
              "split": "days",
              "split_condition": 20,
              "yes": 9,
              "no": 10,
              "missing": 10,
              "children": [
                {
                  "nodeid": 9,
                  "depth": 3,
                  "split": "days",
                  "split_condition": 16,
                  "yes": 15,
                  "no": 16,
                  "missing": 16,
                  "children": [
                    {
                      "nodeid": 15,
                      "leaf": 0.00830919296
                    },
                    {
                      "nodeid": 16,
                      "leaf": 0.110710874
                    }
                  ]
                },
                {
                  "nodeid": 10,
                  "leaf": -0.0645682737
                }
              ]
            }
          ]
        },
        {
          "nodeid": 2,
          "depth": 1,
          "split": "very_active_minutes",
          "split_condition": 84,
          "yes": 5,
          "no": 6,
          "missing": 6,
          "children": [
            {
              "nodeid": 5,
              "leaf": 0.131553084
            },
            {
              "nodeid": 6,
              "depth": 2,
              "split": "age_num",
              "split_condition": 37,
              "yes": 11,
              "no": 12,
              "missing": 12,
              "children": [
                {
                  "nodeid": 11,
                  "depth": 3,
                  "split": "days",
                  "split_condition": 16,
                  "yes": 17,
                  "no": 18,
                  "missing": 18,
                  "children": [
                    {
                      "nodeid": 17,
                      "leaf": -0.0263312794
                    },
                    {
                      "nodeid": 18,
                      "leaf": 0.0868384391
                    }
                  ]
                },
                {
                  "nodeid": 12,
                  "depth": 3,
                  "split": "night_mean",
                  "split_condition": 86.659256,
                  "yes": 19,
                  "no": 20,
                  "missing": 20,
                  "children": [
                    {
                      "nodeid": 19,
                      "leaf": 0.071704492
                    },
                    {
                      "nodeid": 20,
                      "leaf": 0.0014614081
                    }
                  ]
                }
              ]
            }
          ]
        }
      ]
    },
    {
      "nodeid": 0,
      "depth": 0,
      "split": "rest_period_count",
      "split_condition": 93,
      "yes": 1,
      "no": 2,
      "missing": 2,
      "children": [
        {
          "nodeid": 1,
          "depth": 1,
          "split": "days",
          "split_condition": 16,
          "yes": 3,
          "no": 4,
          "missing": 4,
          "children": [
            {
              "nodeid": 3,
              "depth": 2,
              "split": "longest_rest_period",
              "split_condition": 726,
              "yes": 7,
              "no": 8,
              "missing": 8,
              "children": [
                {
                  "nodeid": 7,
                  "depth": 3,
                  "split": "very_active_minutes",
                  "split_condition": 133,
                  "yes": 13,
                  "no": 14,
                  "missing": 14,
                  "children": [
                    {
                      "nodeid": 13,
                      "leaf": 0.0175052565
                    },
                    {
                      "nodeid": 14,
                      "leaf": -0.0456070565
                    }
                  ]
                },
                {
                  "nodeid": 8,
                  "depth": 3,
                  "split": "max_activity",
                  "split_condition": 1341,
                  "yes": 15,
                  "no": 16,
                  "missing": 16,
                  "children": [
                    {
                      "nodeid": 15,
                      "leaf": -0.0710554197
                    },
                    {
                      "nodeid": 16,
                      "leaf": -0.0259875804
                    }
                  ]
                }
              ]
            },
            {
              "nodeid": 4,
              "depth": 2,
              "split": "days",
              "split_condition": 20,
              "yes": 9,
              "no": 10,
              "missing": 10,
              "children": [
                {
                  "nodeid": 9,
                  "depth": 3,
                  "split": "inactive_minutes",
                  "split_condition": 396,
                  "yes": 17,
                  "no": 18,
                  "missing": 18,
                  "children": [
                    {
                      "nodeid": 17,
                      "leaf": -0.000655788754
                    },
                    {
                      "nodeid": 18,
                      "leaf": 0.119840376
                    }
                  ]
                },
                {
                  "nodeid": 10,
                  "leaf": -0.061298877
                }
              ]
            }
          ]
        },
        {
          "nodeid": 2,
          "depth": 1,
          "split": "very_active_minutes",
          "split_condition": 84,
          "yes": 5,
          "no": 6,
          "missing": 6,
          "children": [
            {
              "nodeid": 5,
              "leaf": 0.117974639
            },
            {
              "nodeid": 6,
              "depth": 2,
              "split": "median_activity",
              "split_condition": 73,
              "yes": 11,
              "no": 12,
              "missing": 12,
              "children": [
                {
                  "nodeid": 11,
                  "depth": 3,
                  "split": "age_num",
                  "split_condition": 37,
                  "yes": 19,
                  "no": 20,
                  "missing": 20,
                  "children": [
                    {
                      "nodeid": 19,
                      "leaf": 0.00325315562
                    },
                    {
                      "nodeid": 20,
                      "leaf": 0.0621105134
                    }
                  ]
                },
                {
                  "nodeid": 12,
                  "depth": 3,
                  "split": "day_night_ratio",
                  "split_condition": 4.2812438,
                  "yes": 21,
                  "no": 22,
                  "missing": 22,
                  "children": [
                    {
                      "nodeid": 21,
                      "leaf": -0.0386871062
                    },
                    {
                      "nodeid": 22,
                      "leaf": 0.0260960292
                    }
                  ]
                }
              ]
            }
          ]
        }
      ]
    },
    {
      "nodeid": 0,
      "depth": 0,
      "split": "rest_period_count",
      "split_condition": 93,
      "yes": 1,
      "no": 2,
      "missing": 2,
      "children": [
        {
          "nodeid": 1,
          "depth": 1,
          "split": "days",
          "split_condition": 16,
          "yes": 3,
          "no": 4,
          "missing": 4,
          "children": [
            {
              "nodeid": 3,
              "depth": 2,
              "split": "days",
              "split_condition": 8,
              "yes": 7,
              "no": 8,
              "missing": 8,
              "children": [
                {
                  "nodeid": 7,
                  "leaf": 0.0930889323
                },
                {
                  "nodeid": 8,
                  "depth": 3,
                  "split": "inactive_minutes",
                  "split_condition": 1297,
                  "yes": 13,
                  "no": 14,
                  "missing": 14,
                  "children": [
                    {
                      "nodeid": 13,
                      "leaf": -0.0258718133
                    },
                    {
                      "nodeid": 14,
                      "leaf": -0.0654960275
                    }
                  ]
                }
              ]
            },
            {
              "nodeid": 4,
              "depth": 2,
              "split": "days",
              "split_condition": 20,
              "yes": 9,
              "no": 10,
              "missing": 10,
              "children": [
                {
                  "nodeid": 9,
                  "depth": 3,
                  "split": "inactive_minutes",
                  "split_condition": 396,
                  "yes": 15,
                  "no": 16,
                  "missing": 16,
                  "children": [
                    {
                      "nodeid": 15,
                      "leaf": -0.000634434051
                    },
                    {
                      "nodeid": 16,
                      "leaf": 0.11169716
                    }
                  ]
                },
                {
                  "nodeid": 10,
                  "leaf": -0.0598259941
                }
              ]
            }
          ]
        },
        {
          "nodeid": 2,
          "depth": 1,
          "split": "very_active_minutes",
          "split_condition": 84,
          "yes": 5,
          "no": 6,
          "missing": 6,
          "children": [
            {
              "nodeid": 5,
              "leaf": 0.109688297
            },
            {
              "nodeid": 6,
              "depth": 2,
              "split": "median_activity",
              "split_condition": 73,
              "yes": 11,
              "no": 12,
              "missing": 12,
              "children": [
                {
                  "nodeid": 11,
                  "depth": 3,
                  "split": "days",
                  "split_condition": 16,
                  "yes": 17,
                  "no": 18,
                  "missing": 18,
                  "children": [
                    {
                      "nodeid": 17,
                      "leaf": 0.0268971808
                    },
                    {
                      "nodeid": 18,
                      "leaf": 0.10740149
                    }
                  ]
                },
                {
                  "nodeid": 12,
                  "depth": 3,
                  "split": "activity_cv",
                  "split_condition": 1.40212286,
                  "yes": 19,
                  "no": 20,
                  "missing": 20,
                  "children": [
                    {
                      "nodeid": 19,
                      "leaf": 0.00867705233
                    },
                    {
                      "nodeid": 20,
                      "leaf": -0.049458012
                    }
                  ]
                }
              ]
            }
          ]
        }
      ]
    },
    {
      "nodeid": 0,
      "depth": 0,
      "split": "rest_period_count",
      "split_condition": 93,
      "yes": 1,
      "no": 2,
      "missing": 2,
      "children": [
        {
          "nodeid": 1,
          "depth": 1,
          "split": "days",
          "split_condition": 14,
          "yes": 3,
          "no": 4,
          "missing": 4,
          "children": [
            {
              "nodeid": 3,
              "depth": 2,
              "split": "days",
              "split_condition": 8,
              "yes": 7,
              "no": 8,
              "missing": 8,
              "children": [
                {
                  "nodeid": 7,
                  "leaf": 0.0884797871
                },
                {
                  "nodeid": 8,
                  "depth": 3,
                  "split": "day_night_ratio",
                  "split_condition": 6.31385946,
                  "yes": 15,
                  "no": 16,
                  "missing": 16,
                  "children": [
                    {
                      "nodeid": 15,
                      "leaf": -0.051806163
                    },
                    {
                      "nodeid": 16,
                      "leaf": -0.00822799467
                    }
                  ]
                }
              ]
            },
            {
              "nodeid": 4,
              "depth": 2,
              "split": "days",
              "split_condition": 20,
              "yes": 9,
              "no": 10,
              "missing": 10,
              "children": [
                {
                  "nodeid": 9,
                  "depth": 3,
                  "split": "day_mean",
                  "split_condition": 0.0211111102,
                  "yes": 17,
                  "no": 18,
                  "missing": 18,
                  "children": [
                    {
                      "nodeid": 17,
                      "leaf": -0.0446712114
                    },
                    {
                      "nodeid": 18,
                      "leaf": 0.0661573261
                    }
                  ]
                },
                {
                  "nodeid": 10,
                  "leaf": -0.0584471598
                }
              ]
            }
          ]
        },
        {
          "nodeid": 2,
          "depth": 1,
          "split": "very_active_minutes",
          "split_condition": 84,
          "yes": 5,
          "no": 6,
          "missing": 6,
          "children": [
            {
              "nodeid": 5,
              "depth": 2,
              "split": "rest_period_count",
              "split_condition": 98,
              "yes": 11,
              "no": 12,
              "missing": 12,
              "children": [
                {
                  "nodeid": 11,
                  "leaf": 0.0392311476
                },
                {
                  "nodeid": 12,
                  "leaf": 0.105981149
                }
              ]
            },
            {
              "nodeid": 6,
              "depth": 2,
              "split": "median_activity",
              "split_condition": 73,
              "yes": 13,
              "no": 14,
              "missing": 14,
              "children": [
                {
                  "nodeid": 13,
                  "depth": 3,
                  "split": "age_num",
                  "split_condition": 37,
                  "yes": 19,
                  "no": 20,
                  "missing": 20,
                  "children": [
                    {
                      "nodeid": 19,
                      "leaf": 0.00133805489
                    },
                    {
                      "nodeid": 20,
                      "leaf": 0.0559561327
                    }
                  ]
                },
                {
                  "nodeid": 14,
                  "depth": 3,
                  "split": "day_night_ratio",
                  "split_condition": 4.2812438,
                  "yes": 21,
                  "no": 22,
                  "missing": 22,
                  "children": [
                    {
                      "nodeid": 21,
                      "leaf": -0.0364931226
                    },
                    {
                      "nodeid": 22,
                      "leaf": 0.0251985975
                    }
                  ]
                }
              ]
            }
          ]
        }
      ]
    },
    {
      "nodeid": 0,
      "depth": 0,
      "split": "rest_period_count",
      "split_condition": 93,
      "yes": 1,
      "no": 2,
      "missing": 2,
      "children": [
        {
          "nodeid": 1,
          "depth": 1,
          "split": "days",
          "split_condition": 16,
          "yes": 3,
          "no": 4,
          "missing": 4,
          "children": [
            {
              "nodeid": 3,
              "depth": 2,
              "split": "longest_rest_period",
              "split_condition": 751,
              "yes": 7,
              "no": 8,
              "missing": 8,
              "children": [
                {
                  "nodeid": 7,
                  "depth": 3,
                  "split": "very_active_minutes",
                  "split_condition": 133,
                  "yes": 15,
                  "no": 16,
                  "missing": 16,
                  "children": [
                    {
                      "nodeid": 15,
                      "leaf": 0.0155106261
                    },
                    {
                      "nodeid": 16,
                      "leaf": -0.0419622101
                    }
                  ]
                },
                {
                  "nodeid": 8,
                  "depth": 3,
                  "split": "day_night_ratio",
                  "split_condition": 5.76583958,
                  "yes": 17,
                  "no": 18,
                  "missing": 18,
                  "children": [
                    {
                      "nodeid": 17,
                      "leaf": -0.06643565
                    },
                    {
                      "nodeid": 18,
                      "leaf": -0.0149966693
                    }
                  ]
                }
              ]
            },
            {
              "nodeid": 4,
              "depth": 2,
              "split": "days",
              "split_condition": 20,
              "yes": 9,
              "no": 10,
              "missing": 10,
              "children": [
                {
                  "nodeid": 9,
                  "depth": 3,
                  "split": "inactive_minutes",
                  "split_condition": 396,
                  "yes": 19,
                  "no": 20,
                  "missing": 20,
                  "children": [
                    {
                      "nodeid": 19,
                      "leaf": -0.00276398356
                    },
                    {
                      "nodeid": 20,
                      "leaf": 0.101440273
                    }
                  ]
                },
                {
                  "nodeid": 10,
                  "leaf": -0.0571521781
                }
              ]
            }
          ]
        },
        {
          "nodeid": 2,
          "depth": 1,
          "split": "very_active_minutes",
          "split_condition": 84,
          "yes": 5,
          "no": 6,
          "missing": 6,
          "children": [
            {
              "nodeid": 5,
              "depth": 2,
              "split": "rest_period_count",
              "split_condition": 98,
              "yes": 11,
              "no": 12,
              "missing": 12,
              "children": [
                {
                  "nodeid": 11,
                  "leaf": 0.0378383324
                },
                {
                  "nodeid": 12,
                  "leaf": 0.0999478325
                }
              ]
            },
            {
              "nodeid": 6,
              "depth": 2,
              "split": "median_activity",
              "split_condition": 73,
              "yes": 13,
              "no": 14,
              "missing": 14,
              "children": [
                {
                  "nodeid": 13,
                  "depth": 3,
                  "split": "days",
                  "split_condition": 16,
                  "yes": 21,
                  "no": 22,
                  "missing": 22,
                  "children": [
                    {
                      "nodeid": 21,
                      "leaf": 0.0234779846
                    },
                    {
                      "nodeid": 22,
                      "leaf": 0.0986448452
                    }
                  ]
                },
                {
                  "nodeid": 14,
                  "depth": 3,
                  "split": "activity_cv",
                  "split_condition": 1.40212286,
                  "yes": 23,
                  "no": 24,
                  "missing": 24,
                  "children": [
                    {
                      "nodeid": 23,
                      "leaf": 0.00887519773
                    },
                    {
                      "nodeid": 24,
                      "leaf": -0.0471257754
                    }
                  ]
                }
              ]
            }
          ]
        }
      ]
    },
    {
      "nodeid": 0,
      "depth": 0,
      "split": "age_num",
      "split_condition": 37,
      "yes": 1,
      "no": 2,
      "missing": 2,
      "children": [
        {
          "nodeid": 1,
          "depth": 1,
          "split": "days",
          "split_condition": 7,
          "yes": 3,
          "no": 4,
          "missing": 4,
          "children": [
            {
              "nodeid": 3,
              "leaf": 0.099089168
            },
            {
              "nodeid": 4,
              "depth": 2,
              "split": "days",
              "split_condition": 14,
              "yes": 7,
              "no": 8,
              "missing": 8,
              "children": [
                {
                  "nodeid": 7,
                  "depth": 3,
                  "split": "p75",
                  "split_condition": 640,
                  "yes": 13,
                  "no": 14,
                  "missing": 14,
                  "children": [
                    {
                      "nodeid": 13,
                      "leaf": -0.0501342416
                    },
                    {
                      "nodeid": 14,
                      "leaf": 0.0197179206
                    }
                  ]
                },
                {
                  "nodeid": 8,
                  "depth": 3,
                  "split": "gender",
                  "split_condition": 2,
                  "yes": 15,
                  "no": 16,
                  "missing": 16,
                  "children": [
                    {
                      "nodeid": 15,
                      "leaf": 0.0538693145
                    },
                    {
                      "nodeid": 16,
                      "leaf": -0.0669502243
                    }
                  ]
                }
              ]
            }
          ]
        },
        {
          "nodeid": 2,
          "depth": 1,
          "split": "median_activity",
          "split_condition": 73,
          "yes": 5,
          "no": 6,
          "missing": 6,
          "children": [
            {
              "nodeid": 5,
              "depth": 2,
              "split": "gender",
              "split_condition": 2,
              "yes": 9,
              "no": 10,
              "missing": 10,
              "children": [
                {
                  "nodeid": 9,
                  "depth": 3,
                  "split": "days",
                  "split_condition": 14,
                  "yes": 17,
                  "no": 18,
                  "missing": 18,
                  "children": [
                    {
                      "nodeid": 17,
                      "leaf": -0.018379217
                    },
                    {
                      "nodeid": 18,
                      "leaf": 0.0577437952
                    }
                  ]
                },
                {
                  "nodeid": 10,
                  "depth": 3,
                  "split": "days",
                  "split_condition": 11,
                  "yes": 19,
                  "no": 20,
                  "missing": 20,
                  "children": [
                    {
                      "nodeid": 19,
                      "leaf": -0.0252993088
                    },
                    {
                      "nodeid": 20,
                      "leaf": 0.0926650688
                    }
                  ]
                }
              ]
            },
            {
              "nodeid": 6,
              "depth": 2,
              "split": "min_activity",
              "split_condition": 2,
              "yes": 11,
              "no": 12,
              "missing": 12,
              "children": [
                {
                  "nodeid": 11,
                  "depth": 3,
                  "split": "day_night_ratio",
                  "split_condition": 5.06679296,
                  "yes": 21,
                  "no": 22,
                  "missing": 22,
                  "children": [
                    {
                      "nodeid": 21,
                      "leaf": -0.0435005911
                    },
                    {
                      "nodeid": 22,
                      "leaf": 0.0184460729
                    }
                  ]
                },
                {
                  "nodeid": 12,
                  "leaf": 0.101634584
                }
              ]
            }
          ]
        }
      ]
    },
    {
      "nodeid": 0,
      "depth": 0,
      "split": "rest_period_count",
      "split_condition": 93,
      "yes": 1,
      "no": 2,
      "missing": 2,
      "children": [
        {
          "nodeid": 1,
          "depth": 1,
          "split": "days",
          "split_condition": 14,
          "yes": 3,
          "no": 4,
          "missing": 4,
          "children": [
            {
              "nodeid": 3,
              "depth": 2,
              "split": "days",
              "split_condition": 8,
              "yes": 7,
              "no": 8,
              "missing": 8,
              "children": [
                {
                  "nodeid": 7,
                  "leaf": 0.0836304054
                },
                {
                  "nodeid": 8,
                  "depth": 3,
                  "split": "inactive_minutes",
                  "split_condition": 1382,
                  "yes": 15,
                  "no": 16,
                  "missing": 16,
                  "children": [
                    {
                      "nodeid": 15,
                      "leaf": -0.0304433946
                    },
                    {
                      "nodeid": 16,
                      "leaf": -0.0626019388
                    }
                  ]
                }
              ]
            },
            {
              "nodeid": 4,
              "depth": 2,
              "split": "days",
              "split_condition": 20,
              "yes": 9,
              "no": 10,
              "missing": 10,
              "children": [
                {
                  "nodeid": 9,
                  "depth": 3,
                  "split": "days",
                  "split_condition": 16,
                  "yes": 17,
                  "no": 18,
                  "missing": 18,
                  "children": [
                    {
                      "nodeid": 17,
                      "leaf": 0.000692253641
                    },
                    {
                      "nodeid": 18,
                      "leaf": 0.0794054717
                    }
                  ]
                },
                {
                  "nodeid": 10,
                  "leaf": -0.057080891
                }
              ]
            }
          ]
        },
        {
          "nodeid": 2,
          "depth": 1,
          "split": "very_active_minutes",
          "split_condition": 84,
          "yes": 5,
          "no": 6,
          "missing": 6,
          "children": [
            {
              "nodeid": 5,
              "depth": 2,
              "split": "rest_period_count",
              "split_condition": 98,
              "yes": 11,
              "no": 12,
              "missing": 12,
              "children": [
                {
                  "nodeid": 11,
                  "leaf": 0.0352598019
                },
                {
                  "nodeid": 12,
                  "leaf": 0.0927601159
                }
              ]
            },
            {
              "nodeid": 6,
              "depth": 2,
              "split": "days",
              "split_condition": 8,
              "yes": 13,
              "no": 14,
              "missing": 14,
              "children": [
                {
                  "nodeid": 13,
                  "leaf": 0.103432894
                },
                {
                  "nodeid": 14,
                  "depth": 3,
                  "split": "days",
                  "split_condition": 14,
                  "yes": 19,
                  "no": 20,
                  "missing": 20,
                  "children": [
                    {
                      "nodeid": 19,
                      "leaf": -0.00583100831
                    },
                    {
                      "nodeid": 20,
                      "leaf": 0.0488973074
                    }
                  ]
                }
              ]
            }
          ]
        }
      ]
    },
    {
      "nodeid": 0,
      "depth": 0,
      "split": "age_num",
      "split_condition": 37,
      "yes": 1,
      "no": 2,
      "missing": 2,
      "children": [
        {
          "nodeid": 1,
          "depth": 1,
          "split": "days",
          "split_condition": 7,
          "yes": 3,
          "no": 4,
          "missing": 4,
          "children": [
            {
              "nodeid": 3,
              "leaf": 0.0891964138
            },
            {
              "nodeid": 4,
              "depth": 2,
              "split": "rest_period_count",
              "split_condition": 72,
              "yes": 7,
              "no": 8,
              "missing": 8,
              "children": [
                {
                  "nodeid": 7,
                  "depth": 3,
                  "split": "days",
                  "split_condition": 16,
                  "yes": 13,
                  "no": 14,
                  "missing": 14,
                  "children": [
                    {
                      "nodeid": 13,
                      "leaf": -0.0564434528
                    },
                    {
                      "nodeid": 14,
                      "leaf": -0.00698505808
                    }
                  ]
                },
                {
                  "nodeid": 8,
                  "depth": 3,
                  "split": "very_active_minutes",
                  "split_condition": 96,
                  "yes": 15,
                  "no": 16,
                  "missing": 16,
                  "children": [
                    {
                      "nodeid": 15,
                      "leaf": 0.0753144398
                    },
                    {
                      "nodeid": 16,
                      "leaf": -0.0238326397
                    }
                  ]
                }
              ]
            }
          ]
        },
        {
          "nodeid": 2,
          "depth": 1,
          "split": "gender",
          "split_condition": 2,
          "yes": 5,
          "no": 6,
          "missing": 6,
          "children": [
            {
              "nodeid": 5,
              "depth": 2,
              "split": "days",
              "split_condition": 14,
              "yes": 9,
              "no": 10,
              "missing": 10,
              "children": [
                {
                  "nodeid": 9,
                  "depth": 3,
                  "split": "min_activity",
                  "split_condition": 2,
                  "yes": 17,
                  "no": 18,
                  "missing": 18,
                  "children": [
                    {
                      "nodeid": 17,
                      "leaf": -0.0418011136
                    },
                    {
                      "nodeid": 18,
                      "leaf": 0.0990097523
                    }
                  ]
                },
                {
                  "nodeid": 10,
                  "depth": 3,
                  "split": "age_num",
                  "split_condition": 52,
                  "yes": 19,
                  "no": 20,
                  "missing": 20,
                  "children": [
                    {
                      "nodeid": 19,
                      "leaf": 0.097752884
                    },
                    {
                      "nodeid": 20,
                      "leaf": -0.00562003534
                    }
                  ]
                }
              ]
            },
            {
              "nodeid": 6,
              "depth": 2,
              "split": "day_mean",
              "split_condition": 307.438904,
              "yes": 11,
              "no": 12,
              "missing": 12,
              "children": [
                {
                  "nodeid": 11,
                  "depth": 3,
                  "split": "p25",
                  "split_condition": 2,
                  "yes": 21,
                  "no": 22,
                  "missing": 22,
                  "children": [
                    {
                      "nodeid": 21,
                      "leaf": 0.0976835713
                    },
                    {
                      "nodeid": 22,
                      "leaf": 0.0279621426
                    }
                  ]
                },
                {
                  "nodeid": 12,
                  "depth": 3,
                  "split": "night_mean",
                  "split_condition": 96.6351852,
                  "yes": 23,
                  "no": 24,
                  "missing": 24,
                  "children": [
                    {
                      "nodeid": 23,
                      "leaf": 0.0521681383
                    },
                    {
                      "nodeid": 24,
                      "leaf": -0.0468304045
                    }
                  ]
                }
              ]
            }
          ]
        }
      ]
    },
    {
      "nodeid": 0,
      "depth": 0,
      "split": "rest_period_count",
      "split_condition": 93,
      "yes": 1,
      "no": 2,
      "missing": 2,
      "children": [
        {
          "nodeid": 1,
          "depth": 1,
          "split": "days",
          "split_condition": 14,
          "yes": 3,
          "no": 4,
          "missing": 4,
          "children": [
            {
              "nodeid": 3,
              "depth": 2,
              "split": "days",
              "split_condition": 8,
              "yes": 7,
              "no": 8,
              "missing": 8,
              "children": [
                {
                  "nodeid": 7,
                  "leaf": 0.0797564313
                },
                {
                  "nodeid": 8,
                  "depth": 3,
                  "split": "day_night_ratio",
                  "split_condition": 6.31385946,
                  "yes": 15,
                  "no": 16,
                  "missing": 16,
                  "children": [
                    {
                      "nodeid": 15,
                      "leaf": -0.0460865833
                    },
                    {
                      "nodeid": 16,
                      "leaf": -0.00464739604
                    }
                  ]
                }
              ]
            },
            {
              "nodeid": 4,
              "depth": 2,
              "split": "days",
              "split_condition": 20,
              "yes": 9,
              "no": 10,
              "missing": 10,
              "children": [
                {
                  "nodeid": 9,
                  "depth": 3,
                  "split": "activity_entropy",
                  "split_condition": 0.01518548,
                  "yes": 17,
                  "no": 18,
                  "missing": 18,
                  "children": [
                    {
                      "nodeid": 17,
                      "leaf": -0.0369574614
                    },
                    {
                      "nodeid": 18,
                      "leaf": 0.0554702543
                    }
                  ]
                },
                {
                  "nodeid": 10,
                  "leaf": -0.0556092672
                }
              ]
            }
          ]
        },
        {
          "nodeid": 2,
          "depth": 1,
          "split": "very_active_minutes",
          "split_condition": 84,
          "yes": 5,
          "no": 6,
          "missing": 6,
          "children": [
            {
              "nodeid": 5,
              "depth": 2,
              "split": "rest_period_count",
              "split_condition": 98,
              "yes": 11,
              "no": 12,
              "missing": 12,
              "children": [
                {
                  "nodeid": 11,
                  "leaf": 0.0324686877
                },
                {
                  "nodeid": 12,
                  "leaf": 0.0863240138
                }
              ]
            },
            {
              "nodeid": 6,
              "depth": 2,
              "split": "days",
              "split_condition": 8,
              "yes": 13,
              "no": 14,
              "missing": 14,
              "children": [
                {
                  "nodeid": 13,
                  "leaf": 0.0965745747
                },
                {
                  "nodeid": 14,
                  "depth": 3,
                  "split": "days",
                  "split_condition": 14,
                  "yes": 19,
                  "no": 20,
                  "missing": 20,
                  "children": [
                    {
                      "nodeid": 19,
                      "leaf": -0.00600121357
                    },
                    {
                      "nodeid": 20,
                      "leaf": 0.0452363156
                    }
                  ]
                }
              ]
            }
          ]
        }
      ]
    },
    {
      "nodeid": 0,
      "depth": 0,
      "split": "age_num",
      "split_condition": 37,
      "yes": 1,
      "no": 2,
      "missing": 2,
      "children": [
        {
          "nodeid": 1,
          "depth": 1,
          "split": "days",
          "split_condition": 7,
          "yes": 3,
          "no": 4,
          "missing": 4,
          "children": [
            {
              "nodeid": 3,
              "leaf": 0.0813153461
            },
            {
              "nodeid": 4,
              "depth": 2,
              "split": "days",
              "split_condition": 14,
              "yes": 7,
              "no": 8,
              "missing": 8,
              "children": [
                {
                  "nodeid": 7,
                  "depth": 3,
                  "split": "p75",
                  "split_condition": 640,
                  "yes": 13,
                  "no": 14,
                  "missing": 14,
                  "children": [
                    {
                      "nodeid": 13,
                      "leaf": -0.0462114662
                    },
                    {
                      "nodeid": 14,
                      "leaf": 0.0229440257
                    }
                  ]
                },
                {
                  "nodeid": 8,
                  "depth": 3,
                  "split": "gender",
                  "split_condition": 2,
                  "yes": 15,
                  "no": 16,
                  "missing": 16,
                  "children": [
                    {
                      "nodeid": 15,
                      "leaf": 0.0498434901
                    },
                    {
                      "nodeid": 16,
                      "leaf": -0.0653929338
                    }
                  ]
                }
              ]
            }
          ]
        },
        {
          "nodeid": 2,
          "depth": 1,
          "split": "gender",
          "split_condition": 2,
          "yes": 5,
          "no": 6,
          "missing": 6,
          "children": [
            {
              "nodeid": 5,
              "depth": 2,
              "split": "days",
              "split_condition": 14,
              "yes": 9,
              "no": 10,
              "missing": 10,
              "children": [
                {
                  "nodeid": 9,
                  "depth": 3,
                  "split": "min_activity",
                  "split_condition": 2,
                  "yes": 17,
                  "no": 18,
                  "missing": 18,
                  "children": [
                    {
                      "nodeid": 17,
                      "leaf": -0.0402803235
                    },
                    {
                      "nodeid": 18,
                      "leaf": 0.0946938843
                    }
                  ]
                },
                {
                  "nodeid": 10,
                  "depth": 3,
                  "split": "age_num",
                  "split_condition": 52,
                  "yes": 19,
                  "no": 20,
                  "missing": 20,
                  "children": [
                    {
                      "nodeid": 19,
                      "leaf": 0.0908122137
                    },
                    {
                      "nodeid": 20,
                      "leaf": -0.00769809633
                    }
                  ]
                }
              ]
            },
            {
              "nodeid": 6,
              "depth": 2,
              "split": "mean_activity",
              "split_condition": 203.681946,
              "yes": 11,
              "no": 12,
              "missing": 12,
              "children": [
                {
                  "nodeid": 11,
                  "depth": 3,
                  "split": "rest_period_count",
                  "split_condition": 63,
                  "yes": 21,
                  "no": 22,
                  "missing": 22,
                  "children": [
                    {
                      "nodeid": 21,
                      "leaf": 0.0311347842
                    },
                    {
                      "nodeid": 22,
                      "leaf": 0.0976782963
                    }
                  ]
                },
                {
                  "nodeid": 12,
                  "depth": 3,
                  "split": "night_mean",
                  "split_condition": 93.4129639,
                  "yes": 23,
                  "no": 24,
                  "missing": 24,
                  "children": [
                    {
                      "nodeid": 23,
                      "leaf": 0.0501641519
                    },
                    {
                      "nodeid": 24,
                      "leaf": -0.0304074865
                    }
                  ]
                }
              ]
            }
          ]
        }
      ]
    },
    {
      "nodeid": 0,
      "depth": 0,
      "split": "rest_period_count",
      "split_condition": 93,
      "yes": 1,
      "no": 2,
      "missing": 2,
      "children": [
        {
          "nodeid": 1,
          "depth": 1,
          "split": "days",
          "split_condition": 14,
          "yes": 3,
          "no": 4,
          "missing": 4,
          "children": [
            {
              "nodeid": 3,
              "depth": 2,
              "split": "days",
              "split_condition": 8,
              "yes": 7,
              "no": 8,
              "missing": 8,
              "children": [
                {
                  "nodeid": 7,
                  "leaf": 0.0764781237
                },
                {
                  "nodeid": 8,
                  "depth": 3,
                  "split": "day_night_ratio",
                  "split_condition": 6.31385946,
                  "yes": 15,
                  "no": 16,
                  "missing": 16,
                  "children": [
                    {
                      "nodeid": 15,
                      "leaf": -0.0440248102
                    },
                    {
                      "nodeid": 16,
                      "leaf": -0.00370555627
                    }
                  ]
                }
              ]
            },
            {
              "nodeid": 4,
              "depth": 2,
              "split": "days",
              "split_condition": 20,
              "yes": 9,
              "no": 10,
              "missing": 10,
              "children": [
                {
                  "nodeid": 9,
                  "depth": 3,
                  "split": "day_mean",
                  "split_condition": 0.0211111102,
                  "yes": 17,
                  "no": 18,
                  "missing": 18,
                  "children": [
                    {
                      "nodeid": 17,
                      "leaf": -0.0391857177
                    },
                    {
                      "nodeid": 18,
                      "leaf": 0.0502292402
                    }
                  ]
                },
                {
                  "nodeid": 10,
                  "leaf": -0.0554897562
                }
              ]
            }
          ]
        },
        {
          "nodeid": 2,
          "depth": 1,
          "split": "very_active_minutes",
          "split_condition": 84,
          "yes": 5,
          "no": 6,
          "missing": 6,
          "children": [
            {
              "nodeid": 5,
              "depth": 2,
              "split": "rest_period_count",
              "split_condition": 98,
              "yes": 11,
              "no": 12,
              "missing": 12,
              "children": [
                {
                  "nodeid": 11,
                  "leaf": 0.0308867898
                },
                {
                  "nodeid": 12,
                  "depth": 3,
                  "split": "active_minutes",
                  "split_condition": 258,
                  "yes": 19,
                  "no": 20,
                  "missing": 20,
                  "children": [
                    {
                      "nodeid": 19,
                      "leaf": 0.0839247629
                    },
                    {
                      "nodeid": 20,
                      "leaf": 0.0269789975
                    }
                  ]
                }
              ]
            },
            {
              "nodeid": 6,
              "depth": 2,
              "split": "days",
              "split_condition": 8,
              "yes": 13,
              "no": 14,
              "missing": 14,
              "children": [
                {
                  "nodeid": 13,
                  "leaf": 0.0909812227
                },
                {
                  "nodeid": 14,
                  "depth": 3,
                  "split": "days",
                  "split_condition": 14,
                  "yes": 21,
                  "no": 22,
                  "missing": 22,
                  "children": [
                    {
                      "nodeid": 21,
                      "leaf": -0.00590452272
                    },
                    {
                      "nodeid": 22,
                      "leaf": 0.0416495055
                    }
                  ]
                }
              ]
            }
          ]
        }
      ]
    },
    {
      "nodeid": 0,
      "depth": 0,
      "split": "age_num",
      "split_condition": 37,
      "yes": 1,
      "no": 2,
      "missing": 2,
      "children": [
        {
          "nodeid": 1,
          "depth": 1,
          "split": "rest_period_count",
          "split_condition": 72,
          "yes": 3,
          "no": 4,
          "missing": 4,
          "children": [
            {
              "nodeid": 3,
              "depth": 2,
              "split": "days",
              "split_condition": 16,
              "yes": 7,
              "no": 8,
              "missing": 8,
              "children": [
                {
                  "nodeid": 7,
                  "depth": 3,
                  "split": "max_activity",
                  "split_condition": 3847,
                  "yes": 15,
                  "no": 16,
                  "missing": 16,
                  "children": [
                    {
                      "nodeid": 15,
                      "leaf": -0.0522603653
                    },
                    {
                      "nodeid": 16,
                      "leaf": -0.00508390926
                    }
                  ]
                },
                {
                  "nodeid": 8,
                  "depth": 3,
                  "split": "days",
                  "split_condition": 18,
                  "yes": 17,
                  "no": 18,
                  "missing": 18,
                  "children": [
                    {
                      "nodeid": 17,
                      "leaf": 0.0562734269
                    },
                    {
                      "nodeid": 18,
                      "leaf": -0.0496704914
                    }
                  ]
                }
              ]
            },
            {
              "nodeid": 4,
              "depth": 2,
              "split": "very_active_minutes",
              "split_condition": 84,
              "yes": 9,
              "no": 10,
              "missing": 10,
              "children": [
                {
                  "nodeid": 9,
                  "leaf": 0.0763616338
                },
                {
                  "nodeid": 10,
                  "depth": 3,
                  "split": "days",
                  "split_condition": 14,
                  "yes": 19,
                  "no": 20,
                  "missing": 20,
                  "children": [
                    {
                      "nodeid": 19,
                      "leaf": -0.0295693707
                    },
                    {
                      "nodeid": 20,
                      "leaf": 0.0287075285
                    }
                  ]
                }
              ]
            }
          ]
        },
        {
          "nodeid": 2,
          "depth": 1,
          "split": "gender",
          "split_condition": 2,
          "yes": 5,
          "no": 6,
          "missing": 6,
          "children": [
            {
              "nodeid": 5,
              "depth": 2,
              "split": "days",
              "split_condition": 14,
              "yes": 11,
              "no": 12,
              "missing": 12,
              "children": [
                {
                  "nodeid": 11,
                  "depth": 3,
                  "split": "min_activity",
                  "split_condition": 2,
                  "yes": 21,
                  "no": 22,
                  "missing": 22,
                  "children": [
                    {
                      "nodeid": 21,
                      "leaf": -0.0388626419
                    },
                    {
                      "nodeid": 22,
                      "leaf": 0.0907803848
                    }
                  ]
                },
                {
                  "nodeid": 12,
                  "depth": 3,
                  "split": "age_num",
                  "split_condition": 52,
                  "yes": 23,
                  "no": 24,
                  "missing": 24,
                  "children": [
                    {
                      "nodeid": 23,
                      "leaf": 0.0851966068
                    },
                    {
                      "nodeid": 24,
                      "leaf": -0.00963069405
                    }
                  ]
                }
              ]
            },
            {
              "nodeid": 6,
              "depth": 2,
              "split": "day_mean",
              "split_condition": 307.438904,
              "yes": 13,
              "no": 14,
              "missing": 14,
              "children": [
                {
                  "nodeid": 13,
                  "depth": 3,
                  "split": "p25",
                  "split_condition": 2,
                  "yes": 25,
                  "no": 26,
                  "missing": 26,
                  "children": [
                    {
                      "nodeid": 25,
                      "leaf": 0.0873567089
                    },
                    {
                      "nodeid": 26,
                      "leaf": 0.0231813546
                    }
                  ]
                },
                {
                  "nodeid": 14,
                  "depth": 3,
                  "split": "night_mean",
                  "split_condition": 96.6351852,
                  "yes": 27,
                  "no": 28,
                  "missing": 28,
                  "children": [
                    {
                      "nodeid": 27,
                      "leaf": 0.0467522107
                    },
                    {
                      "nodeid": 28,
                      "leaf": -0.0442959741
                    }
                  ]
                }
              ]
            }
          ]
        }
      ]
    },
    {
      "nodeid": 0,
      "depth": 0,
      "split": "age_num",
      "split_condition": 37,
      "yes": 1,
      "no": 2,
      "missing": 2,
      "children": [
        {
          "nodeid": 1,
          "depth": 1,
          "split": "days",
          "split_condition": 7,
          "yes": 3,
          "no": 4,
          "missing": 4,
          "children": [
            {
              "nodeid": 3,
              "leaf": 0.0757979453
            },
            {
              "nodeid": 4,
              "depth": 2,
              "split": "rest_period_count",
              "split_condition": 72,
              "yes": 7,
              "no": 8,
              "missing": 8,
              "children": [
                {
                  "nodeid": 7,
                  "depth": 3,
                  "split": "days",
                  "split_condition": 16,
                  "yes": 13,
                  "no": 14,
                  "missing": 14,
                  "children": [
                    {
                      "nodeid": 13,
                      "leaf": -0.0511764959
                    },
                    {
                      "nodeid": 14,
                      "leaf": -0.00718491618
                    }
                  ]
                },
                {
                  "nodeid": 8,
                  "depth": 3,
                  "split": "very_active_minutes",
                  "split_condition": 96,
                  "yes": 15,
                  "no": 16,
                  "missing": 16,
                  "children": [
                    {
                      "nodeid": 15,
                      "leaf": 0.0666410699
                    },
                    {
                      "nodeid": 16,
                      "leaf": -0.0211381335
                    }
                  ]
                }
              ]
            }
          ]
        },
        {
          "nodeid": 2,
          "depth": 1,
          "split": "gender",
          "split_condition": 2,
          "yes": 5,
          "no": 6,
          "missing": 6,
          "children": [
            {
              "nodeid": 5,
              "depth": 2,
              "split": "days",
              "split_condition": 14,
              "yes": 9,
              "no": 10,
              "missing": 10,
              "children": [
                {
                  "nodeid": 9,
                  "depth": 3,
                  "split": "days",
                  "split_condition": 8,
                  "yes": 17,
                  "no": 18,
                  "missing": 18,
                  "children": [
                    {
                      "nodeid": 17,
                      "leaf": 0.0903851315
                    },
                    {
                      "nodeid": 18,
                      "leaf": -0.0371683203
                    }
                  ]
                },
                {
                  "nodeid": 10,
                  "depth": 3,
                  "split": "age_num",
                  "split_condition": 52,
                  "yes": 19,
                  "no": 20,
                  "missing": 20,
                  "children": [
                    {
                      "nodeid": 19,
                      "leaf": 0.0819994435
                    },
                    {
                      "nodeid": 20,
                      "leaf": -0.00920308754
                    }
                  ]
                }
              ]
            },
            {
              "nodeid": 6,
              "depth": 2,
              "split": "mean_activity",
              "split_condition": 203.681946,
              "yes": 11,
              "no": 12,
              "missing": 12,
              "children": [
                {
                  "nodeid": 11,
                  "depth": 3,
                  "split": "rest_period_count",
                  "split_condition": 63,
                  "yes": 21,
                  "no": 22,
                  "missing": 22,
                  "children": [
                    {
                      "nodeid": 21,
                      "leaf": 0.0270025916
                    },
                    {
                      "nodeid": 22,
                      "leaf": 0.088848725
                    }
                  ]
                },
                {
                  "nodeid": 12,
                  "depth": 3,
                  "split": "night_mean",
                  "split_condition": 93.4129639,
                  "yes": 23,
                  "no": 24,
                  "missing": 24,
                  "children": [
                    {
                      "nodeid": 23,
                      "leaf": 0.0450073145
                    },
                    {
                      "nodeid": 24,
                      "leaf": -0.0285934303
                    }
                  ]
                }
              ]
            }
          ]
        }
      ]
    },
    {
      "nodeid": 0,
      "depth": 0,
      "split": "rest_period_count",
      "split_condition": 70,
      "yes": 1,
      "no": 2,
      "missing": 2,
      "children": [
        {
          "nodeid": 1,
          "depth": 1,
          "split": "days",
          "split_condition": 16,
          "yes": 3,
          "no": 4,
          "missing": 4,
          "children": [
            {
              "nodeid": 3,
              "depth": 2,
              "split": "inactive_minutes",
              "split_condition": 1435,
              "yes": 7,
              "no": 8,
              "missing": 8,
              "children": [
                {
                  "nodeid": 7,
                  "depth": 3,
                  "split": "p75",
                  "split_condition": 2,
                  "yes": 15,
                  "no": 16,
                  "missing": 16,
                  "children": [
                    {
                      "nodeid": 15,
                      "leaf": 0.0164549425
                    },
                    {
                      "nodeid": 16,
                      "leaf": -0.0378912129
                    }
                  ]
                },
                {
                  "nodeid": 8,
                  "leaf": -0.0583974384
                }
              ]
            },
            {
              "nodeid": 4,
              "depth": 2,
              "split": "days",
              "split_condition": 20,
              "yes": 9,
              "no": 10,
              "missing": 10,
              "children": [
                {
                  "nodeid": 9,
                  "depth": 3,
                  "split": "std_activity",
                  "split_condition": 340.843079,
                  "yes": 17,
                  "no": 18,
                  "missing": 18,
                  "children": [
                    {
                      "nodeid": 17,
                      "leaf": 0.0749009475
                    },
                    {
                      "nodeid": 18,
                      "leaf": 0.0106115146
                    }
                  ]
                },
                {
                  "nodeid": 10,
                  "leaf": -0.0474336781
                }
              ]
            }
          ]
        },
        {
          "nodeid": 2,
          "depth": 1,
          "split": "mean_activity",
          "split_condition": 194.166672,
          "yes": 5,
          "no": 6,
          "missing": 6,
          "children": [
            {
              "nodeid": 5,
              "depth": 2,
              "split": "very_active_minutes",
              "split_condition": 84,
              "yes": 11,
              "no": 12,
              "missing": 12,
              "children": [
                {
                  "nodeid": 11,
                  "depth": 3,
                  "split": "longest_rest_period",
                  "split_condition": 247,
                  "yes": 19,
                  "no": 20,
                  "missing": 20,
                  "children": [
                    {
                      "nodeid": 19,
                      "leaf": 0.0808419213
                    },
                    {
                      "nodeid": 20,
                      "leaf": 0.0206798371
                    }
                  ]
                },
                {
                  "nodeid": 12,
                  "depth": 3,
                  "split": "activity_entropy",
                  "split_condition": 2.3506496,
                  "yes": 21,
                  "no": 22,
                  "missing": 22,
                  "children": [
                    {
                      "nodeid": 21,
                      "leaf": 0.0368924439
                    },
                    {
                      "nodeid": 22,
                      "leaf": -0.0453629456
                    }
                  ]
                }
              ]
            },
            {
              "nodeid": 6,
              "depth": 2,
              "split": "days",
              "split_condition": 14,
              "yes": 13,
              "no": 14,
              "missing": 14,
              "children": [
                {
                  "nodeid": 13,
                  "depth": 3,
                  "split": "days",
                  "split_condition": 8,
                  "yes": 23,
                  "no": 24,
                  "missing": 24,
                  "children": [
                    {
                      "nodeid": 23,
                      "leaf": 0.0778126419
                    },
                    {
                      "nodeid": 24,
                      "leaf": -0.0274192132
                    }
                  ]
                },
                {
                  "nodeid": 14,
                  "depth": 3,
                  "split": "inactive_minutes",
                  "split_condition": 449,
                  "yes": 25,
                  "no": 26,
                  "missing": 26,
                  "children": [
                    {
                      "nodeid": 25,
                      "leaf": -0.047288999
                    },
                    {
                      "nodeid": 26,
                      "leaf": 0.053468097
                    }
                  ]
                }
              ]
            }
          ]
        }
      ]
    },
    {
      "nodeid": 0,
      "depth": 0,
      "split": "age_num",
      "split_condition": 37,
      "yes": 1,
      "no": 2,
      "missing": 2,
      "children": [
        {
          "nodeid": 1,
          "depth": 1,
          "split": "days",
          "split_condition": 7,
          "yes": 3,
          "no": 4,
          "missing": 4,
          "children": [
            {
              "nodeid": 3,
              "leaf": 0.0715877339
            },
            {
              "nodeid": 4,
              "depth": 2,
              "split": "days",
              "split_condition": 14,
              "yes": 7,
              "no": 8,
              "missing": 8,
              "children": [
                {
                  "nodeid": 7,
                  "depth": 3,
                  "split": "p75",
                  "split_condition": 640,
                  "yes": 13,
                  "no": 14,
                  "missing": 14,
                  "children": [
                    {
                      "nodeid": 13,
                      "leaf": -0.0420861691
                    },
                    {
                      "nodeid": 14,
                      "leaf": 0.0280169304
                    }
                  ]
                },
                {
                  "nodeid": 8,
                  "depth": 3,
                  "split": "gender",
                  "split_condition": 2,
                  "yes": 15,
                  "no": 16,
                  "missing": 16,
                  "children": [
                    {
                      "nodeid": 15,
                      "leaf": 0.0450439863
                    },
                    {
                      "nodeid": 16,
                      "leaf": -0.0635187253
                    }
                  ]
                }
              ]
            }
          ]
        },
        {
          "nodeid": 2,
          "depth": 1,
          "split": "gender",
          "split_condition": 2,
          "yes": 5,
          "no": 6,
          "missing": 6,
          "children": [
            {
              "nodeid": 5,
              "depth": 2,
              "split": "days",
              "split_condition": 14,
              "yes": 9,
              "no": 10,
              "missing": 10,
              "children": [
                {
                  "nodeid": 9,
                  "depth": 3,
                  "split": "min_activity",
                  "split_condition": 2,
                  "yes": 17,
                  "no": 18,
                  "missing": 18,
                  "children": [
                    {
                      "nodeid": 17,
                      "leaf": -0.0367052406
                    },
                    {
                      "nodeid": 18,
                      "leaf": 0.0889122263
                    }
                  ]
                },
                {
                  "nodeid": 10,
                  "depth": 3,
                  "split": "age_num",
                  "split_condition": 52,
                  "yes": 19,
                  "no": 20,
                  "missing": 20,
                  "children": [
                    {
                      "nodeid": 19,
                      "leaf": 0.0775234029
                    },
                    {
                      "nodeid": 20,
                      "leaf": -0.00957444776
                    }
                  ]
                }
              ]
            },
            {
              "nodeid": 6,
              "depth": 2,
              "split": "day_mean",
              "split_condition": 307.438904,
              "yes": 11,
              "no": 12,
              "missing": 12,
              "children": [
                {
                  "nodeid": 11,
                  "depth": 3,
                  "split": "p25",
                  "split_condition": 2,
                  "yes": 21,
                  "no": 22,
                  "missing": 22,
                  "children": [
                    {
                      "nodeid": 21,
                      "leaf": 0.0786646456
                    },
                    {
                      "nodeid": 22,
                      "leaf": 0.0189770218
                    }
                  ]
                },
                {
                  "nodeid": 12,
                  "depth": 3,
                  "split": "night_mean",
                  "split_condition": 96.6351852,
                  "yes": 23,
                  "no": 24,
                  "missing": 24,
                  "children": [
                    {
                      "nodeid": 23,
                      "leaf": 0.0427241437
                    },
                    {
                      "nodeid": 24,
                      "leaf": -0.0414149761
                    }
                  ]
                }
              ]
            }
          ]
        }
      ]
    },
    {
      "nodeid": 0,
      "depth": 0,
      "split": "rest_period_count",
      "split_condition": 70,
      "yes": 1,
      "no": 2,
      "missing": 2,
      "children": [
        {
          "nodeid": 1,
          "depth": 1,
          "split": "days",
          "split_condition": 16,
          "yes": 3,
          "no": 4,
          "missing": 4,
          "children": [
            {
              "nodeid": 3,
              "depth": 2,
              "split": "inactive_minutes",
              "split_condition": 1435,
              "yes": 7,
              "no": 8,
              "missing": 8,
              "children": [
                {
                  "nodeid": 7,
                  "depth": 3,
                  "split": "p75",
                  "split_condition": 2,
                  "yes": 15,
                  "no": 16,
                  "missing": 16,
                  "children": [
                    {
                      "nodeid": 15,
                      "leaf": 0.0158832781
                    },
                    {
                      "nodeid": 16,
                      "leaf": -0.0363254957
                    }
                  ]
                },
                {
                  "nodeid": 8,
                  "leaf": -0.0568487123
                }
              ]
            },
            {
              "nodeid": 4,
              "depth": 2,
              "split": "days",
              "split_condition": 20,
              "yes": 9,
              "no": 10,
              "missing": 10,
              "children": [
                {
                  "nodeid": 9,
                  "depth": 3,
                  "split": "activity_entropy",
                  "split_condition": 2.23415351,
                  "yes": 17,
                  "no": 18,
                  "missing": 18,
                  "children": [
                    {
                      "nodeid": 17,
                      "leaf": 0.0711256638
                    },
                    {
                      "nodeid": 18,
                      "leaf": 0.0096351346
                    }
                  ]
                },
                {
                  "nodeid": 10,
                  "leaf": -0.0473877415
                }
              ]
            }
          ]
        },
        {
          "nodeid": 2,
          "depth": 1,
          "split": "mean_activity",
          "split_condition": 194.166672,
          "yes": 5,
          "no": 6,
          "missing": 6,
          "children": [
            {
              "nodeid": 5,
              "depth": 2,
              "split": "very_active_minutes",
              "split_condition": 84,
              "yes": 11,
              "no": 12,
              "missing": 12,
              "children": [
                {
                  "nodeid": 11,
                  "depth": 3,
                  "split": "p75",
                  "split_condition": 2,
                  "yes": 19,
                  "no": 20,
                  "missing": 20,
                  "children": [
                    {
                      "nodeid": 19,
                      "leaf": 0.0243341681
                    },
                    {
                      "nodeid": 20,
                      "leaf": 0.0781694874
                    }
                  ]
                },
                {
                  "nodeid": 12,
                  "depth": 3,
                  "split": "activity_entropy",
                  "split_condition": 2.3506496,
                  "yes": 21,
                  "no": 22,
                  "missing": 22,
                  "children": [
                    {
                      "nodeid": 21,
                      "leaf": 0.0341847502
                    },
                    {
                      "nodeid": 22,
                      "leaf": -0.0437655486
                    }
                  ]
                }
              ]
            },
            {
              "nodeid": 6,
              "depth": 2,
              "split": "days",
              "split_condition": 14,
              "yes": 13,
              "no": 14,
              "missing": 14,
              "children": [
                {
                  "nodeid": 13,
                  "depth": 3,
                  "split": "days",
                  "split_condition": 8,
                  "yes": 23,
                  "no": 24,
                  "missing": 24,
                  "children": [
                    {
                      "nodeid": 23,
                      "leaf": 0.074607186
                    },
                    {
                      "nodeid": 24,
                      "leaf": -0.0258801132
                    }
                  ]
                },
                {
                  "nodeid": 14,
                  "depth": 3,
                  "split": "days",
                  "split_condition": 20,
                  "yes": 25,
                  "no": 26,
                  "missing": 26,
                  "children": [
                    {
                      "nodeid": 25,
                      "leaf": 0.0472460017
                    },
                    {
                      "nodeid": 26,
                      "leaf": -0.054422792
                    }
                  ]
                }
              ]
            }
          ]
        }
      ]
    },
    {
      "nodeid": 0,
      "depth": 0,
      "split": "age_num",
      "split_condition": 37,
      "yes": 1,
      "no": 2,
      "missing": 2,
      "children": [
        {
          "nodeid": 1,
          "depth": 1,
          "split": "days",
          "split_condition": 7,
          "yes": 3,
          "no": 4,
          "missing": 4,
          "children": [
            {
              "nodeid": 3,
              "leaf": 0.0679873377
            },
            {
              "nodeid": 4,
              "depth": 2,
              "split": "rest_period_count",
              "split_condition": 72,
              "yes": 7,
              "no": 8,
              "missing": 8,
              "children": [
                {
                  "nodeid": 7,
                  "depth": 3,
                  "split": "days",
                  "split_condition": 16,
                  "yes": 13,
                  "no": 14,
                  "missing": 14,
                  "children": [
                    {
                      "nodeid": 13,
                      "leaf": -0.0472740233
                    },
                    {
                      "nodeid": 14,
                      "leaf": -0.00848591235
                    }
                  ]
                },
                {
                  "nodeid": 8,
                  "depth": 3,
                  "split": "very_active_minutes",
                  "split_condition": 84,
                  "yes": 15,
                  "no": 16,
                  "missing": 16,
                  "children": [
                    {
                      "nodeid": 15,
                      "leaf": 0.0661646202
                    },
                    {
                      "nodeid": 16,
                      "leaf": -0.0185508914
                    }
                  ]
                }
              ]
            }
          ]
        },
        {
          "nodeid": 2,
          "depth": 1,
          "split": "gender",
          "split_condition": 2,
          "yes": 5,
          "no": 6,
          "missing": 6,
          "children": [
            {
              "nodeid": 5,
              "depth": 2,
              "split": "days",
              "split_condition": 14,
              "yes": 9,
              "no": 10,
              "missing": 10,
              "children": [
                {
                  "nodeid": 9,
                  "depth": 3,
                  "split": "min_activity",
                  "split_condition": 2,
                  "yes": 17,
                  "no": 18,
                  "missing": 18,
                  "children": [
                    {
                      "nodeid": 17,
                      "leaf": -0.0354701728
                    },
                    {
                      "nodeid": 18,
                      "leaf": 0.0850837454
                    }
                  ]
                },
                {
                  "nodeid": 10,
                  "depth": 3,
                  "split": "age_num",
                  "split_condition": 52,
                  "yes": 19,
                  "no": 20,
                  "missing": 20,
                  "children": [
                    {
                      "nodeid": 19,
                      "leaf": 0.0737150013
                    },
                    {
                      "nodeid": 20,
                      "leaf": -0.00991409738
                    }
                  ]
                }
              ]
            },
            {
              "nodeid": 6,
              "depth": 2,
              "split": "night_mean",
              "split_condition": 93.4129639,
              "yes": 11,
              "no": 12,
              "missing": 12,
              "children": [
                {
                  "nodeid": 11,
                  "depth": 3,
                  "split": "p25",
                  "split_condition": 2,
                  "yes": 21,
                  "no": 22,
                  "missing": 22,
                  "children": [
                    {
                      "nodeid": 21,
                      "leaf": 0.0743418634
                    },
                    {
                      "nodeid": 22,
                      "leaf": 0.0115863821
                    }
                  ]
                },
                {
                  "nodeid": 12,
                  "depth": 3,
                  "split": "std_activity",
                  "split_condition": 362.387054,
                  "yes": 23,
                  "no": 24,
                  "missing": 24,
                  "children": [
                    {
                      "nodeid": 23,
                      "leaf": 0.0458468199
                    },
                    {
                      "nodeid": 24,
                      "leaf": -0.0437602997
                    }
                  ]
                }
              ]
            }
          ]
        }
      ]
    },
    {
      "nodeid": 0,
      "depth": 0,
      "split": "rest_period_count",
      "split_condition": 70,
      "yes": 1,
      "no": 2,
      "missing": 2,
      "children": [
        {
          "nodeid": 1,
          "depth": 1,
          "split": "days",
          "split_condition": 16,
          "yes": 3,
          "no": 4,
          "missing": 4,
          "children": [
            {
              "nodeid": 3,
              "depth": 2,
              "split": "longest_rest_period",
              "split_condition": 751,
              "yes": 7,
              "no": 8,
              "missing": 8,
              "children": [
                {
                  "nodeid": 7,
                  "depth": 3,
                  "split": "very_active_minutes",
                  "split_condition": 129,
                  "yes": 15,
                  "no": 16,
                  "missing": 16,
                  "children": [
                    {
                      "nodeid": 15,
                      "leaf": 0.000981437392
                    },
                    {
                      "nodeid": 16,
                      "leaf": -0.0455673002
                    }
                  ]
                },
                {
                  "nodeid": 8,
                  "depth": 3,
                  "split": "day_night_ratio",
                  "split_condition": 5.58459234,
                  "yes": 17,
                  "no": 18,
                  "missing": 18,
                  "children": [
                    {
                      "nodeid": 17,
                      "leaf": -0.0556016862
                    },
                    {
                      "nodeid": 18,
                      "leaf": -0.00915831979
                    }
                  ]
                }
              ]
            },
            {
              "nodeid": 4,
              "depth": 2,
              "split": "days",
              "split_condition": 20,
              "yes": 9,
              "no": 10,
              "missing": 10,
              "children": [
                {
                  "nodeid": 9,
                  "depth": 3,
                  "split": "std_activity",
                  "split_condition": 340.843079,
                  "yes": 19,
                  "no": 20,
                  "missing": 20,
                  "children": [
                    {
                      "nodeid": 19,
                      "leaf": 0.0682651028
                    },
                    {
                      "nodeid": 20,
                      "leaf": 0.0090274727
                    }
                  ]
                },
                {
                  "nodeid": 10,
                  "leaf": -0.0463282652
                }
              ]
            }
          ]
        },
        {
          "nodeid": 2,
          "depth": 1,
          "split": "very_active_minutes",
          "split_condition": 96,
          "yes": 5,
          "no": 6,
          "missing": 6,
          "children": [
            {
              "nodeid": 5,
              "depth": 2,
              "split": "activity_entropy",
              "split_condition": 0.746338248,
              "yes": 11,
              "no": 12,
              "missing": 12,
              "children": [
                {
                  "nodeid": 11,
                  "leaf": 0.0108210267
                },
                {
                  "nodeid": 12,
                  "depth": 3,
                  "split": "active_minutes",
                  "split_condition": 264,
                  "yes": 21,
                  "no": 22,
                  "missing": 22,
                  "children": [
                    {
                      "nodeid": 21,
                      "leaf": 0.0744059235
                    },
                    {
                      "nodeid": 22,
                      "leaf": 0.030396143
                    }
                  ]
                }
              ]
            },
            {
              "nodeid": 6,
              "depth": 2,
              "split": "days",
              "split_condition": 8,
              "yes": 13,
              "no": 14,
              "missing": 14,
              "children": [
                {
                  "nodeid": 13,
                  "leaf": 0.083415173
                },
                {
                  "nodeid": 14,
                  "depth": 3,
                  "split": "days",
                  "split_condition": 14,
                  "yes": 23,
                  "no": 24,
                  "missing": 24,
                  "children": [
                    {
                      "nodeid": 23,
                      "leaf": -0.0149151152
                    },
                    {
                      "nodeid": 24,
                      "leaf": 0.0320482813
                    }
                  ]
                }
              ]
            }
          ]
        }
      ]
    },
    {
      "nodeid": 0,
      "depth": 0,
      "split": "age_num",
      "split_condition": 37,
      "yes": 1,
      "no": 2,
      "missing": 2,
      "children": [
        {
          "nodeid": 1,
          "depth": 1,
          "split": "days",
          "split_condition": 7,
          "yes": 3,
          "no": 4,
          "missing": 4,
          "children": [
            {
              "nodeid": 3,
              "leaf": 0.0640388206
            },
            {
              "nodeid": 4,
              "depth": 2,
              "split": "days",
              "split_condition": 14,
              "yes": 7,
              "no": 8,
              "missing": 8,
              "children": [
                {
                  "nodeid": 7,
                  "depth": 3,
                  "split": "p75",
                  "split_condition": 640,
                  "yes": 13,
                  "no": 14,
                  "missing": 14,
                  "children": [
                    {
                      "nodeid": 13,
                      "leaf": -0.039296519
                    },
                    {
                      "nodeid": 14,
                      "leaf": 0.0311553534
                    }
                  ]
                },
                {
                  "nodeid": 8,
                  "depth": 3,
                  "split": "gender",
                  "split_condition": 2,
                  "yes": 15,
                  "no": 16,
                  "missing": 16,
                  "children": [
                    {
                      "nodeid": 15,
                      "leaf": 0.0422916412
                    },
                    {
                      "nodeid": 16,
                      "leaf": -0.0619305931
                    }
                  ]
                }
              ]
            }
          ]
        },
        {
          "nodeid": 2,
          "depth": 1,
          "split": "gender",
          "split_condition": 2,
          "yes": 5,
          "no": 6,
          "missing": 6,
          "children": [
            {
              "nodeid": 5,
              "depth": 2,
              "split": "days",
              "split_condition": 14,
              "yes": 9,
              "no": 10,
              "missing": 10,
              "children": [
                {
                  "nodeid": 9,
                  "depth": 3,
                  "split": "min_activity",
                  "split_condition": 2,
                  "yes": 17,
                  "no": 18,
                  "missing": 18,
                  "children": [
                    {
                      "nodeid": 17,
                      "leaf": -0.0343476646
                    },
                    {
                      "nodeid": 18,
                      "leaf": 0.0812117681
                    }
                  ]
                },
                {
                  "nodeid": 10,
                  "depth": 3,
                  "split": "age_num",
                  "split_condition": 52,
                  "yes": 19,
                  "no": 20,
                  "missing": 20,
                  "children": [
                    {
                      "nodeid": 19,
                      "leaf": 0.0705858096
                    },
                    {
                      "nodeid": 20,
                      "leaf": -0.0106818769
                    }
                  ]
                }
              ]
            },
            {
              "nodeid": 6,
              "depth": 2,
              "split": "night_mean",
              "split_condition": 93.4129639,
              "yes": 11,
              "no": 12,
              "missing": 12,
              "children": [
                {
                  "nodeid": 11,
                  "depth": 3,
                  "split": "p25",
                  "split_condition": 2,
                  "yes": 21,
                  "no": 22,
                  "missing": 22,
                  "children": [
                    {
                      "nodeid": 21,
                      "leaf": 0.0711275637
                    },
                    {
                      "nodeid": 22,
                      "leaf": 0.0102546699
                    }
                  ]
                },
                {
                  "nodeid": 12,
                  "depth": 3,
                  "split": "day_mean",
                  "split_condition": 317.90332,
                  "yes": 23,
                  "no": 24,
                  "missing": 24,
                  "children": [
                    {
                      "nodeid": 23,
                      "leaf": 0.0506068841
                    },
                    {
                      "nodeid": 24,
                      "leaf": -0.0381632075
                    }
                  ]
                }
              ]
            }
          ]
        }
      ]
    },
    {
      "nodeid": 0,
      "depth": 0,
      "split": "rest_period_count",
      "split_condition": 70,
      "yes": 1,
      "no": 2,
      "missing": 2,
      "children": [
        {
          "nodeid": 1,
          "depth": 1,
          "split": "days",
          "split_condition": 16,
          "yes": 3,
          "no": 4,
          "missing": 4,
          "children": [
            {
              "nodeid": 3,
              "depth": 2,
              "split": "inactive_minutes",
              "split_condition": 1435,
              "yes": 7,
              "no": 8,
              "missing": 8,
              "children": [
                {
                  "nodeid": 7,
                  "depth": 3,
                  "split": "p75",
                  "split_condition": 2,
                  "yes": 15,
                  "no": 16,
                  "missing": 16,
                  "children": [
                    {
                      "nodeid": 15,
                      "leaf": 0.0158761963
                    },
                    {
                      "nodeid": 16,
                      "leaf": -0.0333813131
                    }
                  ]
                },
                {
                  "nodeid": 8,
                  "leaf": -0.0541580133
                }
              ]
            },
            {
              "nodeid": 4,
              "depth": 2,
              "split": "days",
              "split_condition": 20,
              "yes": 9,
              "no": 10,
              "missing": 10,
              "children": [
                {
                  "nodeid": 9,
                  "depth": 3,
                  "split": "activity_entropy",
                  "split_condition": 2.23415351,
                  "yes": 17,
                  "no": 18,
                  "missing": 18,
                  "children": [
                    {
                      "nodeid": 17,
                      "leaf": 0.0655078813
                    },
                    {
                      "nodeid": 18,
                      "leaf": 0.00820011646
                    }
                  ]
                },
                {
                  "nodeid": 10,
                  "leaf": -0.0462527759
                }
              ]
            }
          ]
        },
        {
          "nodeid": 2,
          "depth": 1,
          "split": "very_active_minutes",
          "split_condition": 96,
          "yes": 5,
          "no": 6,
          "missing": 6,
          "children": [
            {
              "nodeid": 5,
              "depth": 2,
              "split": "activity_entropy",
              "split_condition": 0.746338248,
              "yes": 11,
              "no": 12,
              "missing": 12,
              "children": [
                {
                  "nodeid": 11,
                  "leaf": 0.00983836781
                },
                {
                  "nodeid": 12,
                  "depth": 3,
                  "split": "active_minutes",
                  "split_condition": 264,
                  "yes": 19,
                  "no": 20,
                  "missing": 20,
                  "children": [
                    {
                      "nodeid": 19,
                      "leaf": 0.0718754679
                    },
                    {
                      "nodeid": 20,
                      "leaf": 0.0286727641
                    }
                  ]
                }
              ]
            },
            {
              "nodeid": 6,
              "depth": 2,
              "split": "days",
              "split_condition": 8,
              "yes": 13,
              "no": 14,
              "missing": 14,
              "children": [
                {
                  "nodeid": 13,
                  "leaf": 0.0803614333
                },
                {
                  "nodeid": 14,
                  "depth": 3,
                  "split": "days",
                  "split_condition": 14,
                  "yes": 21,
                  "no": 22,
                  "missing": 22,
                  "children": [
                    {
                      "nodeid": 21,
                      "leaf": -0.0142116966
                    },
                    {
                      "nodeid": 22,
                      "leaf": 0.0296536721
                    }
                  ]
                }
              ]
            }
          ]
        }
      ]
    },
    {
      "nodeid": 0,
      "depth": 0,
      "split": "age_num",
      "split_condition": 37,
      "yes": 1,
      "no": 2,
      "missing": 2,
      "children": [
        {
          "nodeid": 1,
          "depth": 1,
          "split": "days",
          "split_condition": 7,
          "yes": 3,
          "no": 4,
          "missing": 4,
          "children": [
            {
              "nodeid": 3,
              "leaf": 0.0608675964
            },
            {
              "nodeid": 4,
              "depth": 2,
              "split": "age_num",
              "split_condition": 22,
              "yes": 7,
              "no": 8,
              "missing": 8,
              "children": [
                {
                  "nodeid": 7,
                  "depth": 3,
                  "split": "days",
                  "split_condition": 14,
                  "yes": 13,
                  "no": 14,
                  "missing": 14,
                  "children": [
                    {
                      "nodeid": 13,
                      "leaf": -0.0471971296
                    },
                    {
                      "nodeid": 14,
