{"version": "bioage-aa-1.0", "modelType": "xgboost", "task": "regression", "applySigmoid": false, "features": ["meanRR", "sdnn", "rmssd", "pnn50", "pnn20", "hrMean", "cvRR", "sd1", "sd2", "sd1sd2Ratio", "sampleEntropy", "dfaAlpha1"], "baseScore": 32.13196, "normalization": {"mean": {"meanRR": 891.933012881215, "sdnn": 54.399606279269804, "rmssd": 51.98648154723048, "pnn50": 25.419997970213423, "pnn20": 56.39526854787943, "hrMean": 69.30763135716992, "cvRR": 0.0600348695621063, "sd1": 36.91633896961048, "sd2": 65.98955155990083, "sd1sd2Ratio": 0.5320564998866714, "sampleEntropy": 1.6072978225160433, "dfaAlpha1": 0.9635271104893156}, "std": {"meanRR": 137.5841281074632, "sdnn": 27.7979973897839, "rmssd": 38.695736198108, "pnn50": 22.668878170931272, "pnn20": 24.584842062615056, "hrMean": 12.023413504230861, "cvRR": 0.02695876789888, "sd1": 27.517276797362744, "sd2": 30.185233343715126, "sd1sd2Ratio": 0.21483807999343574, "sampleEntropy": 0.2822175055725938, "dfaAlpha1": 0.24986324547056185}}, "representation": "subject-aggregate (median of recent HRV windows)", "trees": [{"nodeid": 0, "depth": 0, "split": "pnn50", "split_condition": -0.58287406, "yes": 1, "no": 2, "missing": 2, "children": [{"nodeid": 1, "depth": 1, "split": "meanRR", "split_condition": -0.0503910817, "yes": 3, "no": 4, "missing": 4, "children": [{"nodeid": 3, "depth": 2, "split": "rmssd", "split_condition": -0.805386603, "yes": 7, "no": 8, "missing": 8, "children": [{"nodeid": 7, "leaf": 0.218082473}, {"nodeid": 8, "leaf": -0.0391224287}]}, {"nodeid": 4, "depth": 2, "split": "sd2", "split_condition": -0.957808018, "yes": 9, "no": 10, "missing": 10, "children": [{"nodeid": 9, "leaf": 0.93200928}, {"nodeid": 10, "leaf": 0.392875731}]}]}, {"nodeid": 2, "depth": 1, "split": "rmssd", "split_condition": 3.51843095, "yes": 5, "no": 6, "missing": 6, "children": [{"nodeid": 5, "depth": 2, "split": "sampleEntropy", "split_condition": -2.94118452, "yes": 11, "no": 12, "missing": 12, "children": [{"nodeid": 11, "leaf": 0.564624727}, {"nodeid": 12, "leaf": -0.154464796}]}, {"nodeid": 6, "depth": 2, "split": "meanRR", "split_condition": 1.20805967, "yes": 13, "no": 14, "missing": 14, "children": [{"nodeid": 13, "leaf": 0.933624685}, {"nodeid": 14, "leaf": 0.220332906}]}]}]}, {"nodeid": 0, "depth": 0, "split": "pnn20", "split_condition": -0.328472674, "yes": 1, "no": 2, "missing": 2, "children": [{"nodeid": 1, "depth": 1, "split": "meanRR", "split_condition": -0.0503910817, "yes": 3, "no": 4, "missing": 4, "children": [{"nodeid": 3, "depth": 2, "split": "cvRR", "split_condition": -1.16138792, "yes": 7, "no": 8, "missing": 8, "children": [{"nodeid": 7, "leaf": 0.375136852}, {"nodeid": 8, "leaf": 0.00407676958}]}, {"nodeid": 4, "depth": 2, "split": "sd2", "split_condition": -1.02401078, "yes": 9, "no": 10, "missing": 10, "children": [{"nodeid": 9, "leaf": 0.955115736}, {"nodeid": 10, "leaf": 0.556217194}]}]}, {"nodeid": 2, "depth": 1, "split": "cvRR", "split_condition": 2.76625061, "yes": 5, "no": 6, "missing": 6, "children": [{"nodeid": 5, "depth": 2, "split": "sampleEntropy", "split_condition": -2.00805759, "yes": 11, "no": 12, "missing": 12, "children": [{"nodeid": 11, "leaf": 0.494048923}, {"nodeid": 12, "leaf": -0.144970357}]}, {"nodeid": 6, "depth": 2, "split": "rmssd", "split_condition": 1.74304831, "yes": 13, "no": 14, "missing": 14, "children": [{"nodeid": 13, "leaf": -0.11659494}, {"nodeid": 14, "leaf": 0.716230214}]}]}]}, {"nodeid": 0, "depth": 0, "split": "pnn20", "split_condition": -0.550669611, "yes": 1, "no": 2, "missing": 2, "children": [{"nodeid": 1, "depth": 1, "split": "meanRR", "split_condition": -0.375195563, "yes": 3, "no": 4, "missing": 4, "children": [{"nodeid": 3, "depth": 2, "split": "cvRR", "split_condition": -1.16138792, "yes": 7, "no": 8, "missing": 8, "children": [{"nodeid": 7, "leaf": 0.335922658}, {"nodeid": 8, "leaf": 0.00927416421}]}, {"nodeid": 4, "depth": 2, "split": "sd2", "split_condition": -0.957808018, "yes": 9, "no": 10, "missing": 10, "children": [{"nodeid": 9, "leaf": 0.869699776}, {"nodeid": 10, "leaf": 0.524567962}]}]}, {"nodeid": 2, "depth": 1, "split": "sampleEntropy", "split_condition": -2.38616538, "yes": 5, "no": 6, "missing": 6, "children": [{"nodeid": 5, "leaf": 0.861172438}, {"nodeid": 6, "depth": 2, "split": "pnn20", "split_condition": 0.146624148, "yes": 11, "no": 12, "missing": 12, "children": [{"nodeid": 11, "leaf": 0.00697758282}, {"nodeid": 12, "leaf": -0.171335131}]}]}]}, {"nodeid": 0, "depth": 0, "split": "pnn20", "split_condition": 0.0230530985, "yes": 1, "no": 2, "missing": 2, "children": [{"nodeid": 1, "depth": 1, "split": "meanRR", "split_condition": -0.0503910817, "yes": 3, "no": 4, "missing": 4, "children": [{"nodeid": 3, "depth": 2, "split": "pnn20", "split_condition": -1.61805344, "yes": 7, "no": 8, "missing": 8, "children": [{"nodeid": 7, "leaf": 0.292529792}, {"nodeid": 8, "leaf": -0.0248599481}]}, {"nodeid": 4, "depth": 2, "split": "sd1sd2Ratio", "split_condition": 0.173387542, "yes": 9, "no": 10, "missing": 10, "children": [{"nodeid": 9, "leaf": 0.442400038}, {"nodeid": 10, "leaf": 0.977783203}]}]}, {"nodeid": 2, "depth": 1, "split": "rmssd", "split_condition": 3.51843095, "yes": 5, "no": 6, "missing": 6, "children": [{"nodeid": 5, "depth": 2, "split": "hrMean", "split_condition": -0.326249659, "yes": 11, "no": 12, "missing": 12, "children": [{"nodeid": 11, "leaf": -0.102755308}, {"nodeid": 12, "leaf": -0.208451822}]}, {"nodeid": 6, "depth": 2, "split": "meanRR", "split_condition": 1.20805967, "yes": 13, "no": 14, "missing": 14, "children": [{"nodeid": 13, "leaf": 0.900816262}, {"nodeid": 14, "leaf": 0.139982998}]}]}]}, {"nodeid": 0, "depth": 0, "split": "pnn20", "split_condition": -0.328472674, "yes": 1, "no": 2, "missing": 2, "children": [{"nodeid": 1, "depth": 1, "split": "meanRR", "split_condition": -0.0503910817, "yes": 3, "no": 4, "missing": 4, "children": [{"nodeid": 3, "depth": 2, "split": "pnn20", "split_condition": -1.01781082, "yes": 7, "no": 8, "missing": 8, "children": [{"nodeid": 7, "leaf": 0.212750092}, {"nodeid": 8, "leaf": -0.0504136458}]}, {"nodeid": 4, "depth": 2, "split": "dfaAlpha1", "split_condition": 0.0949383005, "yes": 9, "no": 10, "missing": 10, "children": [{"nodeid": 9, "leaf": 1.04976082}, {"nodeid": 10, "leaf": 0.543233514}]}]}, {"nodeid": 2, "depth": 1, "split": "sampleEntropy", "split_condition": -2.38616538, "yes": 5, "no": 6, "missing": 6, "children": [{"nodeid": 5, "depth": 2, "split": "sd2", "split_condition": 1.07741761, "yes": 11, "no": 12, "missing": 12, "children": [{"nodeid": 11, "leaf": 0.942392111}, {"nodeid": 12, "leaf": -0.0501362607}]}, {"nodeid": 6, "depth": 2, "split": "pnn20", "split_condition": 0.146624148, "yes": 13, "no": 14, "missing": 14, "children": [{"nodeid": 13, "leaf": 0.0224759821}, {"nodeid": 14, "leaf": -0.151110768}]}]}]}, {"nodeid": 0, "depth": 0, "split": "pnn20", "split_condition": -0.328472674, "yes": 1, "no": 2, "missing": 2, "children": [{"nodeid": 1, "depth": 1, "split": "meanRR", "split_condition": -0.131297126, "yes": 3, "no": 4, "missing": 4, "children": [{"nodeid": 3, "depth": 2, "split": "pnn20", "split_condition": -1.36818647, "yes": 7, "no": 8, "missing": 8, "children": [{"nodeid": 7, "leaf": 0.211556971}, {"nodeid": 8, "leaf": -0.0168630816}]}, {"nodeid": 4, "depth": 2, "split": "sd2", "split_condition": -1.02401078, "yes": 9, "no": 10, "missing": 10, "children": [{"nodeid": 9, "leaf": 0.881009579}, {"nodeid": 10, "leaf": 0.475196272}]}]}, {"nodeid": 2, "depth": 1, "split": "sampleEntropy", "split_condition": -2.38616538, "yes": 5, "no": 6, "missing": 6, "children": [{"nodeid": 5, "depth": 2, "split": "sd2", "split_condition": 1.07741761, "yes": 11, "no": 12, "missing": 12, "children": [{"nodeid": 11, "leaf": 0.922197998}, {"nodeid": 12, "leaf": -0.0496348962}]}, {"nodeid": 6, "depth": 2, "split": "rmssd", "split_condition": 3.51843095, "yes": 13, "no": 14, "missing": 14, "children": [{"nodeid": 13, "leaf": -0.130449638}, {"nodeid": 14, "leaf": 0.364150852}]}]}]}, {"nodeid": 0, "depth": 0, "split": "cvRR", "split_condition": -0.851325929, "yes": 1, "no": 2, "missing": 2, "children": [{"nodeid": 1, "depth": 1, "split": "cvRR", "split_condition": -1.28542948, "yes": 3, "no": 4, "missing": 4, "children": [{"nodeid": 3, "depth": 2, "split": "hrMean", "split_condition": 0.453427345, "yes": 7, "no": 8, "missing": 8, "children": [{"nodeid": 7, "leaf": 0.751945794}, {"nodeid": 8, "leaf": 0.341510743}]}, {"nodeid": 4, "depth": 2, "split": "hrMean", "split_condition": 0.977030039, "yes": 9, "no": 10, "missing": 10, "children": [{"nodeid": 9, "leaf": 0.310344428}, {"nodeid": 10, "leaf": -0.0833223239}]}]}, {"nodeid": 2, "depth": 1, "split": "sampleEntropy", "split_condition": -1.65398335, "yes": 5, "no": 6, "missing": 6, "children": [{"nodeid": 5, "depth": 2, "split": "sd1sd2Ratio", "split_condition": 0.275019407, "yes": 11, "no": 12, "missing": 12, "children": [{"nodeid": 11, "leaf": 0.00968522392}, {"nodeid": 12, "leaf": 0.844042063}]}, {"nodeid": 6, "depth": 2, "split": "pnn50", "split_condition": -0.562592089, "yes": 13, "no": 14, "missing": 14, "children": [{"nodeid": 13, "leaf": 0.014467054}, {"nodeid": 14, "leaf": -0.141123012}]}]}]}, {"nodeid": 0, "depth": 0, "split": "cvRR", "split_condition": -0.781678259, "yes": 1, "no": 2, "missing": 2, "children": [{"nodeid": 1, "depth": 1, "split": "hrMean", "split_condition": 0.453427345, "yes": 3, "no": 4, "missing": 4, "children": [{"nodeid": 3, "depth": 2, "split": "pnn50", "split_condition": -0.609902024, "yes": 7, "no": 8, "missing": 8, "children": [{"nodeid": 7, "leaf": 0.513635814}, {"nodeid": 8, "leaf": -0.0949227214}]}, {"nodeid": 4, "depth": 2, "split": "cvRR", "split_condition": -1.16138792, "yes": 9, "no": 10, "missing": 10, "children": [{"nodeid": 9, "leaf": 0.296475798}, {"nodeid": 10, "leaf": -0.0365528502}]}]}, {"nodeid": 2, "depth": 1, "split": "sampleEntropy", "split_condition": -1.52061486, "yes": 5, "no": 6, "missing": 6, "children": [{"nodeid": 5, "depth": 2, "split": "sd1sd2Ratio", "split_condition": 0.0588219538, "yes": 11, "no": 12, "missing": 12, "children": [{"nodeid": 11, "leaf": 0.0246707369}, {"nodeid": 12, "leaf": 0.713760197}]}, {"nodeid": 6, "depth": 2, "split": "cvRR", "split_condition": 2.76625061, "yes": 13, "no": 14, "missing": 14, "children": [{"nodeid": 13, "leaf": -0.111291312}, {"nodeid": 14, "leaf": 0.557096601}]}]}]}, {"nodeid": 0, "depth": 0, "split": "pnn20", "split_condition": -0.328472674, "yes": 1, "no": 2, "missing": 2, "children": [{"nodeid": 1, "depth": 1, "split": "meanRR", "split_condition": -0.0503910817, "yes": 3, "no": 4, "missing": 4, "children": [{"nodeid": 3, "depth": 2, "split": "cvRR", "split_condition": -1.16138792, "yes": 7, "no": 8, "missing": 8, "children": [{"nodeid": 7, "leaf": 0.357725143}, {"nodeid": 8, "leaf": 0.0321086422}]}, {"nodeid": 4, "depth": 2, "split": "cvRR", "split_condition": -0.479210526, "yes": 9, "no": 10, "missing": 10, "children": [{"nodeid": 9, "leaf": 0.625612855}, {"nodeid": 10, "leaf": 0.2147526}]}]}, {"nodeid": 2, "depth": 1, "split": "sampleEntropy", "split_condition": -2.38616538, "yes": 5, "no": 6, "missing": 6, "children": [{"nodeid": 5, "depth": 2, "split": "sd2", "split_condition": 1.07741761, "yes": 11, "no": 12, "missing": 12, "children": [{"nodeid": 11, "leaf": 0.798728645}, {"nodeid": 12, "leaf": -0.0494821183}]}, {"nodeid": 6, "depth": 2, "split": "cvRR", "split_condition": 2.76625061, "yes": 13, "no": 14, "missing": 14, "children": [{"nodeid": 13, "leaf": -0.123548768}, {"nodeid": 14, "leaf": 0.293990672}]}]}]}, {"nodeid": 0, "depth": 0, "split": "cvRR", "split_condition": -0.851325929, "yes": 1, "no": 2, "missing": 2, "children": [{"nodeid": 1, "depth": 1, "split": "cvRR", "split_condition": -1.28542948, "yes": 3, "no": 4, "missing": 4, "children": [{"nodeid": 3, "depth": 2, "split": "hrMean", "split_condition": 0.453427345, "yes": 7, "no": 8, "missing": 8, "children": [{"nodeid": 7, "leaf": 0.798817575}, {"nodeid": 8, "leaf": 0.319560498}]}, {"nodeid": 4, "depth": 2, "split": "hrMean", "split_condition": 1.06208801, "yes": 9, "no": 10, "missing": 10, "children": [{"nodeid": 9, "leaf": 0.249589622}, {"nodeid": 10, "leaf": -0.139415145}]}]}, {"nodeid": 2, "depth": 1, "split": "sampleEntropy", "split_condition": -2.44476342, "yes": 5, "no": 6, "missing": 6, "children": [{"nodeid": 5, "depth": 2, "split": "rmssd", "split_condition": -0.372957617, "yes": 11, "no": 12, "missing": 12, "children": [{"nodeid": 11, "leaf": -0.0456017517}, {"nodeid": 12, "leaf": 0.719340146}]}, {"nodeid": 6, "depth": 2, "split": "pnn20", "split_condition": 0.146624148, "yes": 13, "no": 14, "missing": 14, "children": [{"nodeid": 13, "leaf": 0.0205402579}, {"nodeid": 14, "leaf": -0.126420826}]}]}]}, {"nodeid": 0, "depth": 0, "split": "cvRR", "split_condition": -0.920452893, "yes": 1, "no": 2, "missing": 2, "children": [{"nodeid": 1, "depth": 1, "split": "cvRR", "split_condition": -1.32909322, "yes": 3, "no": 4, "missing": 4, "children": [{"nodeid": 3, "depth": 2, "split": "sdnn", "split_condition": -1.6698184, "yes": 7, "no": 8, "missing": 8, "children": [{"nodeid": 7, "leaf": 0.0106357569}, {"nodeid": 8, "leaf": 0.679219007}]}, {"nodeid": 4, "depth": 2, "split": "meanRR", "split_condition": -1.1141032, "yes": 9, "no": 10, "missing": 10, "children": [{"nodeid": 9, "leaf": -0.18479301}, {"nodeid": 10, "leaf": 0.301274538}]}]}, {"nodeid": 2, "depth": 1, "split": "pnn50", "split_condition": -0.562592089, "yes": 5, "no": 6, "missing": 6, "children": [{"nodeid": 5, "depth": 2, "split": "rmssd", "split_condition": -0.259308338, "yes": 11, "no": 12, "missing": 12, "children": [{"nodeid": 11, "leaf": 0.00352648157}, {"nodeid": 12, "leaf": 0.667303562}]}, {"nodeid": 6, "depth": 2, "split": "cvRR", "split_condition": 2.76625061, "yes": 13, "no": 14, "missing": 14, "children": [{"nodeid": 13, "leaf": -0.111749373}, {"nodeid": 14, "leaf": 0.307105929}]}]}]}, {"nodeid": 0, "depth": 0, "split": "pnn20", "split_condition": -0.449719608, "yes": 1, "no": 2, "missing": 2, "children": [{"nodeid": 1, "depth": 1, "split": "meanRR", "split_condition": -0.370794386, "yes": 3, "no": 4, "missing": 4, "children": [{"nodeid": 3, "depth": 2, "split": "cvRR", "split_condition": -1.33628988, "yes": 7, "no": 8, "missing": 8, "children": [{"nodeid": 7, "leaf": 0.430901647}, {"nodeid": 8, "leaf": 0.0273889583}]}, {"nodeid": 4, "depth": 2, "split": "sd1sd2Ratio", "split_condition": -0.00369946845, "yes": 9, "no": 10, "missing": 10, "children": [{"nodeid": 9, "leaf": 0.417216033}, {"nodeid": 10, "leaf": 0.978502214}]}]}, {"nodeid": 2, "depth": 1, "split": "sampleEntropy", "split_condition": -2.44476342, "yes": 5, "no": 6, "missing": 6, "children": [{"nodeid": 5, "depth": 2, "split": "sd2", "split_condition": 0.632418096, "yes": 11, "no": 12, "missing": 12, "children": [{"nodeid": 11, "leaf": 0.756351829}, {"nodeid": 12, "leaf": -0.0592517853}]}, {"nodeid": 6, "depth": 2, "split": "pnn20", "split_condition": 0.23288025, "yes": 13, "no": 14, "missing": 14, "children": [{"nodeid": 13, "leaf": -0.00219148095}, {"nodeid": 14, "leaf": -0.142572463}]}]}]}, {"nodeid": 0, "depth": 0, "split": "cvRR", "split_condition": -0.851325929, "yes": 1, "no": 2, "missing": 2, "children": [{"nodeid": 1, "depth": 1, "split": "cvRR", "split_condition": -1.29873204, "yes": 3, "no": 4, "missing": 4, "children": [{"nodeid": 3, "depth": 2, "split": "meanRR", "split_condition": -0.66859591, "yes": 7, "no": 8, "missing": 8, "children": [{"nodeid": 7, "leaf": 0.270253032}, {"nodeid": 8, "leaf": 0.6523996}]}, {"nodeid": 4, "depth": 2, "split": "sd2", "split_condition": -1.07095897, "yes": 9, "no": 10, "missing": 10, "children": [{"nodeid": 9, "leaf": 0.0073146713}, {"nodeid": 10, "leaf": 0.285636157}]}]}, {"nodeid": 2, "depth": 1, "split": "cvRR", "split_condition": 2.76625061, "yes": 5, "no": 6, "missing": 6, "children": [{"nodeid": 5, "depth": 2, "split": "pnn20", "split_condition": 0.102783158, "yes": 11, "no": 12, "missing": 12, "children": [{"nodeid": 11, "leaf": 0.0153907565}, {"nodeid": 12, "leaf": -0.135119721}]}, {"nodeid": 6, "depth": 2, "split": "sd1sd2Ratio", "split_condition": 1.71679091, "yes": 13, "no": 14, "missing": 14, "children": [{"nodeid": 13, "leaf": -0.118160717}, {"nodeid": 14, "leaf": 0.63912791}]}]}]}, {"nodeid": 0, "depth": 0, "split": "pnn20", "split_condition": -0.601367712, "yes": 1, "no": 2, "missing": 2, "children": [{"nodeid": 1, "depth": 1, "split": "meanRR", "split_condition": -0.487292707, "yes": 3, "no": 4, "missing": 4, "children": [{"nodeid": 3, "depth": 2, "split": "cvRR", "split_condition": -1.16138792, "yes": 7, "no": 8, "missing": 8, "children": [{"nodeid": 7, "leaf": 0.240632281}, {"nodeid": 8, "leaf": 0.00393774407}]}, {"nodeid": 4, "depth": 2, "split": "sd1sd2Ratio", "split_condition": -0.00369946845, "yes": 9, "no": 10, "missing": 10, "children": [{"nodeid": 9, "leaf": 0.40175271}, {"nodeid": 10, "leaf": 0.937772393}]}]}, {"nodeid": 2, "depth": 1, "split": "meanRR", "split_condition": 0.21471937, "yes": 5, "no": 6, "missing": 6, "children": [{"nodeid": 5, "depth": 2, "split": "sd1sd2Ratio", "split_condition": 1.51490748, "yes": 11, "no": 12, "missing": 12, "children": [{"nodeid": 11, "leaf": -0.164623484}, {"nodeid": 12, "leaf": 0.148562521}]}, {"nodeid": 6, "depth": 2, "split": "pnn20", "split_condition": 0.135704562, "yes": 13, "no": 14, "missing": 14, "children": [{"nodeid": 13, "leaf": 0.289209127}, {"nodeid": 14, "leaf": -0.076553911}]}]}]}, {"nodeid": 0, "depth": 0, "split": "pnn20", "split_condition": 0.146624148, "yes": 1, "no": 2, "missing": 2, "children": [{"nodeid": 1, "depth": 1, "split": "meanRR", "split_condition": -0.0503910817, "yes": 3, "no": 4, "missing": 4, "children": [{"nodeid": 3, "depth": 2, "split": "pnn20", "split_condition": -1.01781082, "yes": 7, "no": 8, "missing": 8, "children": [{"nodeid": 7, "leaf": 0.163268343}, {"nodeid": 8, "leaf": -0.0695187151}]}, {"nodeid": 4, "depth": 2, "split": "sd1sd2Ratio", "split_condition": 0.725061119, "yes": 9, "no": 10, "missing": 10, "children": [{"nodeid": 9, "leaf": 0.31581372}, {"nodeid": 10, "leaf": 0.891113222}]}]}, {"nodeid": 2, "depth": 1, "split": "rmssd", "split_condition": 4.26427889, "yes": 5, "no": 6, "missing": 6, "children": [{"nodeid": 5, "depth": 2, "split": "sampleEntropy", "split_condition": -2.44476342, "yes": 11, "no": 12, "missing": 12, "children": [{"nodeid": 11, "leaf": 0.419863403}, {"nodeid": 12, "leaf": -0.13338767}]}, {"nodeid": 6, "depth": 2, "split": "dfaAlpha1", "split_condition": -1.12358093, "yes": 13, "no": 14, "missing": 14, "children": [{"nodeid": 13, "leaf": 0.674236655}, {"nodeid": 14, "leaf": -0.120608665}]}]}]}, {"nodeid": 0, "depth": 0, "split": "cvRR", "split_condition": -1.1288166, "yes": 1, "no": 2, "missing": 2, "children": [{"nodeid": 1, "depth": 1, "split": "meanRR", "split_condition": -0.66859591, "yes": 3, "no": 4, "missing": 4, "children": [{"nodeid": 3, "depth": 2, "split": "dfaAlpha1", "split_condition": -0.664876878, "yes": 7, "no": 8, "missing": 8, "children": [{"nodeid": 7, "leaf": 0.387070239}, {"nodeid": 8, "leaf": 0.104655474}]}, {"nodeid": 4, "depth": 2, "split": "sd2", "split_condition": -1.03747153, "yes": 9, "no": 10, "missing": 10, "children": [{"nodeid": 9, "leaf": 0.630990982}, {"nodeid": 10, "leaf": 0.12145029}]}]}, {"nodeid": 2, "depth": 1, "split": "sampleEntropy", "split_condition": -2.38616538, "yes": 5, "no": 6, "missing": 6, "children": [{"nodeid": 5, "depth": 2, "split": "rmssd", "split_condition": -0.372957617, "yes": 11, "no": 12, "missing": 12, "children": [{"nodeid": 11, "leaf": 0.140918717}, {"nodeid": 12, "leaf": 0.755439758}]}, {"nodeid": 6, "depth": 2, "split": "sdnn", "split_condition": 3.17181921, "yes": 13, "no": 14, "missing": 14, "children": [{"nodeid": 13, "leaf": -0.0590013713}, {"nodeid": 14, "leaf": 0.460468471}]}]}]}, {"nodeid": 0, "depth": 0, "split": "pnn20", "split_condition": -0.328472674, "yes": 1, "no": 2, "missing": 2, "children": [{"nodeid": 1, "depth": 1, "split": "hrMean", "split_condition": 0.190046862, "yes": 3, "no": 4, "missing": 4, "children": [{"nodeid": 3, "depth": 2, "split": "sd1sd2Ratio", "split_condition": -0.00369946845, "yes": 7, "no": 8, "missing": 8, "children": [{"nodeid": 7, "leaf": 0.368291825}, {"nodeid": 8, "leaf": 0.884642065}]}, {"nodeid": 4, "depth": 2, "split": "dfaAlpha1", "split_condition": -0.664876878, "yes": 9, "no": 10, "missing": 10, "children": [{"nodeid": 9, "leaf": 0.568160951}, {"nodeid": 10, "leaf": 0.0367357507}]}]}, {"nodeid": 2, "depth": 1, "split": "sampleEntropy", "split_condition": -2.38616538, "yes": 5, "no": 6, "missing": 6, "children": [{"nodeid": 5, "depth": 2, "split": "sd2", "split_condition": 1.07741761, "yes": 11, "no": 12, "missing": 12, "children": [{"nodeid": 11, "leaf": 0.789588571}, {"nodeid": 12, "leaf": -0.0675844923}]}, {"nodeid": 6, "depth": 2, "split": "hrMean", "split_condition": -0.326249659, "yes": 13, "no": 14, "missing": 14, "children": [{"nodeid": 13, "leaf": -0.0130081372}, {"nodeid": 14, "leaf": -0.155826524}]}]}]}, {"nodeid": 0, "depth": 0, "split": "cvRR", "split_condition": -0.851325929, "yes": 1, "no": 2, "missing": 2, "children": [{"nodeid": 1, "depth": 1, "split": "cvRR", "split_condition": -1.28542948, "yes": 3, "no": 4, "missing": 4, "children": [{"nodeid": 3, "depth": 2, "split": "cvRR", "split_condition": -1.68459737, "yes": 7, "no": 8, "missing": 8, "children": [{"nodeid": 7, "leaf": 0.0224574618}, {"nodeid": 8, "leaf": 0.534203649}]}, {"nodeid": 4, "depth": 2, "split": "sd2", "split_condition": -1.1276089, "yes": 9, "no": 10, "missing": 10, "children": [{"nodeid": 9, "leaf": -0.020051701}, {"nodeid": 10, "leaf": 0.294733256}]}]}, {"nodeid": 2, "depth": 1, "split": "cvRR", "split_condition": 2.76625061, "yes": 5, "no": 6, "missing": 6, "children": [{"nodeid": 5, "depth": 2, "split": "sampleEntropy", "split_condition": -1.65398335, "yes": 11, "no": 12, "missing": 12, "children": [{"nodeid": 11, "leaf": 0.252688915}, {"nodeid": 12, "leaf": -0.0755351856}]}, {"nodeid": 6, "depth": 2, "split": "sd1sd2Ratio", "split_condition": 1.71679091, "yes": 13, "no": 14, "missing": 14, "children": [{"nodeid": 13, "leaf": -0.138048753}, {"nodeid": 14, "leaf": 0.739349425}]}]}]}, {"nodeid": 0, "depth": 0, "split": "pnn20", "split_condition": 0.109768726, "yes": 1, "no": 2, "missing": 2, "children": [{"nodeid": 1, "depth": 1, "split": "hrMean", "split_condition": -0.118137129, "yes": 3, "no": 4, "missing": 4, "children": [{"nodeid": 3, "depth": 2, "split": "sd1sd2Ratio", "split_condition": 0.549301207, "yes": 7, "no": 8, "missing": 8, "children": [{"nodeid": 7, "leaf": 0.318395525}, {"nodeid": 8, "leaf": 0.916083694}]}, {"nodeid": 4, "depth": 2, "split": "dfaAlpha1", "split_condition": -0.664876878, "yes": 9, "no": 10, "missing": 10, "children": [{"nodeid": 9, "leaf": 0.442179114}, {"nodeid": 10, "leaf": -0.00661242707}]}]}, {"nodeid": 2, "depth": 1, "split": "meanRR", "split_condition": -1.49081302, "yes": 5, "no": 6, "missing": 6, "children": [{"nodeid": 5, "depth": 2, "split": "meanRR", "split_condition": -2.72269535, "yes": 11, "no": 12, "missing": 12, "children": [{"nodeid": 11, "leaf": 0}, {"nodeid": 12, "leaf": 0.458827138}]}, {"nodeid": 6, "depth": 2, "split": "hrMean", "split_condition": -0.619831383, "yes": 13, "no": 14, "missing": 14, "children": [{"nodeid": 13, "leaf": -0.0488391034}, {"nodeid": 14, "leaf": -0.144654274}]}]}]}, {"nodeid": 0, "depth": 0, "split": "cvRR", "split_condition": -0.909353971, "yes": 1, "no": 2, "missing": 2, "children": [{"nodeid": 1, "depth": 1, "split": "meanRR", "split_condition": -0.0724595711, "yes": 3, "no": 4, "missing": 4, "children": [{"nodeid": 3, "depth": 2, "split": "pnn20", "split_condition": -0.71295929, "yes": 7, "no": 8, "missing": 8, "children": [{"nodeid": 7, "leaf": 0.180767015}, {"nodeid": 8, "leaf": -0.230644107}]}, {"nodeid": 4, "depth": 2, "split": "pnn20", "split_condition": -0.449719608, "yes": 9, "no": 10, "missing": 10, "children": [{"nodeid": 9, "leaf": 0.531881273}, {"nodeid": 10, "leaf": 0.111482434}]}]}, {"nodeid": 2, "depth": 1, "split": "sampleEntropy", "split_condition": -1.52061486, "yes": 5, "no": 6, "missing": 6, "children": [{"nodeid": 5, "depth": 2, "split": "sd1sd2Ratio", "split_condition": 0.275019407, "yes": 11, "no": 12, "missing": 12, "children": [{"nodeid": 11, "leaf": 0.0178632569}, {"nodeid": 12, "leaf": 0.616741419}]}, {"nodeid": 6, "depth": 2, "split": "hrMean", "split_condition": -0.612948, "yes": 13, "no": 14, "missing": 14, "children": [{"nodeid": 13, "leaf": 0.0211382266}, {"nodeid": 14, "leaf": -0.103340358}]}]}]}, {"nodeid": 0, "depth": 0, "split": "pnn20", "split_condition": -0.449719608, "yes": 1, "no": 2, "missing": 2, "children": [{"nodeid": 1, "depth": 1, "split": "meanRR", "split_condition": -0.4130885, "yes": 3, "no": 4, "missing": 4, "children": [{"nodeid": 3, "depth": 2, "split": "pnn20", "split_condition": -1.61805344, "yes": 7, "no": 8, "missing": 8, "children": [{"nodeid": 7, "leaf": 0.181860432}, {"nodeid": 8, "leaf": -0.0182210971}]}, {"nodeid": 4, "depth": 2, "split": "sd1sd2Ratio", "split_condition": -0.00369946845, "yes": 9, "no": 10, "missing": 10, "children": [{"nodeid": 9, "leaf": 0.402013391}, {"nodeid": 10, "leaf": 0.854593217}]}]}, {"nodeid": 2, "depth": 1, "split": "sampleEntropy", "split_condition": -2.38616538, "yes": 5, "no": 6, "missing": 6, "children": [{"nodeid": 5, "depth": 2, "split": "sd1sd2Ratio", "split_condition": -0.866638601, "yes": 11, "no": 12, "missing": 12, "children": [{"nodeid": 11, "leaf": -0.0642602518}, {"nodeid": 12, "leaf": 0.742908537}]}, {"nodeid": 6, "depth": 2, "split": "meanRR", "split_condition": 0.21471937, "yes": 13, "no": 14, "missing": 14, "children": [{"nodeid": 13, "leaf": -0.135889336}, {"nodeid": 14, "leaf": -0.0121135646}]}]}]}, {"nodeid": 0, "depth": 0, "split": "cvRR", "split_condition": -1.1288166, "yes": 1, "no": 2, "missing": 2, "children": [{"nodeid": 1, "depth": 1, "split": "hrMean", "split_condition": -0.0658474937, "yes": 3, "no": 4, "missing": 4, "children": [{"nodeid": 3, "depth": 2, "split": "sdnn", "split_condition": -0.856465459, "yes": 7, "no": 8, "missing": 8, "children": [{"nodeid": 7, "leaf": 0.566711783}, {"nodeid": 8, "leaf": -0.137228251}]}, {"nodeid": 4, "depth": 2, "split": "pnn20", "split_condition": -1.11734092, "yes": 9, "no": 10, "missing": 10, "children": [{"nodeid": 9, "leaf": 0.264895439}, {"nodeid": 10, "leaf": -0.139376611}]}]}, {"nodeid": 2, "depth": 1, "split": "pnn20", "split_condition": 0.146624148, "yes": 5, "no": 6, "missing": 6, "children": [{"nodeid": 5, "depth": 2, "split": "hrMean", "split_condition": -0.118137129, "yes": 11, "no": 12, "missing": 12, "children": [{"nodeid": 11, "leaf": 0.282334208}, {"nodeid": 12, "leaf": -0.0191494282}]}, {"nodeid": 6, "depth": 2, "split": "cvRR", "split_condition": 2.76625061, "yes": 13, "no": 14, "missing": 14, "children": [{"nodeid": 13, "leaf": -0.107109047}, {"nodeid": 14, "leaf": 0.270703882}]}]}]}, {"nodeid": 0, "depth": 0, "split": "cvRR", "split_condition": -1.275769, "yes": 1, "no": 2, "missing": 2, "children": [{"nodeid": 1, "depth": 1, "split": "rmssd", "split_condition": -1.0170927, "yes": 3, "no": 4, "missing": 4, "children": [{"nodeid": 3, "depth": 2, "split": "pnn50", "split_condition": -1.10740113, "yes": 7, "no": 8, "missing": 8, "children": [{"nodeid": 7, "leaf": 0.28876704}, {"nodeid": 8, "leaf": -0.22252582}]}, {"nodeid": 4, "depth": 2, "split": "sdnn", "split_condition": -0.90029788, "yes": 9, "no": 10, "missing": 10, "children": [{"nodeid": 9, "leaf": 0.695073485}, {"nodeid": 10, "leaf": -0.0948392078}]}]}, {"nodeid": 2, "depth": 1, "split": "sampleEntropy", "split_condition": -1.50545895, "yes": 5, "no": 6, "missing": 6, "children": [{"nodeid": 5, "depth": 2, "split": "sd1sd2Ratio", "split_condition": 0.0588219538, "yes": 11, "no": 12, "missing": 12, "children": [{"nodeid": 11, "leaf": 0.0673675165}, {"nodeid": 12, "leaf": 0.581107557}]}, {"nodeid": 6, "depth": 2, "split": "cvRR", "split_condition": -0.781678259, "yes": 13, "no": 14, "missing": 14, "children": [{"nodeid": 13, "leaf": 0.096605137}, {"nodeid": 14, "leaf": -0.0778612494}]}]}]}, {"nodeid": 0, "depth": 0, "split": "cvRR", "split_condition": -1.275769, "yes": 1, "no": 2, "missing": 2, "children": [{"nodeid": 1, "depth": 1, "split": "meanRR", "split_condition": -1.07983685, "yes": 3, "no": 4, "missing": 4, "children": [{"nodeid": 3, "depth": 2, "split": "cvRR", "split_condition": -1.32909322, "yes": 7, "no": 8, "missing": 8, "children": [{"nodeid": 7, "leaf": 0.18895866}, {"nodeid": 8, "leaf": -0.144103751}]}, {"nodeid": 4, "depth": 2, "split": "cvRR", "split_condition": -1.68459737, "yes": 9, "no": 10, "missing": 10, "children": [{"nodeid": 9, "leaf": -0.220300555}, {"nodeid": 10, "leaf": 0.515555739}]}]}, {"nodeid": 2, "depth": 1, "split": "cvRR", "split_condition": 2.76625061, "yes": 5, "no": 6, "missing": 6, "children": [{"nodeid": 5, "depth": 2, "split": "sampleEntropy", "split_condition": -1.10492313, "yes": 11, "no": 12, "missing": 12, "children": [{"nodeid": 11, "leaf": 0.144775435}, {"nodeid": 12, "leaf": -0.0600843988}]}, {"nodeid": 6, "depth": 2, "split": "dfaAlpha1", "split_condition": -1.12358093, "yes": 13, "no": 14, "missing": 14, "children": [{"nodeid": 13, "leaf": 0.629545033}, {"nodeid": 14, "leaf": -0.0736816376}]}]}]}, {"nodeid": 0, "depth": 0, "split": "pnn20", "split_condition": -0.550669611, "yes": 1, "no": 2, "missing": 2, "children": [{"nodeid": 1, "depth": 1, "split": "meanRR", "split_condition": -0.487292707, "yes": 3, "no": 4, "missing": 4, "children": [{"nodeid": 3, "depth": 2, "split": "pnn20", "split_condition": -1.61805344, "yes": 7, "no": 8, "missing": 8, "children": [{"nodeid": 7, "leaf": 0.1341272}, {"nodeid": 8, "leaf": -0.0733942762}]}, {"nodeid": 4, "depth": 2, "split": "dfaAlpha1", "split_condition": 1.47282326, "yes": 9, "no": 10, "missing": 10, "children": [{"nodeid": 9, "leaf": 0.509847224}, {"nodeid": 10, "leaf": 0.185510308}]}]}, {"nodeid": 2, "depth": 1, "split": "rmssd", "split_condition": 3.51843095, "yes": 5, "no": 6, "missing": 6, "children": [{"nodeid": 5, "depth": 2, "split": "pnn20", "split_condition": 0.620637476, "yes": 11, "no": 12, "missing": 12, "children": [{"nodeid": 11, "leaf": -0.017087806}, {"nodeid": 12, "leaf": -0.128745183}]}, {"nodeid": 6, "depth": 2, "split": "sdnn", "split_condition": 3.17181921, "yes": 13, "no": 14, "missing": 14, "children": [{"nodeid": 13, "leaf": -0.078634724}, {"nodeid": 14, "leaf": 0.559689403}]}]}]}, {"nodeid": 0, "depth": 0, "split": "pnn20", "split_condition": -0.601367712, "yes": 1, "no": 2, "missing": 2, "children": [{"nodeid": 1, "depth": 1, "split": "meanRR", "split_condition": -0.51904583, "yes": 3, "no": 4, "missing": 4, "children": [{"nodeid": 3, "depth": 2, "split": "meanRR", "split_condition": -1.13471973, "yes": 7, "no": 8, "missing": 8, "children": [{"nodeid": 7, "leaf": -0.107852191}, {"nodeid": 8, "leaf": 0.103719868}]}, {"nodeid": 4, "depth": 2, "split": "sd1sd2Ratio", "split_condition": -0.00369946845, "yes": 9, "no": 10, "missing": 10, "children": [{"nodeid": 9, "leaf": 0.311983258}, {"nodeid": 10, "leaf": 0.78957814}]}]}, {"nodeid": 2, "depth": 1, "split": "cvRR", "split_condition": 2.76625061, "yes": 5, "no": 6, "missing": 6, "children": [{"nodeid": 5, "depth": 2, "split": "hrMean", "split_condition": -0.294376373, "yes": 11, "no": 12, "missing": 12, "children": [{"nodeid": 11, "leaf": -0.0191814415}, {"nodeid": 12, "leaf": -0.126164943}]}, {"nodeid": 6, "depth": 2, "split": "dfaAlpha1", "split_condition": -1.12358093, "yes": 13, "no": 14, "missing": 14, "children": [{"nodeid": 13, "leaf": 0.581480026}, {"nodeid": 14, "leaf": -0.0785394982}]}]}]}, {"nodeid": 0, "depth": 0, "split": "cvRR", "split_condition": -1.1288166, "yes": 1, "no": 2, "missing": 2, "children": [{"nodeid": 1, "depth": 1, "split": "pnn20", "split_condition": -0.634773016, "yes": 3, "no": 4, "missing": 4, "children": [{"nodeid": 3, "depth": 2, "split": "meanRR", "split_condition": -1.1141032, "yes": 7, "no": 8, "missing": 8, "children": [{"nodeid": 7, "leaf": 0.0374855995}, {"nodeid": 8, "leaf": 0.407524049}]}, {"nodeid": 4, "leaf": -0.217336446}]}, {"nodeid": 2, "depth": 1, "split": "cvRR", "split_condition": 2.76625061, "yes": 5, "no": 6, "missing": 6, "children": [{"nodeid": 5, "depth": 2, "split": "pnn20", "split_condition": 0.146624148, "yes": 9, "no": 10, "missing": 10, "children": [{"nodeid": 9, "leaf": 0.0297208447}, {"nodeid": 10, "leaf": -0.0941807702}]}, {"nodeid": 6, "depth": 2, "split": "dfaAlpha1", "split_condition": -1.12358093, "yes": 11, "no": 12, "missing": 12, "children": [{"nodeid": 11, "leaf": 0.662368834}, {"nodeid": 12, "leaf": -0.0923845023}]}]}]}, {"nodeid": 0, "depth": 0, "split": "pnn20", "split_condition": 0.146624148, "yes": 1, "no": 2, "missing": 2, "children": [{"nodeid": 1, "depth": 1, "split": "meanRR", "split_condition": 0.137700751, "yes": 3, "no": 4, "missing": 4, "children": [{"nodeid": 3, "depth": 2, "split": "pnn20", "split_condition": -1.36818647, "yes": 7, "no": 8, "missing": 8, "children": [{"nodeid": 7, "leaf": 0.169509619}, {"nodeid": 8, "leaf": -0.0322290845}]}, {"nodeid": 4, "depth": 2, "split": "meanRR", "split_condition": 2.07907104, "yes": 9, "no": 10, "missing": 10, "children": [{"nodeid": 9, "leaf": 0.352469653}, {"nodeid": 10, "leaf": -0.193191662}]}]}, {"nodeid": 2, "depth": 1, "split": "rmssd", "split_condition": 3.85834789, "yes": 5, "no": 6, "missing": 6, "children": [{"nodeid": 5, "depth": 2, "split": "meanRR", "split_condition": -0.0393866748, "yes": 11, "no": 12, "missing": 12, "children": [{"nodeid": 11, "leaf": -0.153098702}, {"nodeid": 12, "leaf": -0.0681557059}]}, {"nodeid": 6, "depth": 2, "split": "cvRR", "split_condition": 2.16265011, "yes": 13, "no": 14, "missing": 14, "children": [{"nodeid": 13, "leaf": -0.105952673}, {"nodeid": 14, "leaf": 0.654194772}]}]}]}, {"nodeid": 0, "depth": 0, "split": "pnn20", "split_condition": 0.146624148, "yes": 1, "no": 2, "missing": 2, "children": [{"nodeid": 1, "depth": 1, "split": "meanRR", "split_condition": 0.201419666, "yes": 3, "no": 4, "missing": 4, "children": [{"nodeid": 3, "depth": 2, "split": "pnn20", "split_condition": -1.04235113, "yes": 7, "no": 8, "missing": 8, "children": [{"nodeid": 7, "leaf": 0.137458056}, {"nodeid": 8, "leaf": -0.0559514575}]}, {"nodeid": 4, "depth": 2, "split": "meanRR", "split_condition": 2.07907104, "yes": 9, "no": 10, "missing": 10, "children": [{"nodeid": 9, "leaf": 0.378077179}, {"nodeid": 10, "leaf": -0.0902858153}]}]}, {"nodeid": 2, "depth": 1, "split": "rmssd", "split_condition": 3.51843095, "yes": 5, "no": 6, "missing": 6, "children": [{"nodeid": 5, "depth": 2, "split": "pnn50", "split_condition": -0.833038568, "yes": 11, "no": 12, "missing": 12, "children": [{"nodeid": 11, "leaf": 0.396840841}, {"nodeid": 12, "leaf": -0.0957277566}]}, {"nodeid": 6, "depth": 2, "split": "meanRR", "split_condition": 1.20805967, "yes": 13, "no": 14, "missing": 14, "children": [{"nodeid": 13, "leaf": 0.731051564}, {"nodeid": 14, "leaf": 0}]}]}]}, {"nodeid": 0, "depth": 0, "split": "pnn20", "split_condition": -0.449719608, "yes": 1, "no": 2, "missing": 2, "children": [{"nodeid": 1, "depth": 1, "split": "hrMean", "split_condition": 0.190046862, "yes": 3, "no": 4, "missing": 4, "children": [{"nodeid": 3, "depth": 2, "split": "sd1sd2Ratio", "split_condition": -0.00369946845, "yes": 7, "no": 8, "missing": 8, "children": [{"nodeid": 7, "leaf": 0.311149567}, {"nodeid": 8, "leaf": 0.799028635}]}, {"nodeid": 4, "depth": 2, "split": "meanRR", "split_condition": -1.16172445, "yes": 9, "no": 10, "missing": 10, "children": [{"nodeid": 9, "leaf": -0.0837763473}, {"nodeid": 10, "leaf": 0.0883944333}]}]}, {"nodeid": 2, "depth": 1, "split": "sd1", "split_condition": 3.51650262, "yes": 5, "no": 6, "missing": 6, "children": [{"nodeid": 5, "depth": 2, "split": "sampleEntropy", "split_condition": -2.38616538, "yes": 11, "no": 12, "missing": 12, "children": [{"nodeid": 11, "leaf": 0.48876223}, {"nodeid": 12, "leaf": -0.067051895}]}, {"nodeid": 6, "depth": 2, "split": "cvRR", "split_condition": 2.56184316, "yes": 13, "no": 14, "missing": 14, "children": [{"nodeid": 13, "leaf": -0.0756577998}, {"nodeid": 14, "leaf": 0.642401278}]}]}]}, {"nodeid": 0, "depth": 0, "split": "cvRR", "split_condition": -1.29873204, "yes": 1, "no": 2, "missing": 2, "children": [{"nodeid": 1, "depth": 1, "split": "cvRR", "split_condition": -1.63323414, "yes": 3, "no": 4, "missing": 4, "children": [{"nodeid": 3, "depth": 2, "split": "sdnn", "split_condition": -1.50160432, "yes": 7, "no": 8, "missing": 8, "children": [{"nodeid": 7, "leaf": 0.214412823}, {"nodeid": 8, "leaf": -0.193728924}]}, {"nodeid": 4, "depth": 2, "split": "cvRR", "split_condition": -1.33628988, "yes": 9, "no": 10, "missing": 10, "children": [{"nodeid": 9, "leaf": 0.520815313}, {"nodeid": 10, "leaf": 0.164686158}]}]}, {"nodeid": 2, "depth": 1, "split": "pnn20", "split_condition": 0.146624148, "yes": 5, "no": 6, "missing": 6, "children": [{"nodeid": 5, "depth": 2, "split": "sd1sd2Ratio", "split_condition": 0.459013522, "yes": 11, "no": 12, "missing": 12, "children": [{"nodeid": 11, "leaf": 0.017113328}, {"nodeid": 12, "leaf": 0.547571361}]}, {"nodeid": 6, "depth": 2, "split": "cvRR", "split_condition": 2.76625061, "yes": 13, "no": 14, "missing": 14, "children": [{"nodeid": 13, "leaf": -0.0864028409}, {"nodeid": 14, "leaf": 0.332660079}]}]}]}, {"nodeid": 0, "depth": 0, "split": "cvRR", "split_condition": -1.15930748, "yes": 1, "no": 2, "missing": 2, "children": [{"nodeid": 1, "depth": 1, "split": "dfaAlpha1", "split_condition": -0.834438443, "yes": 3, "no": 4, "missing": 4, "children": [{"nodeid": 3, "leaf": 0.651035905}, {"nodeid": 4, "depth": 2, "split": "meanRR", "split_condition": -1.1141032, "yes": 7, "no": 8, "missing": 8, "children": [{"nodeid": 7, "leaf": -0.0550608337}, {"nodeid": 8, "leaf": 0.273562431}]}]}, {"nodeid": 2, "depth": 1, "split": "sampleEntropy", "split_condition": -2.44476342, "yes": 5, "no": 6, "missing": 6, "children": [{"nodeid": 5, "depth": 2, "split": "dfaAlpha1", "split_condition": 0.918101192, "yes": 9, "no": 10, "missing": 10, "children": [{"nodeid": 9, "leaf": 0.63434577}, {"nodeid": 10, "leaf": 0.0760488734}]}, {"nodeid": 6, "depth": 2, "split": "meanRR", "split_condition": 0.21471937, "yes": 11, "no": 12, "missing": 12, "children": [{"nodeid": 11, "leaf": -0.068852216}, {"nodeid": 12, "leaf": 0.0305752289}]}]}]}, {"nodeid": 0, "depth": 0, "split": "pnn20", "split_condition": -0.476602614, "yes": 1, "no": 2, "missing": 2, "children": [{"nodeid": 1, "depth": 1, "split": "meanRR", "split_condition": -0.533727527, "yes": 3, "no": 4, "missing": 4, "children": [{"nodeid": 3, "depth": 2, "split": "dfaAlpha1", "split_condition": -0.664876878, "yes": 7, "no": 8, "missing": 8, "children": [{"nodeid": 7, "leaf": 0.377511621}, {"nodeid": 8, "leaf": -0.0145547027}]}, {"nodeid": 4, "depth": 2, "split": "dfaAlpha1", "split_condition": -0.436841041, "yes": 9, "no": 10, "missing": 10, "children": [{"nodeid": 9, "leaf": 0.659408748}, {"nodeid": 10, "leaf": 0.294859678}]}]}, {"nodeid": 2, "depth": 1, "split": "sampleEntropy", "split_condition": -2.38616538, "yes": 5, "no": 6, "missing": 6, "children": [{"nodeid": 5, "depth": 2, "split": "dfaAlpha1", "split_condition": 0.368658483, "yes": 11, "no": 12, "missing": 12, "children": [{"nodeid": 11, "leaf": 0.658935964}, {"nodeid": 12, "leaf": -0.0697513148}]}, {"nodeid": 6, "depth": 2, "split": "meanRR", "split_condition": 0.21471937, "yes": 13, "no": 14, "missing": 14, "children": [{"nodeid": 13, "leaf": -0.118696928}, {"nodeid": 14, "leaf": 0.00862514507}]}]}]}, {"nodeid": 0, "depth": 0, "split": "cvRR", "split_condition": -0.416800082, "yes": 1, "no": 2, "missing": 2, "children": [{"nodeid": 1, "depth": 1, "split": "hrMean", "split_condition": -0.113562815, "yes": 3, "no": 4, "missing": 4, "children": [{"nodeid": 3, "depth": 2, "split": "sampleEntropy", "split_condition": -0.12784864, "yes": 7, "no": 8, "missing": 8, "children": [{"nodeid": 7, "leaf": 0.510988474}, {"nodeid": 8, "leaf": 0.117838211}]}, {"nodeid": 4, "depth": 2, "split": "cvRR", "split_condition": -1.275769, "yes": 9, "no": 10, "missing": 10, "children": [{"nodeid": 9, "leaf": 0.199630767}, {"nodeid": 10, "leaf": -0.0154520217}]}]}, {"nodeid": 2, "depth": 1, "split": "sd1sd2Ratio", "split_condition": 1.6789403, "yes": 5, "no": 6, "missing": 6, "children": [{"nodeid": 5, "depth": 2, "split": "cvRR", "split_condition": 0.422254026, "yes": 11, "no": 12, "missing": 12, "children": [{"nodeid": 11, "leaf": -0.0508742295}, {"nodeid": 12, "leaf": -0.131896496}]}, {"nodeid": 6, "depth": 2, "split": "cvRR", "split_condition": 2.31568694, "yes": 13, "no": 14, "missing": 14, "children": [{"nodeid": 13, "leaf": 0.0359799303}, {"nodeid": 14, "leaf": 0.516838968}]}]}]}, {"nodeid": 0, "depth": 0, "split": "cvRR", "split_condition": -0.851325929, "yes": 1, "no": 2, "missing": 2, "children": [{"nodeid": 1, "depth": 1, "split": "meanRR", "split_condition": -1.1141032, "yes": 3, "no": 4, "missing": 4, "children": [{"nodeid": 3, "depth": 2, "split": "sd2", "split_condition": -1.69821322, "yes": 7, "no": 8, "missing": 8, "children": [{"nodeid": 7, "leaf": 0.253137738}, {"nodeid": 8, "leaf": -0.123801269}]}, {"nodeid": 4, "depth": 2, "split": "sampleEntropy", "split_condition": -0.0514750443, "yes": 9, "no": 10, "missing": 10, "children": [{"nodeid": 9, "leaf": 0.372698814}, {"nodeid": 10, "leaf": 0.0895969868}]}]}, {"nodeid": 2, "depth": 1, "split": "sd1sd2Ratio", "split_condition": 1.71679091, "yes": 5, "no": 6, "missing": 6, "children": [{"nodeid": 5, "depth": 2, "split": "sd1sd2Ratio", "split_condition": -1.22387516, "yes": 11, "no": 12, "missing": 12, "children": [{"nodeid": 11, "leaf": 0.251802832}, {"nodeid": 12, "leaf": -0.0590588115}]}, {"nodeid": 6, "depth": 2, "split": "sampleEntropy", "split_condition": -1.78940809, "yes": 13, "no": 14, "missing": 14, "children": [{"nodeid": 13, "leaf": 0.58500284}, {"nodeid": 14, "leaf": 0.0719271004}]}]}]}, {"nodeid": 0, "depth": 0, "split": "cvRR", "split_condition": -0.781678259, "yes": 1, "no": 2, "missing": 2, "children": [{"nodeid": 1, "depth": 1, "split": "meanRR", "split_condition": -1.16172445, "yes": 3, "no": 4, "missing": 4, "children": [{"nodeid": 3, "depth": 2, "split": "dfaAlpha1", "split_condition": 0.651478708, "yes": 7, "no": 8, "missing": 8, "children": [{"nodeid": 7, "leaf": 0.182024598}, {"nodeid": 8, "leaf": -0.151637793}]}, {"nodeid": 4, "depth": 2, "split": "rmssd", "split_condition": -0.877616823, "yes": 9, "no": 10, "missing": 10, "children": [{"nodeid": 9, "leaf": 0.338703096}, {"nodeid": 10, "leaf": 0.0934872553}]}]}, {"nodeid": 2, "depth": 1, "split": "sampleEntropy", "split_condition": -1.54483366, "yes": 5, "no": 6, "missing": 6, "children": [{"nodeid": 5, "depth": 2, "split": "sd1sd2Ratio", "split_condition": 0.275019407, "yes": 11, "no": 12, "missing": 12, "children": [{"nodeid": 11, "leaf": -0.00856513344}, {"nodeid": 12, "leaf": 0.486443073}]}, {"nodeid": 6, "depth": 2, "split": "cvRR", "split_condition": 2.76625061, "yes": 13, "no": 14, "missing": 14, "children": [{"nodeid": 13, "leaf": -0.0648119152}, {"nodeid": 14, "leaf": 0.278501153}]}]}]}, {"nodeid": 0, "depth": 0, "split": "cvRR", "split_condition": -1.32909322, "yes": 1, "no": 2, "missing": 2, "children": [{"nodeid": 1, "depth": 1, "split": "cvRR", "split_condition": -1.68459737, "yes": 3, "no": 4, "missing": 4, "children": [{"nodeid": 3, "depth": 2, "split": "sd1sd2Ratio", "split_condition": -0.856764078, "yes": 7, "no": 8, "missing": 8, "children": [{"nodeid": 7, "leaf": 0.248360991}, {"nodeid": 8, "leaf": -0.163630858}]}, {"nodeid": 4, "depth": 2, "split": "sd1sd2Ratio", "split_condition": -0.187615737, "yes": 9, "no": 10, "missing": 10, "children": [{"nodeid": 9, "leaf": 0.299053401}, {"nodeid": 10, "leaf": 0.622114301}]}]}, {"nodeid": 2, "depth": 1, "split": "sampleEntropy", "split_condition": -1.10492313, "yes": 5, "no": 6, "missing": 6, "children": [{"nodeid": 5, "depth": 2, "split": "sd1sd2Ratio", "split_condition": 0.275019407, "yes": 11, "no": 12, "missing": 12, "children": [{"nodeid": 11, "leaf": 0.0500845201}, {"nodeid": 12, "leaf": 0.475397378}]}, {"nodeid": 6, "depth": 2, "split": "hrMean", "split_condition": -0.113562815, "yes": 13, "no": 14, "missing": 14, "children": [{"nodeid": 13, "leaf": 0.00926646497}, {"nodeid": 14, "leaf": -0.0875525773}]}]}]}, {"nodeid": 0, "depth": 0, "split": "cvRR", "split_condition": -0.781678259, "yes": 1, "no": 2, "missing": 2, "children": [{"nodeid": 1, "depth": 1, "split": "meanRR", "split_condition": -0.645755887, "yes": 3, "no": 4, "missing": 4, "children": [{"nodeid": 3, "depth": 2, "split": "cvRR", "split_condition": -1.16138792, "yes": 7, "no": 8, "missing": 8, "children": [{"nodeid": 7, "leaf": 0.176645756}, {"nodeid": 8, "leaf": -0.0655994341}]}, {"nodeid": 4, "depth": 2, "split": "sampleEntropy", "split_condition": -0.144843236, "yes": 9, "no": 10, "missing": 10, "children": [{"nodeid": 9, "leaf": 0.435624033}, {"nodeid": 10, "leaf": 0.148932382}]}]}, {"nodeid": 2, "depth": 1, "split": "hrMean", "split_condition": -0.612948, "yes": 5, "no": 6, "missing": 6, "children": [{"nodeid": 5, "depth": 2, "split": "pnn50", "split_condition": 0.4621948, "yes": 11, "no": 12, "missing": 12, "children": [{"nodeid": 11, "leaf": 0.244994968}, {"nodeid": 12, "leaf": -0.0359994732}]}, {"nodeid": 6, "depth": 2, "split": "sampleEntropy", "split_condition": -2.44476342, "yes": 13, "no": 14, "missing": 14, "children": [{"nodeid": 13, "leaf": 0.300011009}, {"nodeid": 14, "leaf": -0.0798622444}]}]}]}, {"nodeid": 0, "depth": 0, "split": "pnn20", "split_condition": 0.0230530985, "yes": 1, "no": 2, "missing": 2, "children": [{"nodeid": 1, "depth": 1, "split": "hrMean", "split_condition": -0.118137129, "yes": 3, "no": 4, "missing": 4, "children": [{"nodeid": 3, "depth": 2, "split": "sd1sd2Ratio", "split_condition": 0.173387542, "yes": 7, "no": 8, "missing": 8, "children": [{"nodeid": 7, "leaf": 0.202630505}, {"nodeid": 8, "leaf": 0.567092776}]}, {"nodeid": 4, "depth": 2, "split": "hrMean", "split_condition": 1.30317748, "yes": 9, "no": 10, "missing": 10, "children": [{"nodeid": 9, "leaf": 0.0371666215}, {"nodeid": 10, "leaf": -0.123189524}]}]}, {"nodeid": 2, "depth": 1, "split": "cvRR", "split_condition": 2.76625061, "yes": 5, "no": 6, "missing": 6, "children": [{"nodeid": 5, "depth": 2, "split": "sampleEntropy", "split_condition": -2.44476342, "yes": 11, "no": 12, "missing": 12, "children": [{"nodeid": 11, "leaf": 0.45750159}, {"nodeid": 12, "leaf": -0.0765277445}]}, {"nodeid": 6, "depth": 2, "split": "sd1sd2Ratio", "split_condition": 1.71679091, "yes": 13, "no": 14, "missing": 14, "children": [{"nodeid": 13, "leaf": -0.119520754}, {"nodeid": 14, "leaf": 0.583793581}]}]}]}, {"nodeid": 0, "depth": 0, "split": "cvRR", "split_condition": -0.781678259, "yes": 1, "no": 2, "missing": 2, "children": [{"nodeid": 1, "depth": 1, "split": "meanRR", "split_condition": -0.487292707, "yes": 3, "no": 4, "missing": 4, "children": [{"nodeid": 3, "depth": 2, "split": "cvRR", "split_condition": -1.33628988, "yes": 7, "no": 8, "missing": 8, "children": [{"nodeid": 7, "leaf": 0.267408371}, {"nodeid": 8, "leaf": -0.028901821}]}, {"nodeid": 4, "depth": 2, "split": "sampleEntropy", "split_condition": 0.107402861, "yes": 9, "no": 10, "missing": 10, "children": [{"nodeid": 9, "leaf": 0.364488959}, {"nodeid": 10, "leaf": 0.092287071}]}]}, {"nodeid": 2, "depth": 1, "split": "sampleEntropy", "split_condition": -1.52061486, "yes": 5, "no": 6, "missing": 6, "children": [{"nodeid": 5, "depth": 2, "split": "sd1sd2Ratio", "split_condition": 0.0588219538, "yes": 11, "no": 12, "missing": 12, "children": [{"nodeid": 11, "leaf": 0.0176106319}, {"nodeid": 12, "leaf": 0.468712807}]}, {"nodeid": 6, "depth": 2, "split": "hrMean", "split_condition": -0.612948, "yes": 13, "no": 14, "missing": 14, "children": [{"nodeid": 13, "leaf": 0.0565247089}, {"nodeid": 14, "leaf": -0.0786146671}]}]}]}, {"nodeid": 0, "depth": 0, "split": "cvRR", "split_condition": -1.275769, "yes": 1, "no": 2, "missing": 2, "children": [{"nodeid": 1, "depth": 1, "split": "meanRR", "split_condition": -0.66859591, "yes": 3, "no": 4, "missing": 4, "children": [{"nodeid": 3, "depth": 2, "split": "dfaAlpha1", "split_condition": -0.664876878, "yes": 7, "no": 8, "missing": 8, "children": [{"nodeid": 7, "leaf": 0.336935908}, {"nodeid": 8, "leaf": 0.0409804285}]}, {"nodeid": 4, "depth": 2, "split": "sdnn", "split_condition": -0.90029788, "yes": 9, "no": 10, "missing": 10, "children": [{"nodeid": 9, "leaf": 0.380907118}, {"nodeid": 10, "leaf": -0.138839558}]}]}, {"nodeid": 2, "depth": 1, "split": "sd1sd2Ratio", "split_condition": 1.6789403, "yes": 5, "no": 6, "missing": 6, "children": [{"nodeid": 5, "depth": 2, "split": "cvRR", "split_condition": -0.318078071, "yes": 11, "no": 12, "missing": 12, "children": [{"nodeid": 11, "leaf": 0.0337386392}, {"nodeid": 12, "leaf": -0.0782694295}]}, {"nodeid": 6, "depth": 2, "split": "dfaAlpha1", "split_condition": -0.893831074, "yes": 13, "no": 14, "missing": 14, "children": [{"nodeid": 13, "leaf": 0.0875963196}, {"nodeid": 14, "leaf": 0.631371021}]}]}]}, {"nodeid": 0, "depth": 0, "split": "pnn20", "split_condition": 0.146624148, "yes": 1, "no": 2, "missing": 2, "children": [{"nodeid": 1, "depth": 1, "split": "hrMean", "split_condition": -0.118137129, "yes": 3, "no": 4, "missing": 4, "children": [{"nodeid": 3, "depth": 2, "split": "sd2", "split_condition": -1.02401078, "yes": 7, "no": 8, "missing": 8, "children": [{"nodeid": 7, "leaf": 0.432352155}, {"nodeid": 8, "leaf": 0.172354862}]}, {"nodeid": 4, "depth": 2, "split": "hrMean", "split_condition": 1.0947938, "yes": 9, "no": 10, "missing": 10, "children": [{"nodeid": 9, "leaf": 0.0500419438}, {"nodeid": 10, "leaf": -0.109429166}]}]}, {"nodeid": 2, "depth": 1, "split": "rmssd", "split_condition": 3.51843095, "yes": 5, "no": 6, "missing": 6, "children": [{"nodeid": 5, "depth": 2, "split": "cvRR", "split_condition": 0.211910352, "yes": 11, "no": 12, "missing": 12, "children": [{"nodeid": 11, "leaf": -0.0207885113}, {"nodeid": 12, "leaf": -0.113640629}]}, {"nodeid": 6, "depth": 2, "split": "cvRR", "split_condition": 2.56184316, "yes": 13, "no": 14, "missing": 14, "children": [{"nodeid": 13, "leaf": -0.0974187851}, {"nodeid": 14, "leaf": 0.571506619}]}]}]}, {"nodeid": 0, "depth": 0, "split": "pnn20", "split_condition": -0.476602614, "yes": 1, "no": 2, "missing": 2, "children": [{"nodeid": 1, "depth": 1, "split": "hrMean", "split_condition": 0.190046862, "yes": 3, "no": 4, "missing": 4, "children": [{"nodeid": 3, "depth": 2, "split": "sd1sd2Ratio", "split_condition": -0.00369946845, "yes": 7, "no": 8, "missing": 8, "children": [{"nodeid": 7, "leaf": 0.257748187}, {"nodeid": 8, "leaf": 0.621484518}]}, {"nodeid": 4, "depth": 2, "split": "pnn20", "split_condition": -1.61805344, "yes": 9, "no": 10, "missing": 10, "children": [{"nodeid": 9, "leaf": 0.124938324}, {"nodeid": 10, "leaf": -0.0401453786}]}]}, {"nodeid": 2, "depth": 1, "split": "sampleEntropy", "split_condition": -2.38616538, "yes": 5, "no": 6, "missing": 6, "children": [{"nodeid": 5, "depth": 2, "split": "sd2", "split_condition": 1.07741761, "yes": 11, "no": 12, "missing": 12, "children": [{"nodeid": 11, "leaf": 0.580617189}, {"nodeid": 12, "leaf": -0.0676213428}]}, {"nodeid": 6, "depth": 2, "split": "meanRR", "split_condition": 0.21471937, "yes": 13, "no": 14, "missing": 14, "children": [{"nodeid": 13, "leaf": -0.08507967}, {"nodeid": 14, "leaf": 0.00486284681}]}]}]}, {"nodeid": 0, "depth": 0, "split": "pnn20", "split_condition": 0.102783158, "yes": 1, "no": 2, "missing": 2, "children": [{"nodeid": 1, "depth": 1, "split": "meanRR", "split_condition": 0.201419666, "yes": 3, "no": 4, "missing": 4, "children": [{"nodeid": 3, "depth": 2, "split": "dfaAlpha1", "split_condition": -0.664876878, "yes": 7, "no": 8, "missing": 8, "children": [{"nodeid": 7, "leaf": 0.418263346}, {"nodeid": 8, "leaf": 0.00876670983}]}, {"nodeid": 4, "depth": 2, "split": "sampleEntropy", "split_condition": 0.113600641, "yes": 9, "no": 10, "missing": 10, "children": [{"nodeid": 9, "leaf": 0.32522428}, {"nodeid": 10, "leaf": 0.120330103}]}]}, {"nodeid": 2, "depth": 1, "split": "cvRR", "split_condition": 2.76625061, "yes": 5, "no": 6, "missing": 6, "children": [{"nodeid": 5, "depth": 2, "split": "meanRR", "split_condition": 0.21471937, "yes": 11, "no": 12, "missing": 12, "children": [{"nodeid": 11, "leaf": -0.111734182}, {"nodeid": 12, "leaf": -0.0372325219}]}, {"nodeid": 6, "depth": 2, "split": "sd2", "split_condition": 2.6382513, "yes": 13, "no": 14, "missing": 14, "children": [{"nodeid": 13, "leaf": 0.450772971}, {"nodeid": 14, "leaf": -0.0569334552}]}]}]}, {"nodeid": 0, "depth": 0, "split": "pnn20", "split_condition": 0.146624148, "yes": 1, "no": 2, "missing": 2, "children": [{"nodeid": 1, "depth": 1, "split": "meanRR", "split_condition": -0.0503910817, "yes": 3, "no": 4, "missing": 4, "children": [{"nodeid": 3, "depth": 2, "split": "cvRR", "split_condition": -1.16138792, "yes": 7, "no": 8, "missing": 8, "children": [{"nodeid": 7, "leaf": 0.155749753}, {"nodeid": 8, "leaf": -0.0282817073}]}, {"nodeid": 4, "depth": 2, "split": "sampleEntropy", "split_condition": 0.113600641, "yes": 9, "no": 10, "missing": 10, "children": [{"nodeid": 9, "leaf": 0.361568779}, {"nodeid": 10, "leaf": 0.096720174}]}]}, {"nodeid": 2, "depth": 1, "split": "rmssd", "split_condition": 4.26427889, "yes": 5, "no": 6, "missing": 6, "children": [{"nodeid": 5, "depth": 2, "split": "pnn50", "split_condition": -0.833038568, "yes": 11, "no": 12, "missing": 12, "children": [{"nodeid": 11, "leaf": 0.350912094}, {"nodeid": 12, "leaf": -0.0707379431}]}, {"nodeid": 6, "depth": 2, "split": "sampleEntropy", "split_condition": -0.420770228, "yes": 13, "no": 14, "missing": 14, "children": [{"nodeid": 13, "leaf": -0.0754316151}, {"nodeid": 14, "leaf": 0.584784627}]}]}]}, {"nodeid": 0, "depth": 0, "split": "cvRR", "split_condition": -0.920452893, "yes": 1, "no": 2, "missing": 2, "children": [{"nodeid": 1, "depth": 1, "split": "cvRR", "split_condition": -1.32909322, "yes": 3, "no": 4, "missing": 4, "children": [{"nodeid": 3, "depth": 2, "split": "cvRR", "split_condition": -1.68459737, "yes": 7, "no": 8, "missing": 8, "children": [{"nodeid": 7, "leaf": 0.00691131596}, {"nodeid": 8, "leaf": 0.338238627}]}, {"nodeid": 4, "depth": 2, "split": "sd2", "split_condition": -1.1276089, "yes": 9, "no": 10, "missing": 10, "children": [{"nodeid": 9, "leaf": -0.0558429509}, {"nodeid": 10, "leaf": 0.229162559}]}]}, {"nodeid": 2, "depth": 1, "split": "rmssd", "split_condition": 3.85834789, "yes": 5, "no": 6, "missing": 6, "children": [{"nodeid": 5, "depth": 2, "split": "sampleEntropy", "split_condition": -1.78940809, "yes": 11, "no": 12, "missing": 12, "children": [{"nodeid": 11, "leaf": 0.166562915}, {"nodeid": 12, "leaf": -0.0441857651}]}, {"nodeid": 6, "depth": 2, "split": "cvRR", "split_condition": 2.06397629, "yes": 13, "no": 14, "missing": 14, "children": [{"nodeid": 13, "leaf": -0.0145337246}, {"nodeid": 14, "leaf": 0.722245872}]}]}]}, {"nodeid": 0, "depth": 0, "split": "cvRR", "split_condition": -0.392560244, "yes": 1, "no": 2, "missing": 2, "children": [{"nodeid": 1, "depth": 1, "split": "cvRR", "split_condition": -1.32909322, "yes": 3, "no": 4, "missing": 4, "children": [{"nodeid": 3, "depth": 2, "split": "sdnn", "split_condition": -1.55368328, "yes": 7, "no": 8, "missing": 8, "children": [{"nodeid": 7, "leaf": -0.0395828933}, {"nodeid": 8, "leaf": 0.348987281}]}, {"nodeid": 4, "depth": 2, "split": "sd2", "split_condition": -0.33982569, "yes": 9, "no": 10, "missing": 10, "children": [{"nodeid": 9, "leaf": 0.0372591838}, {"nodeid": 10, "leaf": 0.286694139}]}]}, {"nodeid": 2, "depth": 1, "split": "rmssd", "split_condition": 3.51843095, "yes": 5, "no": 6, "missing": 6, "children": [{"nodeid": 5, "depth": 2, "split": "pnn50", "split_condition": 0.185293019, "yes": 11, "no": 12, "missing": 12, "children": [{"nodeid": 11, "leaf": -0.00196625711}, {"nodeid": 12, "leaf": -0.0843688473}]}, {"nodeid": 6, "depth": 2, "split": "cvRR", "split_condition": 2.56184316, "yes": 13, "no": 14, "missing": 14, "children": [{"nodeid": 13, "leaf": -0.0955571085}, {"nodeid": 14, "leaf": 0.592308939}]}]}]}, {"nodeid": 0, "depth": 0, "split": "pnn20", "split_condition": 0.102783158, "yes": 1, "no": 2, "missing": 2, "children": [{"nodeid": 1, "depth": 1, "split": "meanRR", "split_condition": 0.201419666, "yes": 3, "no": 4, "missing": 4, "children": [{"nodeid": 3, "depth": 2, "split": "dfaAlpha1", "split_condition": -0.664876878, "yes": 7, "no": 8, "missing": 8, "children": [{"nodeid": 7, "leaf": 0.314427316}, {"nodeid": 8, "leaf": -0.0122872423}]}, {"nodeid": 4, "depth": 2, "split": "meanRR", "split_condition": 2.07907104, "yes": 9, "no": 10, "missing": 10, "children": [{"nodeid": 9, "leaf": 0.291328847}, {"nodeid": 10, "leaf": -0.153695226}]}]}, {"nodeid": 2, "depth": 1, "split": "rmssd", "split_condition": 3.51843095, "yes": 5, "no": 6, "missing": 6, "children": [{"nodeid": 5, "depth": 2, "split": "hrMean", "split_condition": -0.108016782, "yes": 11, "no": 12, "missing": 12, "children": [{"nodeid": 11, "leaf": -0.0380022973}, {"nodeid": 12, "leaf": -0.103345297}]}, {"nodeid": 6, "depth": 2, "split": "pnn20", "split_condition": 1.39624166, "yes": 13, "no": 14, "missing": 14, "children": [{"nodeid": 13, "leaf": 0.468761176}, {"nodeid": 14, "leaf": -0.206244037}]}]}]}, {"nodeid": 0, "depth": 0, "split": "cvRR", "split_condition": -1.32909322, "yes": 1, "no": 2, "missing": 2, "children": [{"nodeid": 1, "depth": 1, "split": "sdnn", "split_condition": -1.6698184, "yes": 3, "no": 4, "missing": 4, "children": [{"nodeid": 3, "depth": 2, "split": "meanRR", "split_condition": -2.72269535, "yes": 7, "no": 8, "missing": 8, "children": [{"nodeid": 7, "leaf": -0.0243184082}, {"nodeid": 8, "leaf": -0.160375625}]}, {"nodeid": 4, "depth": 2, "split": "meanRR", "split_condition": -2.21717024, "yes": 9, "no": 10, "missing": 10, "children": [{"nodeid": 9, "leaf": -0.0832993686}, {"nodeid": 10, "leaf": 0.360840231}]}]}, {"nodeid": 2, "depth": 1, "split": "sampleEntropy", "split_condition": -1.02671599, "yes": 5, "no": 6, "missing": 6, "children": [{"nodeid": 5, "depth": 2, "split": "cvRR", "split_condition": 0.211910352, "yes": 11, "no": 12, "missing": 12, "children": [{"nodeid": 11, "leaf": 0.229590431}, {"nodeid": 12, "leaf": -0.0347462334}]}, {"nodeid": 6, "depth": 2, "split": "meanRR", "split_condition": -0.0503910817, "yes": 13, "no": 14, "missing": 14, "children": [{"nodeid": 13, "leaf": -0.0855620205}, {"nodeid": 14, "leaf": -0.00786070246}]}]}]}, {"nodeid": 0, "depth": 0, "split": "pnn20", "split_condition": -0.779988766, "yes": 1, "no": 2, "missing": 2, "children": [{"nodeid": 1, "depth": 1, "split": "hrMean", "split_condition": 1.06208801, "yes": 3, "no": 4, "missing": 4, "children": [{"nodeid": 3, "depth": 2, "split": "sd1sd2Ratio", "split_condition": -0.00369946845, "yes": 7, "no": 8, "missing": 8, "children": [{"nodeid": 7, "leaf": 0.164483875}, {"nodeid": 8, "leaf": 0.554392993}]}, {"nodeid": 4, "depth": 2, "split": "sdnn", "split_condition": -1.50160432, "yes": 9, "no": 10, "missing": 10, "children": [{"nodeid": 9, "leaf": 0.190034613}, {"nodeid": 10, "leaf": -0.173078358}]}]}, {"nodeid": 2, "depth": 1, "split": "hrMean", "split_condition": -0.294376373, "yes": 5, "no": 6, "missing": 6, "children": [{"nodeid": 5, "depth": 2, "split": "pnn20", "split_condition": 0.652661979, "yes": 11, "no": 12, "missing": 12, "children": [{"nodeid": 11, "leaf": 0.127226442}, {"nodeid": 12, "leaf": -0.0651861727}]}, {"nodeid": 6, "depth": 2, "split": "sd1sd2Ratio", "split_condition": 1.54623091, "yes": 13, "no": 14, "missing": 14, "children": [{"nodeid": 13, "leaf": -0.0959646627}, {"nodeid": 14, "leaf": 0.118231297}]}]}]}, {"nodeid": 0, "depth": 0, "split": "cvRR", "split_condition": -1.275769, "yes": 1, "no": 2, "missing": 2, "children": [{"nodeid": 1, "depth": 1, "split": "rmssd", "split_condition": -1.20998812, "yes": 3, "no": 4, "missing": 4, "children": [{"nodeid": 3, "depth": 2, "split": "cvRR", "split_condition": -1.76900077, "yes": 7, "no": 8, "missing": 8, "children": [{"nodeid": 7, "leaf": -0.120846599}, {"nodeid": 8, "leaf": 0.0984326079}]}, {"nodeid": 4, "depth": 2, "split": "sd1sd2Ratio", "split_condition": -1.04691207, "yes": 9, "no": 10, "missing": 10, "children": [{"nodeid": 9, "leaf": 0.103105105}, {"nodeid": 10, "leaf": 0.354616851}]}]}, {"nodeid": 2, "depth": 1, "split": "sampleEntropy", "split_condition": -1.10492313, "yes": 5, "no": 6, "missing": 6, "children": [{"nodeid": 5, "depth": 2, "split": "sd1sd2Ratio", "split_condition": 0.173387542, "yes": 11, "no": 12, "missing": 12, "children": [{"nodeid": 11, "leaf": 0.0441654846}, {"nodeid": 12, "leaf": 0.362645239}]}, {"nodeid": 6, "depth": 2, "split": "cvRR", "split_condition": 2.76625061, "yes": 13, "no": 14, "missing": 14, "children": [{"nodeid": 13, "leaf": -0.0315201506}, {"nodeid": 14, "leaf": 0.339307904}]}]}]}, {"nodeid": 0, "depth": 0, "split": "pnn20", "split_condition": -0.869135618, "yes": 1, "no": 2, "missing": 2, "children": [{"nodeid": 1, "depth": 1, "split": "meanRR", "split_condition": -1.16172445, "yes": 3, "no": 4, "missing": 4, "children": [{"nodeid": 3, "depth": 2, "split": "cvRR", "split_condition": -1.32909322, "yes": 7, "no": 8, "missing": 8, "children": [{"nodeid": 7, "leaf": 0.176409289}, {"nodeid": 8, "leaf": -0.138064891}]}, {"nodeid": 4, "depth": 2, "split": "meanRR", "split_condition": 0.966917515, "yes": 9, "no": 10, "missing": 10, "children": [{"nodeid": 9, "leaf": 0.217848152}, {"nodeid": 10, "leaf": -0.0497076176}]}]}, {"nodeid": 2, "depth": 1, "split": "sampleEntropy", "split_condition": -2.44476342, "yes": 5, "no": 6, "missing": 6, "children": [{"nodeid": 5, "depth": 2, "split": "sd2", "split_condition": 0.997423232, "yes": 11, "no": 12, "missing": 12, "children": [{"nodeid": 11, "leaf": 0.470234185}, {"nodeid": 12, "leaf": -0.0645913705}]}, {"nodeid": 6, "depth": 2, "split": "meanRR", "split_condition": 0.472925097, "yes": 13, "no": 14, "missing": 14, "children": [{"nodeid": 13, "leaf": -0.0628818721}, {"nodeid": 14, "leaf": 0.0116915796}]}]}]}, {"nodeid": 0, "depth": 0, "split": "pnn50", "split_condition": -0.562592089, "yes": 1, "no": 2, "missing": 2, "children": [{"nodeid": 1, "depth": 1, "split": "hrMean", "split_condition": -0.118137129, "yes": 3, "no": 4, "missing": 4, "children": [{"nodeid": 3, "depth": 2, "split": "sampleEntropy", "split_condition": 0.0950780958, "yes": 7, "no": 8, "missing": 8, "children": [{"nodeid": 7, "leaf": 0.413348079}, {"nodeid": 8, "leaf": 0.0787562057}]}, {"nodeid": 4, "depth": 2, "split": "rmssd", "split_condition": -0.259308338, "yes": 9, "no": 10, "missing": 10, "children": [{"nodeid": 9, "leaf": 0.00239561638}, {"nodeid": 10, "leaf": 0.570786297}]}]}, {"nodeid": 2, "depth": 1, "split": "hrMean", "split_condition": -0.908362806, "yes": 5, "no": 6, "missing": 6, "children": [{"nodeid": 5, "depth": 2, "split": "pnn50", "split_condition": 0.4621948, "yes": 11, "no": 12, "missing": 12, "children": [{"nodeid": 11, "leaf": 0.263494164}, {"nodeid": 12, "leaf": -0.0251159184}]}, {"nodeid": 6, "depth": 2, "split": "hrMean", "split_condition": 1.48710823, "yes": 13, "no": 14, "missing": 14, "children": [{"nodeid": 13, "leaf": -0.0702448115}, {"nodeid": 14, "leaf": 0.190110475}]}]}]}, {"nodeid": 0, "depth": 0, "split": "pnn20", "split_condition": 0.146624148, "yes": 1, "no": 2, "missing": 2, "children": [{"nodeid": 1, "depth": 1, "split": "sd1sd2Ratio", "split_condition": 0.421075076, "yes": 3, "no": 4, "missing": 4, "children": [{"nodeid": 3, "depth": 2, "split": "meanRR", "split_condition": -0.370794386, "yes": 7, "no": 8, "missing": 8, "children": [{"nodeid": 7, "leaf": -0.0189821944}, {"nodeid": 8, "leaf": 0.148094639}]}, {"nodeid": 4, "depth": 2, "split": "meanRR", "split_condition": -2.72269535, "yes": 9, "no": 10, "missing": 10, "children": [{"nodeid": 9, "leaf": -0.139562234}, {"nodeid": 10, "leaf": 0.483431429}]}]}, {"nodeid": 2, "depth": 1, "split": "rmssd", "split_condition": 3.85834789, "yes": 5, "no": 6, "missing": 6, "children": [{"nodeid": 5, "depth": 2, "split": "pnn20", "split_condition": 0.603125811, "yes": 11, "no": 12, "missing": 12, "children": [{"nodeid": 11, "leaf": -0.0177370459}, {"nodeid": 12, "leaf": -0.0806016847}]}, {"nodeid": 6, "depth": 2, "split": "dfaAlpha1", "split_condition": -1.12358093, "yes": 13, "no": 14, "missing": 14, "children": [{"nodeid": 13, "leaf": 0.388303399}, {"nodeid": 14, "leaf": -0.186372295}]}]}]}, {"nodeid": 0, "depth": 0, "split": "pnn20", "split_condition": -0.328472674, "yes": 1, "no": 2, "missing": 2, "children": [{"nodeid": 1, "depth": 1, "split": "sd1sd2Ratio", "split_condition": 0.611246526, "yes": 3, "no": 4, "missing": 4, "children": [{"nodeid": 3, "depth": 2, "split": "meanRR", "split_condition": -0.4130885, "yes": 7, "no": 8, "missing": 8, "children": [{"nodeid": 7, "leaf": -0.0323967673}, {"nodeid": 8, "leaf": 0.178273976}]}, {"nodeid": 4, "depth": 2, "split": "sampleEntropy", "split_condition": -2.10458422, "yes": 9, "no": 10, "missing": 10, "children": [{"nodeid": 9, "leaf": 0.13345401}, {"nodeid": 10, "leaf": 0.63259095}]}]}, {"nodeid": 2, "depth": 1, "split": "sampleEntropy", "split_condition": -2.38616538, "yes": 5, "no": 6, "missing": 6, "children": [{"nodeid": 5, "leaf": 0.521971285}, {"nodeid": 6, "depth": 2, "split": "hrMean", "split_condition": -0.619831383, "yes": 11, "no": 12, "missing": 12, "children": [{"nodeid": 11, "leaf": 0.0175820962}, {"nodeid": 12, "leaf": -0.0711197555}]}]}]}, {"nodeid": 0, "depth": 0, "split": "pnn20", "split_condition": -0.0642058849, "yes": 1, "no": 2, "missing": 2, "children": [{"nodeid": 1, "depth": 1, "split": "sd1sd2Ratio", "split_condition": 0.292238951, "yes": 3, "no": 4, "missing": 4, "children": [{"nodeid": 3, "depth": 2, "split": "meanRR", "split_condition": -0.357875407, "yes": 7, "no": 8, "missing": 8, "children": [{"nodeid": 7, "leaf": -0.0273351707}, {"nodeid": 8, "leaf": 0.157994464}]}, {"nodeid": 4, "depth": 2, "split": "pnn20", "split_condition": -2.18864918, "yes": 9, "no": 10, "missing": 10, "children": [{"nodeid": 9, "leaf": -0.104589343}, {"nodeid": 10, "leaf": 0.561880589}]}]}, {"nodeid": 2, "depth": 1, "split": "rmssd", "split_condition": 3.51843095, "yes": 5, "no": 6, "missing": 6, "children": [{"nodeid": 5, "depth": 2, "split": "meanRR", "split_condition": -1.49081302, "yes": 11, "no": 12, "missing": 12, "children": [{"nodeid": 11, "leaf": 0.295175314}, {"nodeid": 12, "leaf": -0.0496869609}]}, {"nodeid": 6, "depth": 2, "split": "sdnn", "split_condition": 3.17181921, "yes": 13, "no": 14, "missing": 14, "children": [{"nodeid": 13, "leaf": -0.0404053219}, {"nodeid": 14, "leaf": 0.487034112}]}]}]}, {"nodeid": 0, "depth": 0, "split": "pnn20", "split_condition": -0.328472674, "yes": 1, "no": 2, "missing": 2, "children": [{"nodeid": 1, "depth": 1, "split": "sd1sd2Ratio", "split_condition": 0.292238951, "yes": 3, "no": 4, "missing": 4, "children": [{"nodeid": 3, "depth": 2, "split": "meanRR", "split_condition": -1.16172445, "yes": 7, "no": 8, "missing": 8, "children": [{"nodeid": 7, "leaf": -0.12674275}, {"nodeid": 8, "leaf": 0.0753706992}]}, {"nodeid": 4, "depth": 2, "split": "pnn20", "split_condition": -2.18864918, "yes": 9, "no": 10, "missing": 10, "children": [{"nodeid": 9, "leaf": -0.10270676}, {"nodeid": 10, "leaf": 0.557704508}]}]}, {"nodeid": 2, "depth": 1, "split": "meanRR", "split_condition": 0.137700751, "yes": 5, "no": 6, "missing": 6, "children": [{"nodeid": 5, "depth": 2, "split": "sd1sd2Ratio", "split_condition": 1.54623091, "yes": 11, "no": 12, "missing": 12, "children": [{"nodeid": 11, "leaf": -0.0976265371}, {"nodeid": 12, "leaf": 0.0680181757}]}, {"nodeid": 6, "depth": 2, "split": "pnn20", "split_condition": 0.577224612, "yes": 13, "no": 14, "missing": 14, "children": [{"nodeid": 13, "leaf": 0.0966250077}, {"nodeid": 14, "leaf": -0.0537616871}]}]}]}, {"nodeid": 0, "depth": 0, "split": "rmssd", "split_condition": -0.877616823, "yes": 1, "no": 2, "missing": 2, "children": [{"nodeid": 1, "depth": 1, "split": "meanRR", "split_condition": -1.16172445, "yes": 3, "no": 4, "missing": 4, "children": [{"nodeid": 3, "depth": 2, "split": "sdnn", "split_condition": -1.50160432, "yes": 7, "no": 8, "missing": 8, "children": [{"nodeid": 7, "leaf": 0.107413016}, {"nodeid": 8, "leaf": -0.162818208}]}, {"nodeid": 4, "depth": 2, "split": "sampleEntropy", "split_condition": -1.8470304, "yes": 9, "no": 10, "missing": 10, "children": [{"nodeid": 9, "leaf": 0.525791585}, {"nodeid": 10, "leaf": 0.211239249}]}]}, {"nodeid": 2, "depth": 1, "split": "rmssd", "split_condition": 3.51843095, "yes": 5, "no": 6, "missing": 6, "children": [{"nodeid": 5, "depth": 2, "split": "pnn50", "split_condition": 0.4621948, "yes": 11, "no": 12, "missing": 12, "children": [{"nodeid": 11, "leaf": -0.00494736852}, {"nodeid": 12, "leaf": -0.076483272}]}, {"nodeid": 6, "depth": 2, "split": "meanRR", "split_condition": 1.20805967, "yes": 13, "no": 14, "missing": 14, "children": [{"nodeid": 13, "leaf": 0.581796587}, {"nodeid": 14, "leaf": 0.0294459164}]}]}]}, {"nodeid": 0, "depth": 0, "split": "pnn20", "split_condition": 0.102783158, "yes": 1, "no": 2, "missing": 2, "children": [{"nodeid": 1, "depth": 1, "split": "sd1sd2Ratio", "split_condition": 0.421075076, "yes": 3, "no": 4, "missing": 4, "children": [{"nodeid": 3, "depth": 2, "split": "meanRR", "split_condition": -1.16172445, "yes": 7, "no": 8, "missing": 8, "children": [{"nodeid": 7, "leaf": -0.113007523}, {"nodeid": 8, "leaf": 0.0397360548}]}, {"nodeid": 4, "depth": 2, "split": "pnn20", "split_condition": -2.18864918, "yes": 9, "no": 10, "missing": 10, "children": [{"nodeid": 9, "leaf": -0.0950423405}, {"nodeid": 10, "leaf": 0.461476117}]}]}, {"nodeid": 2, "depth": 1, "split": "sd1sd2Ratio", "split_condition": 1.71679091, "yes": 5, "no": 6, "missing": 6, "children": [{"nodeid": 5, "depth": 2, "split": "pnn20", "split_condition": 0.603125811, "yes": 11, "no": 12, "missing": 12, "children": [{"nodeid": 11, "leaf": -0.0159955099}, {"nodeid": 12, "leaf": -0.0777206048}]}, {"nodeid": 6, "depth": 2, "split": "sd1sd2Ratio", "split_condition": 2.339252, "yes": 13, "no": 14, "missing": 14, "children": [{"nodeid": 13, "leaf": 0.214400604}, {"nodeid": 14, "leaf": -0.0581563041}]}]}]}, {"nodeid": 0, "depth": 0, "split": "pnn20", "split_condition": 0.0230530985, "yes": 1, "no": 2, "missing": 2, "children": [{"nodeid": 1, "depth": 1, "split": "sd1sd2Ratio", "split_condition": 0.292238951, "yes": 3, "no": 4, "missing": 4, "children": [{"nodeid": 3, "depth": 2, "split": "meanRR", "split_condition": -0.370794386, "yes": 7, "no": 8, "missing": 8, "children": [{"nodeid": 7, "leaf": -0.0179074071}, {"nodeid": 8, "leaf": 0.155527666}]}, {"nodeid": 4, "depth": 2, "split": "pnn50", "split_condition": -1.02716768, "yes": 9, "no": 10, "missing": 10, "children": [{"nodeid": 9, "leaf": -0.00636530388}, {"nodeid": 10, "leaf": 0.591941357}]}]}, {"nodeid": 2, "depth": 1, "split": "rmssd", "split_condition": 3.51843095, "yes": 5, "no": 6, "missing": 6, "children": [{"nodeid": 5, "depth": 2, "split": "sampleEntropy", "split_condition": -2.44476342, "yes": 11, "no": 12, "missing": 12, "children": [{"nodeid": 11, "leaf": 0.307583809}, {"nodeid": 12, "leaf": -0.0470583588}]}, {"nodeid": 6, "depth": 2, "split": "cvRR", "split_condition": 2.16265011, "yes": 13, "no": 14, "missing": 14, "children": [{"nodeid": 13, "leaf": -0.0846441984}, {"nodeid": 14, "leaf": 0.481609553}]}]}]}, {"nodeid": 0, "depth": 0, "split": "cvRR", "split_condition": -1.15930748, "yes": 1, "no": 2, "missing": 2, "children": [{"nodeid": 1, "depth": 1, "split": "dfaAlpha1", "split_condition": -0.704336047, "yes": 3, "no": 4, "missing": 4, "children": [{"nodeid": 3, "depth": 2, "split": "sdnn", "split_condition": -1.6698184, "yes": 7, "no": 8, "missing": 8, "children": [{"nodeid": 7, "leaf": 0.0342298895}, {"nodeid": 8, "leaf": 0.484235227}]}, {"nodeid": 4, "depth": 2, "split": "dfaAlpha1", "split_condition": 0.594237626, "yes": 9, "no": 10, "missing": 10, "children": [{"nodeid": 9, "leaf": -0.0378139913}, {"nodeid": 10, "leaf": 0.186122358}]}]}, {"nodeid": 2, "depth": 1, "split": "sampleEntropy", "split_condition": -1.65398335, "yes": 5, "no": 6, "missing": 6, "children": [{"nodeid": 5, "depth": 2, "split": "sd1sd2Ratio", "split_condition": 0.275019407, "yes": 11, "no": 12, "missing": 12, "children": [{"nodeid": 11, "leaf": 0.0103279315}, {"nodeid": 12, "leaf": 0.403806418}]}, {"nodeid": 6, "depth": 2, "split": "sdnn", "split_condition": 3.42672443, "yes": 13, "no": 14, "missing": 14, "children": [{"nodeid": 13, "leaf": -0.0369721614}, {"nodeid": 14, "leaf": 0.403532863}]}]}]}, {"nodeid": 0, "depth": 0, "split": "pnn20", "split_condition": -0.550669611, "yes": 1, "no": 2, "missing": 2, "children": [{"nodeid": 1, "depth": 1, "split": "meanRR", "split_condition": -1.0918318, "yes": 3, "no": 4, "missing": 4, "children": [{"nodeid": 3, "depth": 2, "split": "cvRR", "split_condition": -1.32909322, "yes": 7, "no": 8, "missing": 8, "children": [{"nodeid": 7, "leaf": 0.0717628822}, {"nodeid": 8, "leaf": -0.102377295}]}, {"nodeid": 4, "depth": 2, "split": "pnn20", "split_condition": -1.34057271, "yes": 9, "no": 10, "missing": 10, "children": [{"nodeid": 9, "leaf": 0.217763409}, {"nodeid": 10, "leaf": 0.0774370953}]}]}, {"nodeid": 2, "depth": 1, "split": "meanRR", "split_condition": 1.06557429, "yes": 5, "no": 6, "missing": 6, "children": [{"nodeid": 5, "depth": 2, "split": "hrMean", "split_condition": -0.113562815, "yes": 11, "no": 12, "missing": 12, "children": [{"nodeid": 11, "leaf": -0.0151690328}, {"nodeid": 12, "leaf": -0.0775959343}]}, {"nodeid": 6, "depth": 2, "split": "meanRR", "split_condition": 1.37154269, "yes": 13, "no": 14, "missing": 14, "children": [{"nodeid": 13, "leaf": 0.219423771}, {"nodeid": 14, "leaf": -0.015751563}]}]}]}, {"nodeid": 0, "depth": 0, "split": "cvRR", "split_condition": -0.909353971, "yes": 1, "no": 2, "missing": 2, "children": [{"nodeid": 1, "depth": 1, "split": "hrMean", "split_condition": 1.03399992, "yes": 3, "no": 4, "missing": 4, "children": [{"nodeid": 3, "depth": 2, "split": "sd1sd2Ratio", "split_condition": -0.235506132, "yes": 7, "no": 8, "missing": 8, "children": [{"nodeid": 7, "leaf": 0.235853076}, {"nodeid": 8, "leaf": 0.0447153784}]}, {"nodeid": 4, "depth": 2, "split": "sd2", "split_condition": -1.69821322, "yes": 9, "no": 10, "missing": 10, "children": [{"nodeid": 9, "leaf": 0.286902189}, {"nodeid": 10, "leaf": -0.0906170383}]}]}, {"nodeid": 2, "depth": 1, "split": "rmssd", "split_condition": 4.26427889, "yes": 5, "no": 6, "missing": 6, "children": [{"nodeid": 5, "depth": 2, "split": "pnn20", "split_condition": 0.603125811, "yes": 11, "no": 12, "missing": 12, "children": [{"nodeid": 11, "leaf": 0.0149072511}, {"nodeid": 12, "leaf": -0.063833423}]}, {"nodeid": 6, "leaf": 0.523291349}]}]}, {"nodeid": 0, "depth": 0, "split": "cvRR", "split_condition": -0.344709009, "yes": 1, "no": 2, "missing": 2, "children": [{"nodeid": 1, "depth": 1, "split": "meanRR", "split_condition": -0.0503910817, "yes": 3, "no": 4, "missing": 4, "children": [{"nodeid": 3, "depth": 2, "split": "cvRR", "split_condition": -1.29873204, "yes": 7, "no": 8, "missing": 8, "children": [{"nodeid": 7, "leaf": 0.194452763}, {"nodeid": 8, "leaf": -0.0210759491}]}, {"nodeid": 4, "depth": 2, "split": "sampleEntropy", "split_condition": -0.12784864, "yes": 9, "no": 10, "missing": 10, "children": [{"nodeid": 9, "leaf": 0.315962225}, {"nodeid": 10, "leaf": 0.0945294648}]}]}, {"nodeid": 2, "depth": 1, "split": "rmssd", "split_condition": 3.85834789, "yes": 5, "no": 6, "missing": 6, "children": [{"nodeid": 5, "depth": 2, "split": "sd1sd2Ratio", "split_condition": -1.22387516, "yes": 11, "no": 12, "missing": 12, "children": [{"nodeid": 11, "leaf": 0.150586814}, {"nodeid": 12, "leaf": -0.0479666144}]}, {"nodeid": 6, "depth": 2, "split": "sd1sd2Ratio", "split_condition": 2.49027729, "yes": 13, "no": 14, "missing": 14, "children": [{"nodeid": 13, "leaf": 0.431920439}, {"nodeid": 14, "leaf": -0.094154723}]}]}]}, {"nodeid": 0, "depth": 0, "split": "cvRR", "split_condition": -1.32909322, "yes": 1, "no": 2, "missing": 2, "children": [{"nodeid": 1, "depth": 1, "split": "rmssd", "split_condition": -1.15831578, "yes": 3, "no": 4, "missing": 4, "children": [{"nodeid": 3, "depth": 2, "split": "dfaAlpha1", "split_condition": 0.651478708, "yes": 7, "no": 8, "missing": 8, "children": [{"nodeid": 7, "leaf": 0.204632103}, {"nodeid": 8, "leaf": -0.207578883}]}, {"nodeid": 4, "depth": 2, "split": "sd1sd2Ratio", "split_condition": -1.04691207, "yes": 9, "no": 10, "missing": 10, "children": [{"nodeid": 9, "leaf": 0.13385351}, {"nodeid": 10, "leaf": 0.36303857}]}]}, {"nodeid": 2, "depth": 1, "split": "sampleEntropy", "split_condition": -1.02671599, "yes": 5, "no": 6, "missing": 6, "children": [{"nodeid": 5, "depth": 2, "split": "sd2", "split_condition": 1.07741761, "yes": 11, "no": 12, "missing": 12, "children": [{"nodeid": 11, "leaf": 0.130867824}, {"nodeid": 12, "leaf": -0.142689049}]}, {"nodeid": 6, "depth": 2, "split": "meanRR", "split_condition": -0.205939457, "yes": 13, "no": 14, "missing": 14, "children": [{"nodeid": 13, "leaf": -0.0604241677}, {"nodeid": 14, "leaf": 0.00595997367}]}]}]}, {"nodeid": 0, "depth": 0, "split": "cvRR", "split_condition": -0.318078071, "yes": 1, "no": 2, "missing": 2, "children": [{"nodeid": 1, "depth": 1, "split": "sd2", "split_condition": -0.346183926, "yes": 3, "no": 4, "missing": 4, "children": [{"nodeid": 3, "depth": 2, "split": "sampleEntropy", "split_condition": -1.17691422, "yes": 7, "no": 8, "missing": 8, "children": [{"nodeid": 7, "leaf": 0.224173248}, {"nodeid": 8, "leaf": 0.0194307454}]}, {"nodeid": 4, "depth": 2, "split": "cvRR", "split_condition": -0.543329358, "yes": 9, "no": 10, "missing": 10, "children": [{"nodeid": 9, "leaf": 0.533627987}, {"nodeid": 10, "leaf": 0.146629646}]}]}, {"nodeid": 2, "depth": 1, "split": "sd1sd2Ratio", "split_condition": 1.6789403, "yes": 5, "no": 6, "missing": 6, "children": [{"nodeid": 5, "depth": 2, "split": "sd1sd2Ratio", "split_condition": -1.22387516, "yes": 11, "no": 12, "missing": 12, "children": [{"nodeid": 11, "leaf": 0.149078652}, {"nodeid": 12, "leaf": -0.0560296811}]}, {"nodeid": 6, "depth": 2, "split": "dfaAlpha1", "split_condition": -0.893831074, "yes": 13, "no": 14, "missing": 14, "children": [{"nodeid": 13, "leaf": 0.0260516386}, {"nodeid": 14, "leaf": 0.584258437}]}]}]}, {"nodeid": 0, "depth": 0, "split": "cvRR", "split_condition": -1.33628988, "yes": 1, "no": 2, "missing": 2, "children": [{"nodeid": 1, "depth": 1, "split": "pnn20", "split_condition": -2.23305964, "yes": 3, "no": 4, "missing": 4, "children": [{"nodeid": 3, "depth": 2, "split": "dfaAlpha1", "split_condition": 0.651478708, "yes": 7, "no": 8, "missing": 8, "children": [{"nodeid": 7, "leaf": 0.166681543}, {"nodeid": 8, "leaf": -0.100004792}]}, {"nodeid": 4, "depth": 2, "split": "sd2", "split_condition": -1.39902151, "yes": 9, "no": 10, "missing": 10, "children": [{"nodeid": 9, "leaf": 0.427010477}, {"nodeid": 10, "leaf": 0.208832651}]}]}, {"nodeid": 2, "depth": 1, "split": "hrMean", "split_condition": -0.113562815, "yes": 5, "no": 6, "missing": 6, "children": [{"nodeid": 5, "depth": 2, "split": "pnn20", "split_condition": 0.447923928, "yes": 11, "no": 12, "missing": 12, "children": [{"nodeid": 11, "leaf": 0.151957124}, {"nodeid": 12, "leaf": -0.035001725}]}, {"nodeid": 6, "depth": 2, "split": "sd1sd2Ratio", "split_condition": 1.40933836, "yes": 13, "no": 14, "missing": 14, "children": [{"nodeid": 13, "leaf": -0.0557752512}, {"nodeid": 14, "leaf": 0.124128751}]}]}]}, {"nodeid": 0, "depth": 0, "split": "pnn20", "split_condition": -0.751512051, "yes": 1, "no": 2, "missing": 2, "children": [{"nodeid": 1, "depth": 1, "split": "hrMean", "split_condition": 0.453427345, "yes": 3, "no": 4, "missing": 4, "children": [{"nodeid": 3, "depth": 2, "split": "sd1sd2Ratio", "split_condition": -0.00369946845, "yes": 7, "no": 8, "missing": 8, "children": [{"nodeid": 7, "leaf": 0.134035155}, {"nodeid": 8, "leaf": 0.50078994}]}, {"nodeid": 4, "depth": 2, "split": "cvRR", "split_condition": -1.14673889, "yes": 9, "no": 10, "missing": 10, "children": [{"nodeid": 9, "leaf": 0.113636315}, {"nodeid": 10, "leaf": -0.0444961861}]}]}, {"nodeid": 2, "depth": 1, "split": "hrMean", "split_condition": -0.908362806, "yes": 5, "no": 6, "missing": 6, "children": [{"nodeid": 5, "depth": 2, "split": "hrMean", "split_condition": -1.1374861, "yes": 11, "no": 12, "missing": 12, "children": [{"nodeid": 11, "leaf": -0.0165222008}, {"nodeid": 12, "leaf": 0.197946101}]}, {"nodeid": 6, "depth": 2, "split": "sampleEntropy", "split_condition": -2.44476342, "yes": 13, "no": 14, "missing": 14, "children": [{"nodeid": 13, "leaf": 0.298680753}, {"nodeid": 14, "leaf": -0.0398257226}]}]}]}, {"nodeid": 0, "depth": 0, "split": "pnn20", "split_condition": 0.146624148, "yes": 1, "no": 2, "missing": 2, "children": [{"nodeid": 1, "depth": 1, "split": "sd1sd2Ratio", "split_condition": 0.421075076, "yes": 3, "no": 4, "missing": 4, "children": [{"nodeid": 3, "depth": 2, "split": "meanRR", "split_condition": -1.16172445, "yes": 7, "no": 8, "missing": 8, "children": [{"nodeid": 7, "leaf": -0.0880029574}, {"nodeid": 8, "leaf": 0.0515420362}]}, {"nodeid": 4, "depth": 2, "split": "pnn20", "split_condition": -2.18864918, "yes": 9, "no": 10, "missing": 10, "children": [{"nodeid": 9, "leaf": -0.112831302}, {"nodeid": 10, "leaf": 0.354412943}]}]}, {"nodeid": 2, "depth": 1, "split": "sampleEntropy", "split_condition": -2.44476342, "yes": 5, "no": 6, "missing": 6, "children": [{"nodeid": 5, "leaf": 0.413302004}, {"nodeid": 6, "depth": 2, "split": "rmssd", "split_condition": 3.85834789, "yes": 11, "no": 12, "missing": 12, "children": [{"nodeid": 11, "leaf": -0.0455144271}, {"nodeid": 12, "leaf": 0.223033473}]}]}]}, {"nodeid": 0, "depth": 0, "split": "cvRR", "split_condition": -1.1288166, "yes": 1, "no": 2, "missing": 2, "children": [{"nodeid": 1, "depth": 1, "split": "sampleEntropy", "split_condition": -0.624830246, "yes": 3, "no": 4, "missing": 4, "children": [{"nodeid": 3, "depth": 2, "split": "hrMean", "split_condition": 2.79895186, "yes": 7, "no": 8, "missing": 8, "children": [{"nodeid": 7, "leaf": 0.322228968}, {"nodeid": 8, "leaf": -0.0412365533}]}, {"nodeid": 4, "depth": 2, "split": "sd1sd2Ratio", "split_condition": -0.0824796259, "yes": 9, "no": 10, "missing": 10, "children": [{"nodeid": 9, "leaf": 0.12092986}, {"nodeid": 10, "leaf": -0.13515605}]}]}, {"nodeid": 2, "depth": 1, "split": "cvRR", "split_condition": 2.76625061, "yes": 5, "no": 6, "missing": 6, "children": [{"nodeid": 5, "depth": 2, "split": "sampleEntropy", "split_condition": 0.0389405526, "yes": 11, "no": 12, "missing": 12, "children": [{"nodeid": 11, "leaf": 0.0201373082}, {"nodeid": 12, "leaf": -0.04831516}]}, {"nodeid": 6, "depth": 2, "split": "dfaAlpha1", "split_condition": -1.12358093, "yes": 13, "no": 14, "missing": 14, "children": [{"nodeid": 13, "leaf": 0.395032674}, {"nodeid": 14, "leaf": -0.13560687}]}]}]}, {"nodeid": 0, "depth": 0, "split": "pnn20", "split_condition": -0.601367712, "yes": 1, "no": 2, "missing": 2, "children": [{"nodeid": 1, "depth": 1, "split": "meanRR", "split_condition": -1.16172445, "yes": 3, "no": 4, "missing": 4, "children": [{"nodeid": 3, "depth": 2, "split": "sd2", "split_condition": -1.48590922, "yes": 7, "no": 8, "missing": 8, "children": [{"nodeid": 7, "leaf": 0.134340316}, {"nodeid": 8, "leaf": -0.103098415}]}, {"nodeid": 4, "depth": 2, "split": "sd1sd2Ratio", "split_condition": 0.292238951, "yes": 9, "no": 10, "missing": 10, "children": [{"nodeid": 9, "leaf": 0.129906222}, {"nodeid": 10, "leaf": 0.511642873}]}]}, {"nodeid": 2, "depth": 1, "split": "sampleEntropy", "split_condition": -2.38616538, "yes": 5, "no": 6, "missing": 6, "children": [{"nodeid": 5, "depth": 2, "split": "sd2", "split_condition": 1.07741761, "yes": 11, "no": 12, "missing": 12, "children": [{"nodeid": 11, "leaf": 0.46670866}, {"nodeid": 12, "leaf": -0.0691455081}]}, {"nodeid": 6, "depth": 2, "split": "hrMean", "split_condition": -0.326249659, "yes": 13, "no": 14, "missing": 14, "children": [{"nodeid": 13, "leaf": 0.0143755488}, {"nodeid": 14, "leaf": -0.0551562682}]}]}]}, {"nodeid": 0, "depth": 0, "split": "sampleEntropy", "split_condition": -1.78940809, "yes": 1, "no": 2, "missing": 2, "children": [{"nodeid": 1, "depth": 1, "split": "sd1sd2Ratio", "split_condition": 0.0588219538, "yes": 3, "no": 4, "missing": 4, "children": [{"nodeid": 3, "depth": 2, "split": "cvRR", "split_condition": -0.851325929, "yes": 7, "no": 8, "missing": 8, "children": [{"nodeid": 7, "leaf": 0.402322352}, {"nodeid": 8, "leaf": -0.0427229479}]}, {"nodeid": 4, "depth": 2, "split": "meanRR", "split_condition": -2.72269535, "yes": 9, "no": 10, "missing": 10, "children": [{"nodeid": 9, "leaf": -0.0426331311}, {"nodeid": 10, "leaf": 0.364122123}]}]}, {"nodeid": 2, "depth": 1, "split": "cvRR", "split_condition": -0.344709009, "yes": 5, "no": 6, "missing": 6, "children": [{"nodeid": 5, "depth": 2, "split": "meanRR", "split_condition": -0.0503910817, "yes": 11, "no": 12, "missing": 12, "children": [{"nodeid": 11, "leaf": -0.00445481855}, {"nodeid": 12, "leaf": 0.100608937}]}, {"nodeid": 6, "depth": 2, "split": "cvRR", "split_condition": 2.76625061, "yes": 13, "no": 14, "missing": 14, "children": [{"nodeid": 13, "leaf": -0.0431811661}, {"nodeid": 14, "leaf": 0.184369802}]}]}]}, {"nodeid": 0, "depth": 0, "split": "pnn20", "split_condition": -0.869135618, "yes": 1, "no": 2, "missing": 2, "children": [{"nodeid": 1, "depth": 1, "split": "meanRR", "split_condition": -1.16172445, "yes": 3, "no": 4, "missing": 4, "children": [{"nodeid": 3, "depth": 2, "split": "sdnn", "split_condition": -0.365813076, "yes": 7, "no": 8, "missing": 8, "children": [{"nodeid": 7, "leaf": -0.102937311}, {"nodeid": 8, "leaf": 0.270402819}]}, {"nodeid": 4, "depth": 2, "split": "pnn20", "split_condition": -2.13238716, "yes": 9, "no": 10, "missing": 10, "children": [{"nodeid": 9, "leaf": 0.390145481}, {"nodeid": 10, "leaf": 0.103367239}]}]}, {"nodeid": 2, "depth": 1, "split": "meanRR", "split_condition": 0.21471937, "yes": 5, "no": 6, "missing": 6, "children": [{"nodeid": 5, "depth": 2, "split": "sd1sd2Ratio", "split_condition": 1.40933836, "yes": 11, "no": 12, "missing": 12, "children": [{"nodeid": 11, "leaf": -0.0656916574}, {"nodeid": 12, "leaf": 0.162028953}]}, {"nodeid": 6, "depth": 2, "split": "pnn20", "split_condition": 0.652661979, "yes": 13, "no": 14, "missing": 14, "children": [{"nodeid": 13, "leaf": 0.110719532}, {"nodeid": 14, "leaf": -0.0414558426}]}]}]}, {"nodeid": 0, "depth": 0, "split": "pnn20", "split_condition": -0.869135618, "yes": 1, "no": 2, "missing": 2, "children": [{"nodeid": 1, "depth": 1, "split": "hrMean", "split_condition": 0.775897861, "yes": 3, "no": 4, "missing": 4, "children": [{"nodeid": 3, "depth": 2, "split": "sdnn", "split_condition": -0.0284267906, "yes": 7, "no": 8, "missing": 8, "children": [{"nodeid": 7, "leaf": 0.209476069}, {"nodeid": 8, "leaf": -0.195042148}]}, {"nodeid": 4, "depth": 2, "split": "dfaAlpha1", "split_condition": -0.664876878, "yes": 9, "no": 10, "missing": 10, "children": [{"nodeid": 9, "leaf": 0.296294212}, {"nodeid": 10, "leaf": -0.0257109273}]}]}, {"nodeid": 2, "depth": 1, "split": "hrMean", "split_condition": -0.113562815, "yes": 5, "no": 6, "missing": 6, "children": [{"nodeid": 5, "depth": 2, "split": "pnn20", "split_condition": 0.325349689, "yes": 11, "no": 12, "missing": 12, "children": [{"nodeid": 11, "leaf": 0.143317685}, {"nodeid": 12, "leaf": -0.0179023184}]}, {"nodeid": 6, "depth": 2, "split": "sd1sd2Ratio", "split_condition": 1.40933836, "yes": 13, "no": 14, "missing": 14, "children": [{"nodeid": 13, "leaf": -0.0694150776}, {"nodeid": 14, "leaf": 0.089422524}]}]}]}, {"nodeid": 0, "depth": 0, "split": "sampleEntropy", "split_condition": -1.78940809, "yes": 1, "no": 2, "missing": 2, "children": [{"nodeid": 1, "depth": 1, "split": "cvRR", "split_condition": 0.387986958, "yes": 3, "no": 4, "missing": 4, "children": [{"nodeid": 3, "depth": 2, "split": "meanRR", "split_condition": -1.36454725, "yes": 7, "no": 8, "missing": 8, "children": [{"nodeid": 7, "leaf": -0.0156541262}, {"nodeid": 8, "leaf": 0.399374396}]}, {"nodeid": 4, "depth": 2, "split": "meanRR", "split_condition": 0.21471937, "yes": 9, "no": 10, "missing": 10, "children": [{"nodeid": 9, "leaf": -0.0507457741}, {"nodeid": 10, "leaf": 0.284127176}]}]}, {"nodeid": 2, "depth": 1, "split": "cvRR", "split_condition": 2.76625061, "yes": 5, "no": 6, "missing": 6, "children": [{"nodeid": 5, "depth": 2, "split": "pnn20", "split_condition": -1.34057271, "yes": 11, "no": 12, "missing": 12, "children": [{"nodeid": 11, "leaf": 0.0731186345}, {"nodeid": 12, "leaf": -0.0236104894}]}, {"nodeid": 6, "depth": 2, "split": "sampleEntropy", "split_condition": -0.420770228, "yes": 13, "no": 14, "missing": 14, "children": [{"nodeid": 13, "leaf": -0.130604476}, {"nodeid": 14, "leaf": 0.395276338}]}]}]}, {"nodeid": 0, "depth": 0, "split": "cvRR", "split_condition": -1.33628988, "yes": 1, "no": 2, "missing": 2, "children": [{"nodeid": 1, "depth": 1, "split": "meanRR", "split_condition": -2.21717024, "yes": 3, "no": 4, "missing": 4, "children": [{"nodeid": 3, "leaf": -0.0837679133}, {"nodeid": 4, "depth": 2, "split": "rmssd", "split_condition": -0.92498666, "yes": 7, "no": 8, "missing": 8, "children": [{"nodeid": 7, "leaf": 0.165235832}, {"nodeid": 8, "leaf": 0.382213086}]}]}, {"nodeid": 2, "depth": 1, "split": "sampleEntropy", "split_condition": -1.10492313, "yes": 5, "no": 6, "missing": 6, "children": [{"nodeid": 5, "depth": 2, "split": "sd2", "split_condition": 0.77349335, "yes": 9, "no": 10, "missing": 10, "children": [{"nodeid": 9, "leaf": 0.125971183}, {"nodeid": 10, "leaf": -0.128683165}]}, {"nodeid": 6, "depth": 2, "split": "meanRR", "split_condition": -0.0162193161, "yes": 11, "no": 12, "missing": 12, "children": [{"nodeid": 11, "leaf": -0.0557794608}, {"nodeid": 12, "leaf": 0.000578232633}]}]}]}, {"nodeid": 0, "depth": 0, "split": "sd1sd2Ratio", "split_condition": 1.85711884, "yes": 1, "no": 2, "missing": 2, "children": [{"nodeid": 1, "depth": 1, "split": "pnn20", "split_condition": 0.652661979, "yes": 3, "no": 4, "missing": 4, "children": [{"nodeid": 3, "depth": 2, "split": "hrMean", "split_condition": -0.326249659, "yes": 7, "no": 8, "missing": 8, "children": [{"nodeid": 7, "leaf": 0.104993924}, {"nodeid": 8, "leaf": -0.0173458196}]}, {"nodeid": 4, "depth": 2, "split": "hrMean", "split_condition": -1.26509202, "yes": 9, "no": 10, "missing": 10, "children": [{"nodeid": 9, "leaf": 0.0500484891}, {"nodeid": 10, "leaf": -0.0642454997}]}]}, {"nodeid": 2, "depth": 1, "split": "pnn50", "split_condition": 0.883790851, "yes": 5, "no": 6, "missing": 6, "children": [{"nodeid": 5, "depth": 2, "split": "rmssd", "split_condition": 2.18572092, "yes": 11, "no": 12, "missing": 12, "children": [{"nodeid": 11, "leaf": 0.358099759}, {"nodeid": 12, "leaf": -0.0734806806}]}, {"nodeid": 6, "depth": 2, "split": "sdnn", "split_condition": 2.84395909, "yes": 13, "no": 14, "missing": 14, "children": [{"nodeid": 13, "leaf": -0.0343146548}, {"nodeid": 14, "leaf": 0.286535144}]}]}]}, {"nodeid": 0, "depth": 0, "split": "pnn20", "split_condition": 0.146624148, "yes": 1, "no": 2, "missing": 2, "children": [{"nodeid": 1, "depth": 1, "split": "sd1sd2Ratio", "split_condition": 0.421075076, "yes": 3, "no": 4, "missing": 4, "children": [{"nodeid": 3, "depth": 2, "split": "meanRR", "split_condition": -1.16172445, "yes": 7, "no": 8, "missing": 8, "children": [{"nodeid": 7, "leaf": -0.105081476}, {"nodeid": 8, "leaf": 0.0455959626}]}, {"nodeid": 4, "depth": 2, "split": "meanRR", "split_condition": -2.72269535, "yes": 9, "no": 10, "missing": 10, "children": [{"nodeid": 9, "leaf": -0.164929673}, {"nodeid": 10, "leaf": 0.355563343}]}]}, {"nodeid": 2, "depth": 1, "split": "meanRR", "split_condition": -0.0544290133, "yes": 5, "no": 6, "missing": 6, "children": [{"nodeid": 5, "depth": 2, "split": "meanRR", "split_condition": -2.21717024, "yes": 11, "no": 12, "missing": 12, "children": [{"nodeid": 11, "leaf": 0.104334384}, {"nodeid": 12, "leaf": -0.0726618171}]}, {"nodeid": 6, "depth": 2, "split": "meanRR", "split_condition": -0.0334671289, "yes": 13, "no": 14, "missing": 14, "children": [{"nodeid": 13, "leaf": 0.361039013}, {"nodeid": 14, "leaf": -0.0134328008}]}]}]}, {"nodeid": 0, "depth": 0, "split": "pnn20", "split_condition": -0.779988766, "yes": 1, "no": 2, "missing": 2, "children": [{"nodeid": 1, "depth": 1, "split": "meanRR", "split_condition": -1.25351036, "yes": 3, "no": 4, "missing": 4, "children": [{"nodeid": 3, "depth": 2, "split": "sdnn", "split_condition": -1.50160432, "yes": 7, "no": 8, "missing": 8, "children": [{"nodeid": 7, "leaf": 0.248238713}, {"nodeid": 8, "leaf": -0.115726575}]}, {"nodeid": 4, "depth": 2, "split": "sampleEntropy", "split_condition": -1.17691422, "yes": 9, "no": 10, "missing": 10, "children": [{"nodeid": 9, "leaf": 0.254730105}, {"nodeid": 10, "leaf": 0.0859589353}]}]}, {"nodeid": 2, "depth": 1, "split": "hrMean", "split_condition": -0.113562815, "yes": 5, "no": 6, "missing": 6, "children": [{"nodeid": 5, "depth": 2, "split": "rmssd", "split_condition": -0.158466637, "yes": 11, "no": 12, "missing": 12, "children": [{"nodeid": 11, "leaf": 0.10584978}, {"nodeid": 12, "leaf": -0.0372144803}]}, {"nodeid": 6, "depth": 2, "split": "sd1sd2Ratio", "split_condition": 1.40933836, "yes": 13, "no": 14, "missing": 14, "children": [{"nodeid": 13, "leaf": -0.0714284033}, {"nodeid": 14, "leaf": 0.138791561}]}]}]}, {"nodeid": 0, "depth": 0, "split": "cvRR", "split_condition": -1.32909322, "yes": 1, "no": 2, "missing": 2, "children": [{"nodeid": 1, "depth": 1, "split": "meanRR", "split_condition": -2.21717024, "yes": 3, "no": 4, "missing": 4, "children": [{"nodeid": 3, "leaf": -0.0838754401}, {"nodeid": 4, "depth": 2, "split": "rmssd", "split_condition": -0.92498666, "yes": 7, "no": 8, "missing": 8, "children": [{"nodeid": 7, "leaf": 0.185246527}, {"nodeid": 8, "leaf": 0.338332087}]}]}, {"nodeid": 2, "depth": 1, "split": "meanRR", "split_condition": 1.06557429, "yes": 5, "no": 6, "missing": 6, "children": [{"nodeid": 5, "depth": 2, "split": "pnn20", "split_condition": -0.869135618, "yes": 9, "no": 10, "missing": 10, "children": [{"nodeid": 9, "leaf": 0.0527526252}, {"nodeid": 10, "leaf": -0.0292515922}]}, {"nodeid": 6, "depth": 2, "split": "meanRR", "split_condition": 1.37154269, "yes": 11, "no": 12, "missing": 12, "children": [{"nodeid": 11, "leaf": 0.242864996}, {"nodeid": 12, "leaf": -0.0239128619}]}]}]}, {"nodeid": 0, "depth": 0, "split": "sd1sd2Ratio", "split_condition": 1.6789403, "yes": 1, "no": 2, "missing": 2, "children": [{"nodeid": 1, "depth": 1, "split": "pnn50", "split_condition": 0.185293019, "yes": 3, "no": 4, "missing": 4, "children": [{"nodeid": 3, "depth": 2, "split": "hrMean", "split_condition": -0.113562815, "yes": 7, "no": 8, "missing": 8, "children": [{"nodeid": 7, "leaf": 0.105356939}, {"nodeid": 8, "leaf": -0.0300071631}]}, {"nodeid": 4, "depth": 2, "split": "hrMean", "split_condition": -1.46212506, "yes": 9, "no": 10, "missing": 10, "children": [{"nodeid": 9, "leaf": 0.0855289698}, {"nodeid": 10, "leaf": -0.0580037497}]}]}, {"nodeid": 2, "depth": 1, "split": "pnn50", "split_condition": 0.883790851, "yes": 5, "no": 6, "missing": 6, "children": [{"nodeid": 5, "depth": 2, "split": "sd1sd2Ratio", "split_condition": 3.77652836, "yes": 11, "no": 12, "missing": 12, "children": [{"nodeid": 11, "leaf": 0.427228719}, {"nodeid": 12, "leaf": -0.0118079847}]}, {"nodeid": 6, "depth": 2, "split": "meanRR", "split_condition": 3.30656338, "yes": 13, "no": 14, "missing": 14, "children": [{"nodeid": 13, "leaf": -0.0416085236}, {"nodeid": 14, "leaf": 0.364349544}]}]}]}, {"nodeid": 0, "depth": 0, "split": "cvRR", "split_condition": -1.11655569, "yes": 1, "no": 2, "missing": 2, "children": [{"nodeid": 1, "depth": 1, "split": "sd2", "split_condition": -1.03747153, "yes": 3, "no": 4, "missing": 4, "children": [{"nodeid": 3, "depth": 2, "split": "sd2", "split_condition": -1.14620006, "yes": 7, "no": 8, "missing": 8, "children": [{"nodeid": 7, "leaf": 0.0991575494}, {"nodeid": 8, "leaf": 0.386144161}]}, {"nodeid": 4, "depth": 2, "split": "cvRR", "split_condition": -1.17237031, "yes": 9, "no": 10, "missing": 10, "children": [{"nodeid": 9, "leaf": -0.268244684}, {"nodeid": 10, "leaf": 0.0661157966}]}]}, {"nodeid": 2, "depth": 1, "split": "hrMean", "split_condition": -0.113562815, "yes": 5, "no": 6, "missing": 6, "children": [{"nodeid": 5, "depth": 2, "split": "pnn20", "split_condition": 0.652661979, "yes": 11, "no": 12, "missing": 12, "children": [{"nodeid": 11, "leaf": 0.0874808878}, {"nodeid": 12, "leaf": -0.0392197706}]}, {"nodeid": 6, "depth": 2, "split": "sd1sd2Ratio", "split_condition": 1.40933836, "yes": 13, "no": 14, "missing": 14, "children": [{"nodeid": 13, "leaf": -0.053073138}, {"nodeid": 14, "leaf": 0.113943599}]}]}]}, {"nodeid": 0, "depth": 0, "split": "cvRR", "split_condition": -1.33628988, "yes": 1, "no": 2, "missing": 2, "children": [{"nodeid": 1, "depth": 1, "split": "sd2", "split_condition": -1.82977664, "yes": 3, "no": 4, "missing": 4, "children": [{"nodeid": 3, "leaf": -0.159188628}, {"nodeid": 4, "depth": 2, "split": "dfaAlpha1", "split_condition": 1.45822799, "yes": 7, "no": 8, "missing": 8, "children": [{"nodeid": 7, "leaf": 0.251770765}, {"nodeid": 8, "leaf": 0.00313978666}]}]}, {"nodeid": 2, "depth": 1, "split": "hrMean", "split_condition": -0.113562815, "yes": 5, "no": 6, "missing": 6, "children": [{"nodeid": 5, "depth": 2, "split": "pnn20", "split_condition": 0.447923928, "yes": 9, "no": 10, "missing": 10, "children": [{"nodeid": 9, "leaf": 0.1140071}, {"nodeid": 10, "leaf": -0.0183989964}]}, {"nodeid": 6, "depth": 2, "split": "sd1sd2Ratio", "split_condition": 1.40933836, "yes": 11, "no": 12, "missing": 12, "children": [{"nodeid": 11, "leaf": -0.042059809}, {"nodeid": 12, "leaf": 0.100390628}]}]}]}, {"nodeid": 0, "depth": 0, "split": "sampleEntropy", "split_condition": -0.320261061, "yes": 1, "no": 2, "missing": 2, "children": [{"nodeid": 1, "depth": 1, "split": "sd2", "split_condition": 0.997423232, "yes": 3, "no": 4, "missing": 4, "children": [{"nodeid": 3, "depth": 2, "split": "hrMean", "split_condition": 1.30317748, "yes": 7, "no": 8, "missing": 8, "children": [{"nodeid": 7, "leaf": 0.118326262}, {"nodeid": 8, "leaf": -0.0465034768}]}, {"nodeid": 4, "depth": 2, "split": "meanRR", "split_condition": 0.761718094, "yes": 9, "no": 10, "missing": 10, "children": [{"nodeid": 9, "leaf": -0.0682282448}, {"nodeid": 10, "leaf": -0.205353528}]}]}, {"nodeid": 2, "depth": 1, "split": "sdnn", "split_condition": 3.42672443, "yes": 5, "no": 6, "missing": 6, "children": [{"nodeid": 5, "depth": 2, "split": "meanRR", "split_condition": 0.201419666, "yes": 11, "no": 12, "missing": 12, "children": [{"nodeid": 11, "leaf": -0.0514178835}, {"nodeid": 12, "leaf": 0.0125398152}]}, {"nodeid": 6, "leaf": 0.485949308}]}]}, {"nodeid": 0, "depth": 0, "split": "cvRR", "split_condition": -1.32909322, "yes": 1, "no": 2, "missing": 2, "children": [{"nodeid": 1, "depth": 1, "split": "cvRR", "split_condition": -1.68459737, "yes": 3, "no": 4, "missing": 4, "children": [{"nodeid": 3, "depth": 2, "split": "sdnn", "split_condition": -1.50160432, "yes": 7, "no": 8, "missing": 8, "children": [{"nodeid": 7, "leaf": 0.0291761775}, {"nodeid": 8, "leaf": -0.3194381}]}, {"nodeid": 4, "depth": 2, "split": "rmssd", "split_condition": -0.92498666, "yes": 9, "no": 10, "missing": 10, "children": [{"nodeid": 9, "leaf": 0.145655483}, {"nodeid": 10, "leaf": 0.346468508}]}]}, {"nodeid": 2, "depth": 1, "split": "sampleEntropy", "split_condition": -1.78940809, "yes": 5, "no": 6, "missing": 6, "children": [{"nodeid": 5, "depth": 2, "split": "cvRR", "split_condition": 0.552390933, "yes": 11, "no": 12, "missing": 12, "children": [{"nodeid": 11, "leaf": 0.171740383}, 