{"learner":{"attributes":{"scikit_learn":"{\"_estimator_type\": \"regressor\"}"},"feature_names":[],"feature_types":[],"gradient_booster":{"model":{"cats":{"enc":[],"feature_segments":[],"sorted_idx":[]},"gbtree_model_param":{"num_parallel_tree":"1","num_trees":"18"},"iteration_indptr":[0,1,2,3,4,5,6,7,8,9,10,11,12,13,14,15,16,17,18],"tree_info":[0,0,0,0,0,0,0,0,0,0,0,0,0,0,0,0,0,0],"trees":[{"base_weights":[-1.4119503E-2,1.2343392E0,-5.6473446E0,-9.506103E-1,3.2652578E0,-7.7066045E0,-9.336766E-1,5.715044E0,-2.3778448E0,7.9735084E0,2.774521E0,-4.1334043E0,-9.910623E0,-1.1673391E1,8.681326E-1,-6.25098E-3,1.00159645E-1,-8.487384E-2,-1.087507E-2,5.418201E-2,1.4631851E-1,-3.4263443E-2,3.425892E-2,-7.5900845E-2,1.5699882E-2,5.897999E-2,-1.0501437E-1,5.242403E-2,-1.6276355E-1,1.9879077E-2,-7.3599614E-2],"categories":[],"categories_nodes":[],"categories_segments":[],"categories_sizes":[],"default_left":[0,0,0,0,0,0,0,0,0,0,0,0,0,0,0,0,0,0,0,0,0,0,0,0,0,0,0,0,0,0,0],"id":0,"left_children":[1,3,5,7,9,11,13,15,17,19,21,23,25,27,29,-1,-1,-1,-1,-1,-1,-1,-1,-1,-1,-1,-1,-1,-1,-1,-1],"loss_changes":[7.299595E4,3.771108E4,1.8251758E4,3.8996684E4,1.0103758E4,1.0186852E4,1.1181933E4,1.9738562E4,2.657389E4,6.7959805E3,1.6163197E4,9.994736E3,7.7348047E3,6.7241143E3,4.611159E3,0E0,0E0,0E0,0E0,0E0,0E0,0E0,0E0,0E0,0E0,0E0,0E0,0E0,0E0,0E0,0E0],"parents":[2147483647,0,0,1,1,2,2,3,3,4,4,5,5,6,6,7,7,8,8,9,9,10,10,11,11,12,12,13,13,14,14],"right_children":[2,4,6,8,10,12,14,16,18,20,22,24,26,28,30,-1,-1,-1,-1,-1,-1,-1,-1,-1,-1,-1,-1,-1,-1,-1,-1],"split_conditions":[6.310764E2,6.424912E1,1.1480622E2,1.3408535E1,1.7269163E-1,1.18E2,6.3987896E1,6.2905663E1,1.1911874E2,6.507169E1,6.4E1,6.486825E1,1.099058E3,1.4562914E1,6.588422E1,-6.25098E-3,1.00159645E-1,-8.487384E-2,-1.087507E-2,5.418201E-2,1.4631851E-1,-3.4263443E-2,3.425892E-2,-7.5900845E-2,1.5699882E-2,5.897999E-2,-1.0501437E-1,5.242403E-2,-1.6276355E-1,1.9879077E-2,-7.3599614E-2],"split_indices":[0,25,17,6,26,27,25,25,5,25,27,25,13,6,25,0,0,0,0,0,0,0,0,0,0,0,0,0,0,0,0],"split_type":[0,0,0,0,0,0,0,0,0,0,0,0,0,0,0,0,0,0,0,0,0,0,0,0,0,0,0,0,0,0,0],"sum_hessian":[1.0373E4,8.493E3,1.88E3,4.092E3,4.401E3,1.307E3,5.73E2,7.2E2,3.372E3,4.11E2,3.99E3,5.02E2,8.05E2,8E1,4.93E2,2.92E2,4.28E2,5.85E2,2.787E3,3.01E2,1.1E2,3.78E2,3.612E3,3.12E2,1.9E2,2.8E1,7.77E2,1.7E1,6.3E1,4.36E2,5.7E1],"tree_param":{"num_deleted":"0","num_feature":"29","num_nodes":"31","size_leaf_vector":"1"}},{"base_weights":[1.2509872E-1,1.3621073E0,-5.338236E0,4.1977644E0,6.080612E-1,-6.5013933E0,4.169257E0,4.447573E0,-8.142863E0,-3.2236078E0,8.620212E-1,-8.112119E0,-2.2127259E0,6.414044E0,-1.0921499E0,5.4298263E-2,6.362868E-3,-1.9019763E-1,5.87622E-2,-7.157951E-2,1.5044567E-2,1.1528497E-2,-1.8252406E-2,-4.1027803E-2,-9.880582E-2,-3.5065725E-2,4.076714E-2,8.6339556E-2,-1.4154428E-2,-4.6300624E-2,3.2200832E-2],"categories":[],"categories_nodes":[],"categories_segments":[],"categories_sizes":[],"default_left":[0,0,0,0,0,0,0,0,0,0,0,0,0,0,0,0,0,0,0,0,0,0,0,0,0,0,0,0,0,0,0],"id":1,"left_children":[1,3,5,7,9,11,13,15,17,19,21,23,25,27,29,-1,-1,-1,-1,-1,-1,-1,-1,-1,-1,-1,-1,-1,-1,-1,-1],"loss_changes":[6.958865E4,1.7942402E4,2.110509E4,5.5417734E3,6.464586E3,1.164982E4,2.49212E3,6.4631133E3,5.8312954E3,7.717687E3,4.8717974E3,8.599641E3,3.842847E3,2.595246E3,1.0370923E3,0E0,0E0,0E0,0E0,0E0,0E0,0E0,0E0,0E0,0E0,0E0,0E0,0E0,0E0,0E0,0E0],"parents":[2147483647,0,0,1,1,2,2,3,3,4,4,5,5,6,6,7,7,8,8,9,9,10,10,11,11,12,12,13,13,14,14],"right_children":[2,4,6,8,10,12,14,16,18,20,22,24,26,28,30,-1,-1,-1,-1,-1,-1,-1,-1,-1,-1,-1,-1,-1,-1,-1,-1],"split_conditions":[6.310764E2,1.5612717E1,7.75653E2,1.62E2,4.2105263E1,1.1480622E2,4.2586856E-2,4.211825E-2,1.2347951E2,1.6E1,1.04603226E2,1.13E2,1.3414857E2,4.6545456E1,3.628065E-1,5.4298263E-2,6.362868E-3,-1.9019763E-1,5.87622E-2,-7.157951E-2,1.5044567E-2,1.1528497E-2,-1.8252406E-2,-4.1027803E-2,-9.880582E-2,-3.5065725E-2,4.076714E-2,8.6339556E-2,-1.4154428E-2,-4.6300624E-2,3.2200832E-2],"split_indices":[0,6,0,27,3,17,23,23,5,27,17,27,17,7,12,0,0,0,0,0,0,0,0,0,0,0,0,0,0,0,0],"split_type":[0,0,0,0,0,0,0,0,0,0,0,0,0,0,0,0,0,0,0,0,0,0,0,0,0,0,0,0,0,0,0],"sum_hessian":[1.0291E4,8.393E3,1.898E3,1.76E3,6.633E3,1.692E3,2.06E2,1.727E3,3.3E1,4.1E2,6.223E3,1.228E3,4.64E2,1.44E2,6.2E1,1.372E3,3.55E2,1.8E1,1.5E1,2.23E2,1.87E2,5.617E3,6.06E2,3.79E2,8.49E2,3.86E2,7.8E1,1.12E2,3.2E1,3.4E1,2.8E1],"tree_param":{"num_deleted":"0","num_feature":"29","num_nodes":"31","size_leaf_vector":"1"}},{"base_weights":[-1.5553388E-1,-5.4459987E0,1.034331E0,3.157185E0,-6.9222813E0,-5.04961E0,2.340034E0,4.798427E0,-1.1527195E-1,-1.1095843E1,-3.953898E0,-9.414528E0,-2.1626418E0,1.0763516E0,6.502102E0,1.27952965E-2,9.7505905E-2,-1.6733237E-1,5.198351E-2,2.8421719E-2,-1.3899133E-1,-1.00661196E-1,1.0738499E-1,-1.087378E-1,-1.601667E-2,-4.9307387E-2,2.033449E-2,5.089499E-2,1.2387964E-1],"categories":[],"categories_nodes":[],"categories_segments":[],"categories_sizes":[],"default_left":[0,0,0,0,0,0,0,0,0,0,0,0,0,0,0,0,0,0,0,0,0,0,0,0,0,0,0,0,0],"id":2,"left_children":[1,3,5,7,9,11,13,15,-1,17,19,21,23,25,27,-1,-1,-1,-1,-1,-1,-1,-1,-1,-1,-1,-1,-1,-1],"loss_changes":[6.5070992E4,2.4173434E4,6.707199E4,6.910747E3,1.9943E4,1.873439E4,3.6528957E4,4.3833E3,0E0,6.1994484E4,6.446831E4,8.110961E3,4.3493423E3,3.070152E4,1.3254789E4,0E0,0E0,0E0,0E0,0E0,0E0,0E0,0E0,0E0,0E0,0E0,0E0,0E0,0E0],"parents":[2147483647,0,0,1,1,2,2,3,3,4,4,5,5,6,6,7,7,9,9,10,10,11,11,12,12,13,13,14,14],"right_children":[2,4,6,8,10,12,14,16,-1,18,20,22,24,26,28,-1,-1,-1,-1,-1,-1,-1,-1,-1,-1,-1,-1,-1,-1],"split_conditions":[9.708598E1,7.909013E1,2.2454334E1,3.34245E1,6.4588524E1,2.7374158E-2,3.1192667E1,3.21225E1,-1.1527195E-1,3.1782E1,3.2906666E1,6.526765E1,6.384125E-2,1.08512375E2,3.413983E1,1.27952965E-2,9.7505905E-2,-1.6733237E-1,5.198351E-2,2.8421719E-2,-1.3899133E-1,-1.00661196E-1,1.0738499E-1,-1.087378E-1,-1.601667E-2,-4.9307387E-2,2.033449E-2,5.089499E-2,1.2387964E-1],"split_indices":[5,5,21,21,25,23,21,21,0,21,21,25,26,5,21,0,0,0,0,0,0,0,0,0,0,0,0,0,0],"split_type":[0,0,0,0,0,0,0,0,0,0,0,0,0,0,0,0,0,0,0,0,0,0,0,0,0,0,0,0,0],"sum_hessian":[1.0331E4,1.895E3,8.436E3,2.77E2,1.618E3,1.489E3,6.947E3,2.51E2,2.6E1,6.69E2,9.49E2,5.9E2,8.99E2,5.332E3,1.615E3,1.49E2,1.02E2,4.97E2,1.72E2,5.65E2,3.84E2,5.73E2,1.7E1,5.1E1,8.48E2,7.31E2,4.601E3,1.307E3,3.08E2],"tree_param":{"num_deleted":"0","num_feature":"29","num_nodes":"29","size_leaf_vector":"1"}},{"base_weights":[-1.22760184E-1,1.2111224E0,-5.0580645E0,-5.0548806E0,2.6322045E0,-9.32158E0,-1.6740677E0,-8.152004E0,-2.7912567E0,2.4220137E-1,4.7996407E0,-1.6280842E1,8.191213E-1,5.8185024E0,-9.026637E0,-2.6140094E-2,-1.10006005E-1,-1.2022426E-1,-2.0157782E-2,6.574371E-2,-1.9870361E-2,5.8788165E-2,2.5944283E-2,1.6686004E-2,-1.7452256E-1,-6.675028E-2,2.889292E-2,6.887273E-2,-8.7432325E-2,-2.0840153E-2,-1.8206173E-1],"categories":[],"categories_nodes":[],"categories_segments":[],"categories_sizes":[],"default_left":[0,0,0,0,0,0,0,0,0,0,0,0,0,0,0,0,0,0,0,0,0,0,0,0,0,0,0,0,0,0,0],"id":3,"left_children":[1,3,5,7,9,11,13,15,17,19,21,23,25,27,29,-1,-1,-1,-1,-1,-1,-1,-1,-1,-1,-1,-1,-1,-1,-1,-1],"loss_changes":[6.79449E4,7.238781E4,3.1630965E4,1.0463383E4,3.431267E4,6.857295E4,6.780925E4,9.892824E3,6.169712E3,4.456306E4,8.217477E3,1.2206375E4,6.230605E3,9.673246E3,3.9452387E4,0E0,0E0,0E0,0E0,0E0,0E0,0E0,0E0,0E0,0E0,0E0,0E0,0E0,0E0,0E0,0E0],"parents":[2147483647,0,0,1,1,2,2,3,3,4,4,5,5,6,6,7,7,8,8,9,9,10,10,11,11,12,12,13,13,14,14],"right_children":[2,4,6,8,10,12,14,16,18,20,22,24,26,28,30,-1,-1,-1,-1,-1,-1,-1,-1,-1,-1,-1,-1,-1,-1,-1,-1],"split_conditions":[6.138393E2,2.2454334E1,3.1429333E1,2.7374158E-2,6.4271866E1,6.460109E1,3.2906666E1,1.1881154E-1,6.384125E-2,1.417261E-1,6.53834E1,2.4971333E1,6.4781975E1,1.45E2,6.560096E1,-2.6140094E-2,-1.10006005E-1,-1.2022426E-1,-2.0157782E-2,6.574371E-2,-1.9870361E-2,5.8788165E-2,2.5944283E-2,1.6686004E-2,-1.7452256E-1,-6.675028E-2,2.889292E-2,6.887273E-2,-8.7432325E-2,-2.0840153E-2,-1.8206173E-1],"split_indices":[0,21,21,23,25,25,21,8,26,8,25,21,25,27,25,0,0,0,0,0,0,0,0,0,0,0,0,0,0,0,0],"split_type":[0,0,0,0,0,0,0,0,0,0,0,0,0,0,0,0,0,0,0,0,0,0,0,0,0,0,0,0,0,0,0],"sum_hessian":[1.0315E4,8.122E3,2.193E3,1.5E3,6.622E3,9.68E2,1.225E3,6.3E2,8.7E2,3.151E3,3.471E3,5.73E2,3.95E2,6.07E2,6.18E2,2.16E2,4.14E2,6.4E1,8.06E2,8.19E2,2.332E3,2.327E3,1.144E3,3.5E1,5.38E2,8.4E1,3.11E2,5.67E2,4E1,3.54E2,2.64E2],"tree_param":{"num_deleted":"0","num_feature":"29","num_nodes":"31","size_leaf_vector":"1"}},{"base_weights":[-9.906849E-2,1.1035838E0,-5.6905265E0,-6.16411E-1,5.047701E0,-9.675853E0,-2.957803E0,-4.343241E0,7.1429944E-1,4.0776834E0,1.204507E1,-1.3523263E1,-6.35726E-1,4.063155E0,-1.005385E1,-8.02592E-2,-1.9398902E-2,1.691502E-2,-9.103826E-2,5.2681554E-2,7.740326E-3,1.274842E-1,9.249851E-2,-2.453337E-1,-1.02221236E-1,3.4890622E-2,-2.530454E-2,-3.26874E-2,6.6402026E-2,-3.337946E-2,-1.4772606E-1],"categories":[],"categories_nodes":[],"categories_segments":[],"categories_sizes":[],"default_left":[0,0,0,0,0,0,0,0,0,0,0,0,0,0,0,0,0,0,0,0,0,0,0,0,0,0,0,0,0,0,0],"id":4,"left_children":[1,3,5,7,9,11,13,15,17,19,21,23,25,27,29,-1,-1,-1,-1,-1,-1,-1,-1,-1,-1,-1,-1,-1,-1,-1,-1],"loss_changes":[6.951967E4,5.7728633E4,1.9837973E4,2.9405084E4,1.738368E4,2.5809469E4,5.443049E4,1.3755506E4,4.1969566E4,8.928172E3,2.5060156E2,1.8166477E4,1.7844615E3,1.0458853E4,1.7051074E4,0E0,0E0,0E0,0E0,0E0,0E0,0E0,0E0,0E0,0E0,0E0,0E0,0E0,0E0,0E0,0E0],"parents":[2147483647,0,0,1,1,2,2,3,3,4,4,5,5,6,6,7,7,8,8,9,9,10,10,11,11,12,12,13,13,14,14],"right_children":[2,4,6,8,10,12,14,16,18,20,22,24,26,28,30,-1,-1,-1,-1,-1,-1,-1,-1,-1,-1,-1,-1,-1,-1,-1,-1],"split_conditions":[6.310764E2,2.9205E1,3.131E1,2.2454334E1,3.413983E1,4.8275666E0,3.2906666E1,1.2E-1,5.644531E2,5.905612E2,5.970395E2,2.8752E1,1.5E-1,3.1782E1,1.25E2,-8.02592E-2,-1.9398902E-2,1.691502E-2,-9.103826E-2,5.2681554E-2,7.740326E-3,1.274842E-1,9.249851E-2,-2.453337E-1,-1.02221236E-1,3.4890622E-2,-2.530454E-2,-3.26874E-2,6.6402026E-2,-3.337946E-2,-1.4772606E-1],"split_indices":[0,21,21,21,21,26,21,24,0,0,0,21,24,21,27,0,0,0,0,0,0,0,0,0,0,0,0,0,0,0,0],"split_type":[0,0,0,0,0,0,0,0,0,0,0,0,0,0,0,0,0,0,0,0,0,0,0,0,0,0,0,0,0,0,0],"sum_hessian":[1.0332E4,8.505E3,1.827E3,5.924E3,2.581E3,7.4E2,1.087E3,1.557E3,4.367E3,2.271E3,3.1E2,5.18E2,2.22E2,5.47E2,5.4E2,6.12E2,9.45E2,3.974E3,3.93E2,1.668E3,6.03E2,2.39E2,7.1E1,1.15E2,4.03E2,6.9E1,1.53E2,1.42E2,4.05E2,2.25E2,3.15E2],"tree_param":{"num_deleted":"0","num_feature":"29","num_nodes":"31","size_leaf_vector":"1"}},{"base_weights":[-8.464995E-2,-4.775896E0,1.0312511E0,3.616731E0,-5.8852205E0,-5.213314E0,2.3769681E0,4.881492E0,-1.0749912E-1,-1.0267171E1,-3.044486E0,-9.900852E0,-3.27549E0,1.1719594E0,6.4623036E0,1.6061304E-2,9.8850355E-2,-1.6118066E-1,5.453018E-2,3.8622335E-2,-1.3635059E-1,-1.08756244E-1,1.198076E-1,-1.22070946E-1,-2.2991767E-2,-1.2203951E-2,3.6099996E-2,5.1290564E-2,1.22400895E-1],"categories":[],"categories_nodes":[],"categories_segments":[],"categories_sizes":[],"default_left":[0,0,0,0,0,0,0,0,0,0,0,0,0,0,0,0,0,0,0,0,0,0,0,0,0,0,0,0,0],"id":5,"left_children":[1,3,5,7,9,11,13,15,-1,17,19,21,23,25,27,-1,-1,-1,-1,-1,-1,-1,-1,-1,-1,-1,-1,-1,-1],"loss_changes":[5.4648758E4,1.8741145E4,7.0901766E4,4.4427E3,2.1969797E4,1.3485223E4,3.4138152E4,3.535687E3,0E0,6.428514E4,7.916068E4,9.690047E3,9.177955E3,3.129495E4,1.1974047E4,0E0,0E0,0E0,0E0,0E0,0E0,0E0,0E0,0E0,0E0,0E0,0E0,0E0,0E0],"parents":[2147483647,0,0,1,1,2,2,3,3,4,4,5,5,6,6,7,7,9,9,10,10,11,11,12,12,13,13,14,14],"right_children":[2,4,6,8,10,12,14,16,-1,18,20,22,24,26,28,-1,-1,-1,-1,-1,-1,-1,-1,-1,-1,-1,-1,-1,-1],"split_conditions":[9.798418E1,7.778906E1,2.2454334E1,3.34245E1,6.4588524E1,2.0642404E-2,3.1192667E1,3.218717E1,-1.0749912E-1,3.1782E1,3.2906666E1,6.52342E1,6.384125E-2,6.424912E1,3.4217667E1,1.6061304E-2,9.8850355E-2,-1.6118066E-1,5.453018E-2,3.8622335E-2,-1.3635059E-1,-1.08756244E-1,1.198076E-1,-1.22070946E-1,-2.2991767E-2,-1.2203951E-2,3.6099996E-2,5.1290564E-2,1.22400895E-1],"split_indices":[5,5,21,21,25,23,21,21,0,21,21,25,26,25,21,0,0,0,0,0,0,0,0,0,0,0,0,0,0],"split_type":[0,0,0,0,0,0,0,0,0,0,0,0,0,0,0,0,0,0,0,0,0,0,0,0,0,0,0,0,0],"sum_hessian":[1.0433E4,2.003E3,8.43E3,2.33E2,1.77E3,1.493E3,6.937E3,2.16E2,1.7E1,6.93E2,1.077E3,4.33E2,1.06E3,5.36E3,1.577E3,1.33E2,8.3E1,5.05E2,1.88E2,6.53E2,4.24E2,4.16E2,1.7E1,1.01E2,9.59E2,2.706E3,2.654E3,1.286E3,2.91E2],"tree_param":{"num_deleted":"0","num_feature":"29","num_nodes":"29","size_leaf_vector":"1"}},{"base_weights":[-4.75979E-2,1.2635003E0,-4.95618E0,-4.53779E0,2.5818362E0,-9.387812E0,-1.9635664E0,-8.02058E0,-2.558329E0,1.13189E0,5.805739E0,3.701743E0,-1.0840311E1,4.2038665E0,-8.837693E0,1.319179E-2,-9.1948904E-2,3.6434308E-2,-3.2296002E-2,3.5833616E-2,-1.5928054E-2,4.7598165E-2,1.215004E-1,1.5316983E-3,6.208237E-2,-1.8287471E-1,-7.584764E-2,-3.910666E-2,5.833996E-2,-7.823607E-3,-1.431812E-1],"categories":[],"categories_nodes":[],"categories_segments":[],"categories_sizes":[],"default_left":[0,0,0,0,0,0,0,0,0,0,0,0,0,0,0,0,0,0,0,0,0,0,0,0,0,0,0,0,0,0,0],"id":6,"left_children":[1,3,5,7,9,11,13,15,17,19,21,23,25,27,29,-1,-1,-1,-1,-1,-1,-1,-1,-1,-1,-1,-1,-1,-1,-1,-1],"loss_changes":[6.588291E4,6.1822754E4,2.8558773E4,1.0253543E4,3.0758305E4,1.6645875E4,5.488904E4,5.9738906E3,4.0274717E3,3.0383186E4,1.3368039E4,7.855751E2,1.8554453E4,9.103954E3,2.6976598E4,0E0,0E0,0E0,0E0,0E0,0E0,0E0,0E0,0E0,0E0,0E0,0E0,0E0,0E0,0E0,0E0],"parents":[2147483647,0,0,1,1,2,2,3,3,4,4,5,5,6,6,7,7,8,8,9,9,10,10,11,11,12,12,13,13,14,14],"right_children":[2,4,6,8,10,12,14,16,18,20,22,24,26,28,30,-1,-1,-1,-1,-1,-1,-1,-1,-1,-1,-1,-1,-1,-1,-1,-1],"split_conditions":[6.157095E2,2.2454334E1,3.1192667E1,3E1,2.9771E1,2.4971333E1,3.2906666E1,4.3715847E1,1.0641303E2,2.3855667E1,3.413983E1,8.705882E1,2.8752E1,3.1488333E1,1.23E2,1.319179E-2,-9.1948904E-2,3.6434308E-2,-3.2296002E-2,3.5833616E-2,-1.5928054E-2,4.7598165E-2,1.215004E-1,1.5316983E-3,6.208237E-2,-1.8287471E-1,-7.584764E-2,-3.910666E-2,5.833996E-2,-7.823607E-3,-1.431812E-1],"split_indices":[0,21,21,27,21,21,21,7,5,21,21,4,21,21,27,0,0,0,0,0,0,0,0,0,0,0,0,0,0,0,0],"split_type":[0,0,0,0,0,0,0,0,0,0,0,0,0,0,0,0,0,0,0,0,0,0,0,0,0,0,0,0,0,0,0],"sum_hessian":[1.0231E4,8.076E3,2.155E3,1.494E3,6.582E3,8.66E2,1.289E3,5.38E2,9.56E2,4.543E3,2.039E3,8.6E1,7.8E2,6.8E2,6.09E2,6E1,4.78E2,9.2E1,8.64E2,2.391E3,2.152E3,1.755E3,2.84E2,3.7E1,4.9E1,2.33E2,5.47E2,1.13E2,5.67E2,2.48E2,3.61E2],"tree_param":{"num_deleted":"0","num_feature":"29","num_nodes":"31","size_leaf_vector":"1"}},{"base_weights":[5.4872684E-2,1.1530268E0,-5.053749E0,-4.8112658E-1,5.321568E0,-8.896133E0,-2.4087698E0,-4.366679E0,8.257914E-1,4.366239E0,1.1848916E1,-1.4603936E1,3.3896308E0,4.6639442E0,-9.798819E0,-7.7978164E-2,-2.3501376E-2,2.1128885E-2,-6.364551E-2,-1.0381268E-2,5.618425E-2,7.29325E-2,1.286908E-1,5.1742475E-2,-1.5824619E-1,6.3575916E-2,-0E0,-1.9884467E-2,6.685466E-2,-1.1464985E-2,-1.5273646E-1],"categories":[],"categories_nodes":[],"categories_segments":[],"categories_sizes":[],"default_left":[0,0,0,0,0,0,0,0,0,0,0,0,0,0,0,0,0,0,0,0,0,0,0,0,0,0,0,0,0,0,0],"id":7,"left_children":[1,3,5,7,9,11,13,15,17,19,21,23,25,27,29,-1,-1,-1,-1,-1,-1,-1,-1,-1,-1,-1,-1,-1,-1,-1,-1],"loss_changes":[5.834326E4,5.832112E4,1.8630031E4,3.1253053E4,1.4871109E4,5.267752E4,5.732054E4,1.0657521E4,4.2665227E4,1.4285203E4,1.1304844E3,1.2612133E4,2.4161257E3,7.586533E3,2.5329555E4,0E0,0E0,0E0,0E0,0E0,0E0,0E0,0E0,0E0,0E0,0E0,0E0,0E0,0E0,0E0,0E0],"parents":[2147483647,0,0,1,1,2,2,3,3,4,4,5,5,6,6,7,7,8,8,9,9,10,10,11,11,12,12,13,13,14,14],"right_children":[2,4,6,8,10,12,14,16,18,20,22,24,26,28,30,-1,-1,-1,-1,-1,-1,-1,-1,-1,-1,-1,-1,-1,-1,-1,-1],"split_conditions":[6.310764E2,2.9587334E1,3.131E1,2.2454334E1,3.413983E1,6.476175E1,3.2906666E1,3E1,5.379464E2,6.424912E1,6.2209343E1,2.4761333E1,2.3E-1,3.1726667E1,6.526765E1,-7.7978164E-2,-2.3501376E-2,2.1128885E-2,-6.364551E-2,-1.0381268E-2,5.618425E-2,7.29325E-2,1.286908E-1,5.1742475E-2,-1.5824619E-1,6.3575916E-2,-0E0,-1.9884467E-2,6.685466E-2,-1.1464985E-2,-1.5273646E-1],"split_indices":[0,21,21,21,21,25,21,27,0,25,25,21,24,21,25,0,0,0,0,0,0,0,0,0,0,0,0,0,0,0,0],"split_type":[0,0,0,0,0,0,0,0,0,0,0,0,0,0,0,0,0,0,0,0,0,0,0,0,0,0,0,0,0,0,0],"sum_hessian":[1.0394E4,8.557E3,1.837E3,6.149E3,2.408E3,7.46E2,1.091E3,1.546E3,4.603E3,2.105E3,3.03E2,5.09E2,2.37E2,5.58E2,5.33E2,5.69E2,9.77E2,3.906E3,6.97E2,3.96E2,1.709E3,6E1,2.43E2,2.9E1,4.8E2,1.25E2,1.12E2,1.3E2,4.28E2,2.08E2,3.25E2],"tree_param":{"num_deleted":"0","num_feature":"29","num_nodes":"31","size_leaf_vector":"1"}},{"base_weights":[1.1010806E-2,1.2432095E0,-4.6184745E0,-4.4826384E0,2.6099548E0,-8.891243E0,-1.3902224E0,-7.692576E0,-2.5313323E0,1.9649122E0,9.595112E0,-1.5165421E1,3.6605537E0,5.2363663E0,-8.417995E0,-5.214207E-2,-1.4575832E-1,-1.1766785E-1,-1.7161999E-2,-5.6958115E-3,4.1425984E-2,7.180905E-2,1.2135198E-1,2.6098844E-2,-1.6271633E-1,6.407327E-2,1.8267956E-2,6.6360556E-2,-4.242635E-2,4.0527735E-2,-1.2733078E-1],"categories":[],"categories_nodes":[],"categories_segments":[],"categories_sizes":[],"default_left":[0,0,0,0,0,0,0,0,0,0,0,0,0,0,0,0,0,0,0,0,0,0,0,0,0,0,0,0,0,0,0],"id":8,"left_children":[1,3,5,7,9,11,13,15,17,19,21,23,25,27,29,-1,-1,-1,-1,-1,-1,-1,-1,-1,-1,-1,-1,-1,-1,-1,-1],"loss_changes":[5.8805547E4,6.375163E4,2.984845E4,9.770279E3,2.9562797E4,7.356936E4,5.778769E4,9.861176E3,7.317757E3,3.3251797E4,3.132336E3,1.2364781E4,1.5373237E3,8.563695E3,3.2554207E4,0E0,0E0,0E0,0E0,0E0,0E0,0E0,0E0,0E0,0E0,0E0,0E0,0E0,0E0,0E0,0E0],"parents":[2147483647,0,0,1,1,2,2,3,3,4,4,5,5,6,6,7,7,8,8,9,9,10,10,11,11,12,12,13,13,14,14],"right_children":[2,4,6,8,10,12,14,16,18,20,22,24,26,28,30,-1,-1,-1,-1,-1,-1,-1,-1,-1,-1,-1,-1,-1,-1,-1,-1],"split_conditions":[6.157095E2,2.2475666E1,3.131E1,2.4509696E-2,3.337533E1,6.4770874E1,3.2906666E1,6.445707E1,6.384125E-2,6.424912E1,3.4217667E1,2.4971333E1,1.7E-1,7.437025E-2,6.464033E1,-5.214207E-2,-1.4575832E-1,-1.1766785E-1,-1.7161999E-2,-5.6958115E-3,4.1425984E-2,7.180905E-2,1.2135198E-1,2.6098844E-2,-1.6271633E-1,6.407327E-2,1.8267956E-2,6.6360556E-2,-4.242635E-2,4.0527735E-2,-1.2733078E-1],"split_indices":[0,21,21,23,21,25,21,25,26,25,21,21,24,23,25,0,0,0,0,0,0,0,0,0,0,0,0,0,0,0,0],"split_type":[0,0,0,0,0,0,0,0,0,0,0,0,0,0,0,0,0,0,0,0,0,0,0,0,0,0,0,0,0,0,0],"sum_hessian":[1.0303E4,8.139E3,2.164E3,1.567E3,6.572E3,9.29E2,1.235E3,5.89E2,9.78E2,6.02E3,5.52E2,6.19E2,3.1E2,6.36E2,5.99E2,4.37E2,1.52E2,7.6E1,9.02E2,2.783E3,3.237E3,2.89E2,2.63E2,3.6E1,5.83E2,1.21E2,1.89E2,5.55E2,8.1E1,1.54E2,4.45E2],"tree_param":{"num_deleted":"0","num_feature":"29","num_nodes":"31","size_leaf_vector":"1"}},{"base_weights":[-6.278525E-2,1.043638E0,-5.140014E0,-4.5229144E0,2.2644022E0,-9.142792E0,-2.1831608E0,-7.9493394E0,-2.1083503E0,1.1272315E0,6.3289523E0,2.1648057E0,-1.0316909E1,5.2822127E0,-9.457609E0,-3.11455E-2,-1.0303158E-1,7.6141305E-2,-2.530194E-2,2.0503247E-2,-4.385403E-2,4.952119E-2,1.174531E-1,5.189072E-2,-7.0565015E-2,-1.8141544E-1,-7.899148E-2,-7.1219574E-3,7.542869E-2,-1.758852E-2,-1.418865E-1],"categories":[],"categories_nodes":[],"categories_segments":[],"categories_sizes":[],"default_left":[0,0,0,0,0,0,0,0,0,0,0,0,0,0,0,0,0,0,0,0,0,0,0,0,0,0,0,0,0,0,0],"id":9,"left_children":[1,3,5,7,9,11,13,15,17,19,21,23,25,27,29,-1,-1,-1,-1,-1,-1,-1,-1,-1,-1,-1,-1,-1,-1,-1,-1],"loss_changes":[5.7862203E4,5.749869E4,2.1747523E4,1.2536691E4,3.204291E4,1.0453254E4,5.7934047E4,7.043801E3,3.73418E3,2.7631877E4,1.1122613E4,2.2283809E3,1.2970008E4,7.1610645E3,1.9585652E4,0E0,0E0,0E0,0E0,0E0,0E0,0E0,0E0,0E0,0E0,0E0,0E0,0E0,0E0,0E0,0E0],"parents":[2147483647,0,0,1,1,2,2,3,3,4,4,5,5,6,6,7,7,8,8,9,9,10,10,11,11,12,12,13,13,14,14],"right_children":[2,4,6,8,10,12,14,16,18,20,22,24,26,28,30,-1,-1,-1,-1,-1,-1,-1,-1,-1,-1,-1,-1,-1,-1,-1,-1],"split_conditions":[6.310764E2,2.2454334E1,3.1429333E1,2.7374158E-2,3.1378E1,2.4971333E1,3.2906666E1,1.1881154E-1,5.0586123E-2,5.644531E2,3.4217667E1,5.3309536E-1,2.8752E1,5.9420288E1,1.23E2,-3.11455E-2,-1.0303158E-1,7.6141305E-2,-2.530194E-2,2.0503247E-2,-4.385403E-2,4.952119E-2,1.174531E-1,5.189072E-2,-7.0565015E-2,-1.8141544E-1,-7.899148E-2,-7.1219574E-3,7.542869E-2,-1.758852E-2,-1.418865E-1],"split_indices":[0,21,21,23,21,21,21,8,8,0,21,23,21,3,27,0,0,0,0,0,0,0,0,0,0,0,0,0,0,0,0],"split_type":[0,0,0,0,0,0,0,0,0,0,0,0,0,0,0,0,0,0,0,0,0,0,0,0,0,0,0,0,0,0,0],"sum_hessian":[1.0294E4,8.454E3,1.84E3,1.519E3,6.935E3,7.79E2,1.061E3,6.25E2,8.94E2,5.422E3,1.513E3,7.3E1,7.06E2,5.24E2,5.37E2,2.07E2,4.18E2,3.5E1,8.59E2,4.646E3,7.76E2,1.211E3,3.02E2,5.6E1,1.7E1,1.62E2,5.44E2,1.44E2,3.8E2,2.06E2,3.31E2],"tree_param":{"num_deleted":"0","num_feature":"29","num_nodes":"31","size_leaf_vector":"1"}},{"base_weights":[-5.895661E-2,3.398126E0,-8.365921E-1,-3.4874983E0,4.1908116E0,-3.866212E0,3.710604E-1,-2.7864507E-1,-1.2894809E1,6.2227573E0,2.050349E0,-1.0147963E0,-6.81378E0,7.640288E-1,-3.104373E0,5.8012083E-2,-5.138576E-2,-1.6396531E-1,8.169902E-3,6.6982396E-2,-9.348594E-2,3.1631745E-2,-6.6822106E-3,-1.371018E-1,-3.2403655E-3,2.6489958E-2,-7.547405E-2,-1.9152215E-2,1.2598374E-2,-6.0094263E-2,4.7223843E-3],"categories":[],"categories_nodes":[],"categories_segments":[],"categories_sizes":[],"default_left":[0,0,0,0,0,0,0,0,0,0,0,0,0,0,0,0,0,0,0,0,0,0,0,0,0,0,0,0,0,0,0],"id":10,"left_children":[1,3,5,7,9,11,13,15,17,19,21,23,25,27,29,-1,-1,-1,-1,-1,-1,-1,-1,-1,-1,-1,-1,-1,-1,-1,-1],"loss_changes":[2.771338E4,1.0376453E4,3.0797906E4,5.92941E3,7.3470566E3,2.0138316E4,8.227673E3,4.5212485E3,2.4487227E3,6.6279297E3,2.5246333E3,1.0704705E4,8.247211E3,7.1948574E3,6.370114E3,0E0,0E0,0E0,0E0,0E0,0E0,0E0,0E0,0E0,0E0,0E0,0E0,0E0,0E0,0E0,0E0],"parents":[2147483647,0,0,1,1,2,2,3,3,4,4,5,5,6,6,7,7,8,8,9,9,10,10,11,11,12,12,13,13,14,14],"right_children":[2,4,6,8,10,12,14,16,18,20,22,24,26,28,30,-1,-1,-1,-1,-1,-1,-1,-1,-1,-1,-1,-1,-1,-1,-1,-1],"split_conditions":[5.8341437E2,7.737978E-2,5.7142857E1,3.4200594E-2,1.2790651E1,1.2E2,1.04603226E2,1E0,5.9811033E-2,1.61E2,6.2903225E1,8.02183E-2,6.9330956E1,6.804124E1,4.548061E0,5.8012083E-2,-5.138576E-2,-1.6396531E-1,8.169902E-3,6.6982396E-2,-9.348594E-2,3.1631745E-2,-6.6822106E-3,-1.371018E-1,-3.2403655E-3,2.6489958E-2,-7.547405E-2,-1.9152215E-2,1.2598374E-2,-6.0094263E-2,4.7223843E-3],"split_indices":[11,26,7,22,6,27,17,27,26,27,3,26,17,4,26,0,0,0,0,0,0,0,0,0,0,0,0,0,0,0,0],"split_type":[0,0,0,0,0,0,0,0,0,0,0,0,0,0,0,0,0,0,0,0,0,0,0,0,0,0,0,0,0,0,0],"sum_hessian":[1.0303E4,1.89E3,8.413E3,1.94E2,1.696E3,2.396E3,6.017E3,1.47E2,4.7E1,8.67E2,8.29E2,1.22E3,1.176E3,5.408E3,6.09E2,6.5E1,8.2E1,3.7E1,1E1,8.43E2,2.4E1,5.88E2,2.41E2,6E1,1.16E3,8.4E1,1.092E3,8.43E2,4.565E3,3.35E2,2.74E2],"tree_param":{"num_deleted":"0","num_feature":"29","num_nodes":"31","size_leaf_vector":"1"}},{"base_weights":[-2.0668725E-2,-4.1685886E0,9.9052763E-1,3.086967E0,-5.3827767E0,-1.4299133E0,3.2937741E0,4.3773274E0,-5.3581033E0,-9.720413E0,-2.5723903E0,4.279489E0,-2.6083996E0,8.29399E0,2.779804E0,5.4839075E-2,-1.9693352E-2,-1.1428274E-1,5.974499E-3,7.254917E-2,-1.1670679E-1,1.1489167E-2,-8.819104E-2,-3.0560348E-2,8.483606E-2,-9.1645814E-2,-1.3035445E-2,5.9272688E-2,1.425975E-1,-4.0453687E-2,3.4103345E-2],"categories":[],"categories_nodes":[],"categories_segments":[],"categories_sizes":[],"default_left":[0,0,0,0,0,0,0,0,0,0,0,0,0,0,0,0,0,0,0,0,0,0,0,0,0,0,0,0,0,0,0],"id":11,"left_children":[1,3,5,7,9,11,13,15,17,19,21,23,25,27,29,-1,-1,-1,-1,-1,-1,-1,-1,-1,-1,-1,-1,-1,-1,-1,-1],"loss_changes":[4.331237E4,1.7881645E4,4.629765E4,3.25185E3,2.1069246E4,2.7282883E4,1.0860484E4,1.8250449E3,1.4719478E3,2.2801668E4,2.4605193E4,2.148304E4,2.8694727E4,5.313463E3,1.6665414E4,0E0,0E0,0E0,0E0,0E0,0E0,0E0,0E0,0E0,0E0,0E0,0E0,0E0,0E0,0E0,0E0],"parents":[2147483647,0,0,1,1,2,2,3,3,4,4,5,5,6,6,7,7,8,8,9,9,10,10,11,11,12,12,13,13,14,14],"right_children":[2,4,6,8,10,12,14,16,18,20,22,24,26,28,30,-1,-1,-1,-1,-1,-1,-1,-1,-1,-1,-1,-1,-1,-1,-1,-1],"split_conditions":[9.798418E1,7.909013E1,6.4271866E1,6.56334E1,6.456318E1,1.4153795E1,1.7269163E-1,7.8E1,6.9174023E0,6.2752686E1,1.33E2,6.292999E1,1.1911874E2,6.507169E1,6.3E1,5.4839075E-2,-1.9693352E-2,-1.1428274E-1,5.974499E-3,7.254917E-2,-1.1670679E-1,1.1489167E-2,-8.819104E-2,-3.0560348E-2,8.483606E-2,-9.1645814E-2,-1.3035445E-2,5.9272688E-2,1.425975E-1,-4.0453687E-2,3.4103345E-2],"split_indices":[5,5,25,25,25,6,26,3,26,25,27,25,5,25,27,0,0,0,0,0,0,0,0,0,0,0,0,0,0,0,0],"split_type":[0,0,0,0,0,0,0,0,0,0,0,0,0,0,0,0,0,0,0,0,0,0,0,0,0,0,0,0,0,0,0],"sum_hessian":[1.032E4,2.021E3,8.299E3,2.89E2,1.732E3,4.047E3,4.252E3,2.52E2,3.7E1,6.78E2,1.054E3,6.91E2,3.356E3,3.92E2,3.86E3,2.15E2,3.7E1,1.7E1,2E1,6.9E1,6.09E2,6.62E2,3.92E2,2.52E2,4.39E2,5.54E2,2.802E3,2.85E2,1.07E2,3.25E2,3.535E3],"tree_param":{"num_deleted":"0","num_feature":"29","num_nodes":"31","size_leaf_vector":"1"}},{"base_weights":[6.0795296E-2,1.2588387E0,-4.475974E0,-4.8397174E0,2.6023617E0,-8.016655E0,-1.5613692E0,-9.58881E0,-3.463874E0,1.1528044E0,5.810346E0,-1.1835128E1,3.1438005E-1,5.495593E0,-8.3668785E0,-5.2346084E-3,-1.2201174E-1,-1.3198598E-1,-2.3539761E-2,3.5462108E-2,-1.6039412E-2,4.852442E-2,1.1783114E-1,-2.319471E-1,-8.237121E-2,7.49221E-2,-1.1228903E-2,-1.555557E-2,7.231867E-2,-3.2001775E-2,-1.4802112E-1],"categories":[],"categories_nodes":[],"categories_segments":[],"categories_sizes":[],"default_left":[0,0,0,0,0,0,0,0,0,0,0,0,0,0,0,0,0,0,0,0,0,0,0,0,0,0,0,0,0,0,0],"id":12,"left_children":[1,3,5,7,9,11,13,15,17,19,21,23,25,27,29,-1,-1,-1,-1,-1,-1,-1,-1,-1,-1,-1,-1,-1,-1,-1,-1],"loss_changes":[5.6172266E4,6.7027125E4,2.223786E4,9.544555E3,3.1141781E4,3.1001645E4,5.719453E4,7.789537E3,1.2324248E4,3.0500855E4,1.1749148E4,2.67135E4,3.2162166E3,7.198586E3,1.9997738E4,0E0,0E0,0E0,0E0,0E0,0E0,0E0,0E0,0E0,0E0,0E0,0E0,0E0,0E0,0E0,0E0],"parents":[2147483647,0,0,1,1,2,2,3,3,4,4,5,5,6,6,7,7,8,8,9,9,10,10,11,11,12,12,13,13,14,14],"right_children":[2,4,6,8,10,12,14,16,18,20,22,24,26,28,30,-1,-1,-1,-1,-1,-1,-1,-1,-1,-1,-1,-1,-1,-1,-1,-1],"split_conditions":[6.157095E2,2.2454334E1,3.1429333E1,1.6754858E-2,2.9771E1,4.8275666E0,3.2906666E1,3.9779413E2,5.1057406E-2,2.3960667E1,3.4217667E1,2.8752E1,2.1840042E-2,5.6666668E1,1.33E2,-5.2346084E-3,-1.2201174E-1,-1.3198598E-1,-2.3539761E-2,3.5462108E-2,-1.6039412E-2,4.852442E-2,1.1783114E-1,-2.319471E-1,-8.237121E-2,7.49221E-2,-1.1228903E-2,-1.555557E-2,7.231867E-2,-3.2001775E-2,-1.4802112E-1],"split_indices":[0,21,21,23,21,26,21,0,26,21,21,21,23,3,27,0,0,0,0,0,0,0,0,0,0,0,0,0,0,0,0],"split_type":[0,0,0,0,0,0,0,0,0,0,0,0,0,0,0,0,0,0,0,0,0,0,0,0,0,0,0,0,0,0,0],"sum_hessian":[1.0329E4,8.173E3,2.156E3,1.474E3,6.699E3,9.71E2,1.185E3,3.27E2,1.147E3,4.617E3,2.082E3,6.65E2,3.06E2,5.82E2,6.03E2,7.4E1,2.53E2,1.14E2,1.033E3,2.471E3,2.146E3,1.799E3,2.83E2,1.56E2,5.09E2,4.9E1,2.57E2,1.15E2,4.67E2,3.37E2,2.66E2],"tree_param":{"num_deleted":"0","num_feature":"29","num_nodes":"31","size_leaf_vector":"1"}},{"base_weights":[5.8090586E-2,1.1447492E0,-5.0901647E0,-4.124518E0,2.2838566E0,-9.03544E0,-2.108369E0,-7.2638144E0,-1.809684E0,3.2159176E-2,4.179991E0,-1.5400985E1,1.1153915E0,4.9139547E0,-8.43837E0,-1.9698726E-2,-9.976361E-2,-1.1806165E-2,-1.17849395E-1,6.3712254E-2,-2.117444E-2,7.857072E-2,3.5891388E-2,3.035751E-2,-1.6351976E-1,6.531467E-2,-2.3464222E-2,6.0491584E-2,-6.7797996E-2,-2.4359515E-2,-1.6173398E-1],"categories":[],"categories_nodes":[],"categories_segments":[],"categories_sizes":[],"default_left":[0,0,0,0,0,0,0,0,0,0,0,0,0,0,0,0,0,0,0,0,0,0,0,0,0,0,0,0,0,0,0],"id":13,"left_children":[1,3,5,7,9,11,13,15,17,19,21,23,25,27,29,-1,-1,-1,-1,-1,-1,-1,-1,-1,-1,-1,-1,-1,-1,-1,-1],"loss_changes":[5.816366E4,5.1556754E4,2.1253656E4,1.105266E4,3.0144574E4,5.0394207E4,4.617772E4,9.226035E3,5.4926987E3,4.406975E4,8.237297E3,8.553969E3,5.7291514E3,6.6671455E3,2.5222676E4,0E0,0E0,0E0,0E0,0E0,0E0,0E0,0E0,0E0,0E0,0E0,0E0,0E0,0E0,0E0,0E0],"parents":[2147483647,0,0,1,1,2,2,3,3,4,4,5,5,6,6,7,7,8,8,9,9,10,10,11,11,12,12,13,13,14,14],"right_children":[2,4,6,8,10,12,14,16,18,20,22,24,26,28,30,-1,-1,-1,-1,-1,-1,-1,-1,-1,-1,-1,-1,-1,-1,-1,-1],"split_conditions":[6.334821E2,2.2454334E1,3.1429333E1,2.9156433E-2,6.4271866E1,6.460109E1,3.2906666E1,1.1881154E-1,2.2533098E1,1.4108892E-1,3.9553773E-1,2.4761333E1,4.3889046E-2,8.331955E-2,6.560096E1,-1.9698726E-2,-9.976361E-2,-1.1806165E-2,-1.17849395E-1,6.3712254E-2,-2.117444E-2,7.857072E-2,3.5891388E-2,3.035751E-2,-1.6351976E-1,6.531467E-2,-2.3464222E-2,6.0491584E-2,-6.7797996E-2,-2.4359515E-2,-1.6173398E-1],"split_indices":[0,21,21,23,25,25,21,8,26,8,26,21,23,23,25,0,0,0,0,0,0,0,0,0,0,0,0,0,0,0,0],"split_type":[0,0,0,0,0,0,0,0,0,0,0,0,0,0,0,0,0,0,0,0,0,0,0,0,0,0,0,0,0,0,0],"sum_hessian":[1.0391E4,8.582E3,1.809E3,1.524E3,7.058E3,7.76E2,1.033E3,6.44E2,8.8E2,3.228E3,3.83E3,4.76E2,3E2,4.9E2,5.43E2,2.2E2,4.24E2,8.31E2,4.9E1,8.16E2,2.412E3,5.25E2,3.305E3,2.3E1,4.53E2,1.16E2,1.84E2,4.48E2,4.2E1,3.08E2,2.35E2],"tree_param":{"num_deleted":"0","num_feature":"29","num_nodes":"31","size_leaf_vector":"1"}},{"base_weights":[4.6874475E-2,1.2392439E0,-4.259128E0,-7.1653575E-1,3.2180622E0,-8.299237E0,-1.7211353E0,4.0362773E0,-1.6587801E0,3.5981576E0,-2.0159988E0,7.2762156E0,-1.0074228E1,1.0700452E0,-8.016624E0,-2.6641795E-2,8.452774E-2,3.8828976E-2,-2.5789576E-2,2.161115E-3,4.1558698E-2,-6.163885E-2,2.998912E-2,-3.6387937E-3,7.4679404E-2,2.816948E-2,-1.2330561E-1,2.795542E-2,-1.1217043E-2,-1.2484927E-1,-7.0129894E-3],"categories":[],"categories_nodes":[],"categories_segments":[],"categories_sizes":[],"default_left":[0,0,0,0,0,0,0,0,0,0,0,0,0,0,0,0,0,0,0,0,0,0,0,0,0,0,0,0,0,0,0],"id":14,"left_children":[1,3,5,7,9,11,13,15,17,19,21,23,25,27,29,-1,-1,-1,-1,-1,-1,-1,-1,-1,-1,-1,-1,-1,-1,-1,-1],"loss_changes":[5.301104E4,3.1302059E4,2.291032E4,1.8241145E4,8.020117E3,2.408005E4,2.4260785E4,2.0015832E4,1.73569E4,7.0665195E3,5.756588E3,1.4353613E2,2.2680312E4,3.633263E3,1.3826467E4,0E0,0E0,0E0,0E0,0E0,0E0,0E0,0E0,0E0,0E0,0E0,0E0,0E0,0E0,0E0,0E0],"parents":[2147483647,0,0,1,1,2,2,3,3,4,4,5,5,6,6,7,7,8,8,9,9,10,10,11,11,12,12,13,13,14,14],"right_children":[2,4,6,8,10,12,14,16,18,20,22,24,26,28,30,-1,-1,-1,-1,-1,-1,-1,-1,-1,-1,-1,-1,-1,-1,-1,-1],"split_conditions":[6.138393E2,6.428345E1,6.456318E1,1.02040105E-1,2.8015232E-1,6.2752686E1,1.35E2,6.2905663E1,6.231972E1,1.3917469E-2,8.414634E1,-2.11137E-1,8.300532E1,1.2E2,1.5899041E-1,-2.6641795E-2,8.452774E-2,3.8828976E-2,-2.5789576E-2,2.161115E-3,4.1558698E-2,-6.163885E-2,2.998912E-2,-3.6387937E-3,7.4679404E-2,2.816948E-2,-1.2330561E-1,2.795542E-2,-1.1217043E-2,-1.2484927E-1,-7.0129894E-3],"split_indices":[0,25,25,8,23,25,27,25,25,23,4,22,5,27,8,0,0,0,0,0,0,0,0,0,0,0,0,0,0,0,0],"split_type":[0,0,0,0,0,0,0,0,0,0,0,0,0,0,0,0,0,0,0,0,0,0,0,0,0,0,0,0,0,0,0],"sum_hessian":[1.0319E4,8.083E3,2.236E3,4.066E3,4.017E3,8.6E2,1.376E3,6.71E2,3.395E3,3.746E3,2.71E2,8.7E1,7.73E2,9.55E2,4.21E2,2.67E2,4.04E2,4.82E2,2.913E3,5.31E2,3.215E3,1.48E2,1.23E2,2E0,8.5E1,1.15E2,6.58E2,5.34E2,4.21E2,2.6E2,1.61E2],"tree_param":{"num_deleted":"0","num_feature":"29","num_nodes":"31","size_leaf_vector":"1"}},{"base_weights":[-2.3267811E-2,1.204343E0,-4.6821084E0,-7.7317995E-1,3.2391098E0,-8.519818E0,-2.0884771E0,5.4616437E0,-1.9392316E0,3.6977057E0,-2.9751937E0,7.288684E0,-1.0246519E1,1.0463848E0,-8.707737E0,-9.296499E-2,7.2823286E-2,3.8831804E-2,-2.9192176E-2,8.3244085E-2,3.158765E-2,-5.429963E-2,4.1346367E-2,-1.8143463E-3,7.387689E-2,-1.281457E-1,3.0471303E-2,2.7965616E-2,-1.4487404E-2,-1.8727243E-2,-1.557941E-1],"categories":[],"categories_nodes":[],"categories_segments":[],"categories_sizes":[],"default_left":[0,0,0,0,0,0,0,0,0,0,0,0,0,0,0,0,0,0,0,0,0,0,0,0,0,0,0,0,0,0,0],"id":15,"left_children":[1,3,5,7,9,11,13,15,17,19,21,23,25,27,29,-1,-1,-1,-1,-1,-1,-1,-1,-1,-1,-1,-1,-1,-1,-1,-1],"loss_changes":[5.896117E4,3.2838914E4,2.1341562E4,3.012834E4,1.149548E4,2.3864352E4,2.6737016E4,1.774816E4,1.9947055E4,9.25859E3,4.9199326E3,7.196777E1,2.6818531E4,3.8382422E3,1.9348482E4,0E0,0E0,0E0,0E0,0E0,0E0,0E0,0E0,0E0,0E0,0E0,0E0,0E0,0E0,0E0,0E0],"parents":[2147483647,0,0,1,1,2,2,3,3,4,4,5,5,6,6,7,7,8,8,9,9,10,10,11,11,12,12,13,13,14,14],"right_children":[2,4,6,8,10,12,14,16,18,20,22,24,26,28,30,-1,-1,-1,-1,-1,-1,-1,-1,-1,-1,-1,-1,-1,-1,-1,-1],"split_conditions":[6.157095E2,6.428345E1,6.4588524E1,1.2881381E1,2.8015232E-1,6.2752686E1,1.35E2,8.4418304E-2,6.231972E1,1.7269163E-1,7.0491806E1,-2.593045E-1,7.400568E2,1.2E2,3.834881E0,-9.296499E-2,7.2823286E-2,3.8831804E-2,-2.9192176E-2,8.3244085E-2,3.158765E-2,-5.429963E-2,4.1346367E-2,-1.8143463E-3,7.387689E-2,-1.281457E-1,3.0471303E-2,2.7965616E-2,-1.4487404E-2,-1.8727243E-2,-1.557941E-1],"split_indices":[0,25,25,6,23,25,27,26,25,26,3,22,0,27,26,0,0,0,0,0,0,0,0,0,0,0,0,0,0,0,0],"split_type":[0,0,0,0,0,0,0,0,0,0,0,0,0,0,0,0,0,0,0,0,0,0,0,0,0,0,0,0,0,0,0],"sum_hessian":[1.0303E4,8.156E3,2.147E3,4.137E3,4.019E3,8.63E2,1.284E3,6.5E2,3.487E3,3.744E3,2.75E2,8.4E1,7.79E2,8.73E2,4.11E2,7E1,5.8E2,5.01E2,2.986E3,3.86E2,3.358E3,2.05E2,7E1,1E0,8.3E1,6.53E2,1.26E2,5.13E2,3.6E2,2.08E2,2.03E2],"tree_param":{"num_deleted":"0","num_feature":"29","num_nodes":"31","size_leaf_vector":"1"}},{"base_weights":[3.892934E-2,1.0197375E0,-4.524197E0,-8.475597E-1,2.8586323E0,-5.980001E0,1.4502404E0,4.252409E0,-2.1595943E0,8.087214E0,2.363152E0,-1.1224656E1,-2.8919623E0,3.339198E0,-7.660585E0,-1.4327651E-2,8.171853E-2,-9.5434904E-2,-6.818942E-3,5.8619983E-2,1.396524E-1,-2.8532747E-2,3.0042171E-2,6.9135584E-2,-1.3007793E-1,-6.807908E-2,6.9159786E-3,6.0654845E-2,-2.9280324E-2,-9.604897E-2,2.8002776E-2],"categories":[],"categories_nodes":[],"categories_segments":[],"categories_sizes":[],"default_left":[0,0,0,0,0,0,0,0,0,0,0,0,0,0,0,0,0,0,0,0,0,0,0,0,0,0,0,0,0,0,0],"id":16,"left_children":[1,3,5,7,9,11,13,15,17,19,21,23,25,27,29,-1,-1,-1,-1,-1,-1,-1,-1,-1,-1,-1,-1,-1,-1,-1,-1],"loss_changes":[4.5662715E4,2.884502E4,1.5727469E4,2.7922678E4,1.0901105E4,2.3411707E4,6.201327E3,1.9067943E4,3.617867E4,4.5186504E3,1.2967338E4,1.7640984E4,1.2899502E4,5.129469E3,1.3451213E3,0E0,0E0,0E0,0E0,0E0,0E0,0E0,0E0,0E0,0E0,0E0,0E0,0E0,0E0,0E0,0E0],"parents":[2147483647,0,0,1,1,2,2,3,3,4,4,5,5,6,6,7,7,8,8,9,9,10,10,11,11,12,12,13,13,14,14],"right_children":[2,4,6,8,10,12,14,16,18,20,22,24,26,28,30,-1,-1,-1,-1,-1,-1,-1,-1,-1,-1,-1,-1,-1,-1,-1,-1],"split_conditions":[6.310764E2,6.428345E1,7.400568E2,1.4886356E1,1.7269163E-1,6.452459E1,6.56334E1,6.2905663E1,1.18746994E2,6.507169E1,1.1602311E0,6.2802902E1,1.5529025E-1,4.625561E-2,8.542565E2,-1.4327651E-2,8.171853E-2,-9.5434904E-2,-6.818942E-3,5.8619983E-2,1.396524E-1,-2.8532747E-2,3.0042171E-2,6.9135584E-2,-1.3007793E-1,-6.807908E-2,6.9159786E-3,6.0654845E-2,-2.9280324E-2,-9.604897E-2,2.8002776E-2],"split_indices":[0,25,0,6,26,25,25,25,5,25,26,25,8,23,0,0,0,0,0,0,0,0,0,0,0,0,0,0,0,0,0],"split_type":[0,0,0,0,0,0,0,0,0,0,0,0,0,0,0,0,0,0,0,0,0,0,0,0,0,0,0,0,0,0,0],"sum_hessian":[1.0197E4,8.395E3,1.802E3,4.166E3,4.229E3,1.449E3,3.53E2,8.51E2,3.315E3,3.62E2,3.867E3,5.34E2,9.15E2,2.94E2,5.9E1,3.48E2,5.03E2,5.5E2,2.765E3,2.67E2,9.5E1,4.22E2,3.445E3,4.7E1,4.87E2,4.36E2,4.79E2,2.05E2,8.9E1,5E1,9E0],"tree_param":{"num_deleted":"0","num_feature":"29","num_nodes":"31","size_leaf_vector":"1"}},{"base_weights":[-8.436761E-2,-4.695783E0,9.555236E-1,1.2689321E0,-6.429101E0,-1.1871779E0,3.01742E0,2.9930706E0,-8.316179E0,-1.2165589E1,-4.357123E0,5.5951304E0,-2.3350024E0,7.9737177E0,2.501925E0,-7.307451E-3,5.978048E-2,-1.06608085E-1,-8.067065E-3,6.683814E-2,-1.4831686E-1,-6.773332E-2,3.7814062E-3,-1.474934E-1,6.905557E-2,-1.4577036E-3,-5.7115E-2,5.5221137E-2,1.3708782E-1,-3.962907E-2,3.0954447E-2],"categories":[],"categories_nodes":[],"categories_segments":[],"categories_sizes":[],"default_left":[0,0,0,0,0,0,0,0,0,0,0,0,0,0,0,0,0,0,0,0,0,0,0,0,0,0,0,0,0,0,0],"id":17,"left_children":[1,3,5,7,9,11,13,15,17,19,21,23,25,27,29,-1,-1,-1,-1,-1,-1,-1,-1,-1,-1,-1,-1,-1,-1,-1,-1],"loss_changes":[4.925419E4,1.9567293E4,3.703916E4,7.1451646E3,1.7245516E4,3.2049066E4,1.0849645E4,4.0728884E3,1.1305225E3,1.9749918E4,1.2379023E4,1.6190963E4,2.6006797E4,5.401385E3,1.490092E4,0E0,0E0,0E0,0E0,0E0,0E0,0E0,0E0,0E0,0E0,0E0,0E0,0E0,0E0,0E0,0E0],"parents":[2147483647,0,0,1,1,2,2,3,3,4,4,5,5,6,6,7,7,8,8,9,9,10,10,11,11,12,12,13,13,14,14],"right_children":[2,4,6,8,10,12,14,16,18,20,22,24,26,28,30,-1,-1,-1,-1,-1,-1,-1,-1,-1,-1,-1,-1,-1,-1,-1,-1],"split_conditions":[9.7383965E1,8.300532E1,6.4271866E1,6.565381E1,6.433751E1,1.2881381E1,1.7269163E-1,1.0792413E2,8.279767E0,6.2802902E1,1.5459358E1,6.384125E-2,9.595591E-1,6.507169E1,6.3E1,-7.307451E-3,5.978048E-2,-1.06608085E-1,-8.067065E-3,6.683814E-2,-1.4831686E-1,-6.773332E-2,3.7814062E-3,-1.474934E-1,6.905557E-2,-1.4577036E-3,-5.7115E-2,5.5221137E-2,1.3708782E-1,-3.962907E-2,3.0954447E-2],"split_indices":[5,5,25,25,25,6,26,17,26,25,6,26,26,25,27,0,0,0,0,0,0,0,0,0,0,0,0,0,0,0,0],"split_type":[0,0,0,0,0,0,0,0,0,0,0,0,0,0,0,0,0,0,0,0,0,0,0,0,0,0,0,0,0,0,0],"sum_hessian":[1.0265E4,1.887E3,8.378E3,4.25E2,1.462E3,4.109E3,4.269E3,3.62E2,6.3E1,3.84E2,1.078E3,5.93E2,3.516E3,3.98E2,3.871E3,1.62E2,2E2,4.7E1,1.6E1,4.7E1,3.37E2,7.13E2,3.65E2,3.4E1,5.59E2,2.135E3,1.381E3,2.83E2,1.15E2,3.24E2,3.547E3],"tree_param":{"num_deleted":"0","num_feature":"29","num_nodes":"31","size_leaf_vector":"1"}}]},"name":"gbtree"},"learner_model_param":{"base_score":"[7.627364E1]","boost_from_average":"1","num_class":"0","num_feature":"29","num_target":"1"},"objective":{"name":"reg:squarederror","reg_loss_param":{"scale_pos_weight":"1"}}},"version":[3,2,0]}